{"learner":{"attributes":{"best_iteration":"99","best_ntree_limit":"100","scikit_learn":"{\"n_estimators\": 100, \"objective\": \"reg:squarederror\", \"max_depth\": 11, \"max_leaves\": null, \"max_bin\": null, \"grow_policy\": null, \"learning_rate\": 0.2, \"verbosity\": null, \"booster\": null, \"tree_method\": null, \"gamma\": 0.1, \"min_child_weight\": 2, \"max_delta_step\": null, \"subsample\": 1, \"sampling_method\": null, \"colsample_bytree\": 1, \"colsample_bylevel\": 1, \"colsample_bynode\": null, \"reg_alpha\": null, \"reg_lambda\": null, \"scale_pos_weight\": null, \"base_score\": null, \"missing\": NaN, \"num_parallel_tree\": null, \"random_state\": 42, \"n_jobs\": null, \"monotone_constraints\": null, \"interaction_constraints\": null, \"importance_type\": null, \"gpu_id\": null, \"validate_parameters\": null, \"predictor\": null, \"enable_categorical\": false, \"max_cat_to_onehot\": null, \"eval_metric\": null, \"early_stopping_rounds\": null, \"callbacks\": null, \"evals_result_\": {\"validation_0\": {\"rmse\": [57.83403731788873, 46.39783820076338, 37.23116799200666, 29.885594781764887, 24.00184569810144, 19.288493018118576, 15.516461664724124, 12.49212863716533, 10.071972939362704, 8.13187379460529, 6.579383536047255, 5.33765256612689, 4.347345431360326, 3.557473165019652, 2.9256124644451704, 2.424702337680126, 2.0158685707798036, 1.691647791188728, 1.4255508238857444, 1.2155167430728617, 1.0359135357295335, 0.8975794329687898, 0.7793823507209521, 0.6811678665167499, 0.6058792784986489, 0.5358172890506028, 0.4826177114318894, 0.44280480582185516, 0.4070087487270492, 0.37237042085355604, 0.3492517463629418, 0.32842172189808055, 0.3067547396169368, 0.2898736837016214, 0.27454221953644414, 0.2608155318562693, 0.2510053949423915, 0.24194322562792042, 0.23474846281389905, 0.22865063371850192, 0.22173309796477242, 0.21356557905634124, 0.20776156843437452, 0.20265451896214384, 0.1983373025733366, 0.1937553473387562, 0.18726631048244097, 0.18487032655770255, 0.18396754042300026, 0.18094081857274077, 0.17976666406859776, 0.17889537378838002, 0.17788113686108736, 0.17757988754241866, 0.17636342363239324, 0.17546589510912466, 0.1728506921374055, 0.1723589155675487, 0.17127691905745715, 0.16818594402676681, 0.16818573030908374, 0.16818556707669494, 0.16818545461951062, 0.16818541086330302, 0.16818543337195455, 0.16818540862535378, 0.168185349512668, 0.16818536675596016, 0.16818536009228885, 0.16818533772318636, 0.16818529062366755, 0.1681852288287411, 0.16818527104880238, 0.1681853125562942, 0.16818533933096372, 0.1681853701161368, 0.16818538790554866, 0.1681854038272917, 0.16818542092502012, 0.16818543803602984, 0.1681854551043267, 0.1681854701387162, 0.1681854853040952, 0.16818550041605637, 0.16818550246991826, 0.16818550453907208, 0.1681855065813434, 0.16818550864400703, 0.16818551070528087, 0.1681855127592252, 0.16818551479995528, 0.16818551686061903, 0.1681855189186821, 0.16818552097332348, 0.16818552303282214, 0.16818552510662202, 0.16818552715371365, 0.16818552919824592, 0.16818553126354202, 0.1681855333154542]}, \"validation_1\": {\"rmse\": [119.43340720640286, 96.01159544616706, 77.39836007883594, 62.304745866592135, 50.6216481717518, 40.9409012347916, 33.31008819103522, 27.201608276323014, 21.992917819173112, 18.045774226876606, 14.98682852911256, 12.321216250706332, 10.334530699440108, 8.74753997682833, 7.832297753760311, 7.018526289815095, 6.575099311516484, 6.151648525084764, 5.944138196689443, 5.650151292020978, 5.567804400292714, 5.404419754177916, 5.351404560319074, 5.313049699007359, 5.282773853109941, 5.244131894291483, 5.1992418180749285, 5.2136763434301665, 5.2380743641643, 5.269131256357455, 5.298174331422891, 5.292518937216511, 5.265911301446142, 5.260150978970858, 5.251073456712288, 5.252665961415227, 5.250352298032218, 5.250912916009828, 5.2614738248106185, 5.264706077359, 5.281123842000479, 5.278460432185282, 5.273435663960492, 5.27496009036722, 5.274164936779975, 5.270960035715367, 5.269245375913475, 5.269931041098316, 5.271801256876215, 5.277824651200115, 5.275728613293848, 5.271242889125195, 5.275305497969058, 5.274926138564724, 5.274373511424015, 5.274066455294986, 5.275292613204942, 5.274918166306966, 5.274732843994999, 5.274924739247014, 5.274930094704578, 5.274934556684352, 5.274938128347392, 5.274940782787798, 5.274942583461028, 5.274944391571773, 5.274946153857114, 5.274947063622606, 5.274947963834708, 5.274948845178684, 5.27494973459353, 5.274950628061176, 5.274950628061176, 5.274950628061176, 5.274950628061176, 5.274950628061176, 5.274950628061176, 5.274950628061176, 5.274950628061176, 5.274950628061176, 5.274950628061176, 5.274950628061176, 5.274950628061176, 5.274950628061176, 5.274950628061176, 5.274950628061176, 5.274950628061176, 5.274950628061176, 5.274950628061176, 5.274950628061176, 5.274950628061176, 5.274950628061176, 5.274950628061176, 5.274950628061176, 5.274950628061176, 5.274950628061176, 5.274950628061176, 5.274950628061176, 5.274950628061176, 5.274950628061176]}}, \"_estimator_type\": \"regressor\"}"},"feature_names":["EMA_9","SMA_5","SMA_10","SMA_15","SMA_30","RSI","MACD","MACD_signal","14-high","14-low","%K","%D","MFI"],"feature_types":["float","float","float","float","float","float","float","float","float","float","float","float","float"],"gradient_booster":{"model":{"gbtree_model_param":{"num_parallel_tree":"1","num_trees":"100","size_leaf_vector":"0"},"tree_info":[0,0,0,0,0,0,0,0,0,0,0,0,0,0,0,0,0,0,0,0,0,0,0,0,0,0,0,0,0,0,0,0,0,0,0,0,0,0,0,0,0,0,0,0,0,0,0,0,0,0,0,0,0,0,0,0,0,0,0,0,0,0,0,0,0,0,0,0,0,0,0,0,0,0,0,0,0,0,0,0,0,0,0,0,0,0,0,0,0,0,0,0,0,0,0,0,0,0,0,0],"trees":[{"base_weights":[5.6441895E1,3.5315434E1,1.3695218E2,2.536906E1,5.2405956E1,1.19909775E2,1.5715353E2,1.9665936E1,3.0507858E1,4.6488464E1,7.0845E1,9.0290146E1,1.2365306E2,1.6818039E1,2.3468231E1,2.8573307E1,3.618878E1,4.2875126E1,5.1840668E1,6.485537E1,7.669426E1,1.5241829E1,1.8157633E1,2.7366106E1,3.0790335E1],"categories":[],"categories_nodes":[],"categories_segments":[],"categories_sizes":[],"default_left":[1,1,1,1,1,1,0,1,1,1,1,0,0,1,0,1,0,0,0,0,0,0,0,0,0],"id":0,"left_children":[1,3,5,7,9,11,-1,13,15,17,19,-1,-1,21,-1,23,-1,-1,-1,-1,-1,-1,-1,-1,-1],"loss_changes":[4.00758E6,3.165495E5,1.49853E5,3.4099688E4,7.1667E4,1.87715E4,0E0,5.7126094E3,5.7908125E3,7.89175E3,8.066875E2,0E0,0E0,4.1158594E2,0E0,4.0996875E2,0E0,0E0,0E0,0E0,0E0,0E0,0E0,0E0,0E0],"parents":[2147483647,0,0,1,1,2,2,3,3,4,4,5,5,7,7,8,8,9,9,10,10,13,13,15,15],"right_children":[2,4,6,8,10,12,-1,14,16,18,20,-1,-1,22,-1,24,-1,-1,-1,-1,-1,-1,-1,-1,-1],"split_conditions":[8.136818E1,3.8733498E1,1.3551254E2,2.5568E1,5.6800713E1,9.575633E1,3.1430708E1,2.090875E1,3.289425E1,4.791175E1,6.5238754E1,1.805803E1,2.4730612E1,1.5977143E1,4.6936464E0,2.9612999E1,7.2377563E0,8.575026E0,1.0368134E1,1.2971074E1,1.5338852E1,3.0483658E0,3.6315267E0,5.4732213E0,6.158067E0],"split_indices":[0,1,0,1,0,3,0,8,1,1,9,0,0,9,0,1,0,0,0,0,0,0,0,0,0],"split_type":[0,0,0,0,0,0,0,0,0,0,0,0,0,0,0,0,0,0,0,0,0,0,0,0,0],"sum_hessian":[2.358E3,1.869E3,4.89E2,1.183E3,6.86E2,2.69E2,2.2E2,5.63E2,6.2E2,5.22E2,1.64E2,3.3E1,2.36E2,3.25E2,2.38E2,4.67E2,1.53E2,3.17E2,2.05E2,8.7E1,7.7E1,1.55E2,1.7E2,3.11E2,1.56E2],"tree_param":{"num_deleted":"0","num_feature":"13","num_nodes":"25","size_leaf_vector":"0"}},{"base_weights":[4.5217827E1,2.8182278E1,1.0931093E2,2.0883127E1,4.2948112E1,9.409551E1,1.2457721E2,1.587841E1,2.5191872E1,3.8021355E1,5.618416E1,7.199168E1,9.756459E1,1.1390419E2,1.346568E2,1.3577487E1,1.90455E1,2.3018051E1,2.9654352E1,3.5521923E1,4.2074146E1,5.020358E1,5.9959743E1,1.2323684E1,1.4817475E1,2.2075853E1,2.486095E1],"categories":[],"categories_nodes":[],"categories_segments":[],"categories_sizes":[],"default_left":[1,1,1,1,1,1,1,1,1,1,1,0,0,0,0,1,0,1,0,0,0,0,0,0,0,0,0],"id":1,"left_children":[1,3,5,7,9,11,13,15,17,19,21,-1,-1,-1,-1,23,-1,25,-1,-1,-1,-1,-1,-1,-1,-1,-1],"loss_changes":[2.57262E6,2.0010925E5,1.03258E5,2.6555062E4,3.803375E4,1.22995E4,1.09115E4,3.9752812E3,5.8168438E3,3.0840625E3,7.1553125E2,0E0,0E0,0E0,0E0,3.459961E2,0E0,2.4121875E2,0E0,0E0,0E0,0E0,0E0,0E0,0E0,0E0,0E0],"parents":[2147483647,0,0,1,1,2,2,3,3,4,4,5,5,6,6,7,7,8,8,9,9,10,10,15,15,17,17],"right_children":[2,4,6,8,10,12,14,16,18,20,22,-1,-1,-1,-1,24,-1,26,-1,-1,-1,-1,-1,-1,-1,-1,-1],"split_conditions":[8.109425E1,4.0869E1,1.3923E2,2.6475E1,5.888875E1,9.30795E1,1.47155E2,2.0662025E1,3.349125E1,4.699875E1,6.8248E1,1.4398335E1,1.9512918E1,2.2780838E1,2.693136E1,1.6829643E1,3.8091E0,2.9988998E1,5.9308705E0,7.104385E0,8.414829E0,1.0040716E1,1.1991949E1,2.4647367E0,2.963495E0,4.4151707E0,4.9721904E0],"split_indices":[1,1,8,1,8,4,9,0,1,9,1,0,0,0,0,9,0,1,0,0,0,0,0,0,0,0,0],"split_type":[0,0,0,0,0,0,0,0,0,0,0,0,0,0,0,0,0,0,0,0,0,0,0,0,0,0,0],"sum_hessian":[2.358E3,1.864E3,4.94E2,1.249E3,6.15E2,2.51E2,2.43E2,5.8E2,6.69E2,4.51E2,1.64E2,3.7E1,2.14E2,1.24E2,1.19E2,3.39E2,2.41E2,4.54E2,2.15E2,2.85E2,1.66E2,6.9E1,9.5E1,1.74E2,1.65E2,3.09E2,1.45E2],"tree_param":{"num_deleted":"0","num_feature":"13","num_nodes":"27","size_leaf_vector":"0"}},{"base_weights":[3.623604E1,2.273584E1,8.8217804E1,1.6930304E1,3.5156216E1,7.42232E1,9.833487E1,1.2963408E1,2.0642763E1,3.097911E1,4.624977E1,6.456967E1,7.85507E1,9.0509026E1,1.0794987E2,1.0904219E1,1.5481304E1,1.8723768E1,2.4236578E1,2.745832E1,3.2900944E1,4.2368683E1,5.0458775E1,9.505091E0,1.1665794E1,1.781413E1,2.005799E1,3.1229685E1,3.568029E1],"categories":[],"categories_nodes":[],"categories_segments":[],"categories_sizes":[],"default_left":[1,1,1,1,1,1,1,1,1,1,1,0,0,0,0,1,0,1,0,0,1,0,0,0,0,0,0,0,0],"id":2,"left_children":[1,3,5,7,9,11,13,15,17,19,21,-1,-1,-1,-1,23,-1,25,-1,-1,27,-1,-1,-1,-1,-1,-1,-1,-1],"loss_changes":[1.6534562E6,1.3453325E5,6.151125E4,1.8568156E4,2.618525E4,3.617375E3,1.122325E4,3.050961E3,4.091E3,2.04675E3,4.92125E2,0E0,0E0,0E0,0E0,2.5672656E2,0E0,1.6942188E2,0E0,0E0,1.72375E2,0E0,0E0,0E0,0E0,0E0,0E0,0E0,0E0],"parents":[2147483647,0,0,1,1,2,2,3,3,4,4,5,5,6,6,7,7,8,8,9,9,10,10,15,15,17,17,20,20],"right_children":[2,4,6,8,10,12,14,16,18,20,22,-1,-1,-1,-1,24,-1,26,-1,-1,28,-1,-1,-1,-1,-1,-1,-1,-1],"split_conditions":[8.334385E1,4.2347748E1,1.30416E2,2.69955E1,5.9076447E1,1.151075E2,1.47155E2,2.1018063E1,3.439142E1,4.626525E1,7.296175E1,1.2913935E1,1.5710139E1,1.8101805E1,2.1589973E1,1.7492859E1,3.0962608E0,2.8622501E1,4.847316E0,5.4916644E0,5.2454002E1,8.473737E0,1.0091755E1,1.9010181E0,2.333159E0,3.5628262E0,4.011598E0,6.245937E0,7.1360583E0],"split_indices":[0,1,1,1,0,1,9,0,0,1,1,0,0,0,0,8,0,9,0,0,1,0,0,0,0,0,0,0,0],"split_type":[0,0,0,0,0,0,0,0,0,0,0,0,0,0,0,0,0,0,0,0,0,0,0,0,0,0,0,0,0],"sum_hessian":[2.358E3,1.873E3,4.85E2,1.278E3,5.95E2,2.07E2,2.78E2,6.2E2,6.58E2,4.35E2,1.6E2,6.9E1,1.38E2,1.59E2,1.19E2,3.44E2,2.76E2,4.33E2,2.25E2,1.59E2,2.76E2,8.9E1,7.1E1,1.26E2,2.18E2,2.66E2,1.67E2,1.8E2,9.6E1],"tree_param":{"num_deleted":"0","num_feature":"13","num_nodes":"29","size_leaf_vector":"0"}},{"base_weights":[2.9042034E1,1.8074703E1,7.0199425E1,1.2692843E1,2.638013E1,5.773172E1,7.822085E1,9.336103E0,1.4810635E1,2.3296083E1,3.5372982E1,4.667301E1,6.0409878E1,7.280954E1,8.7958275E1,8.126312E0,1.0640149E1,1.3506452E1,1.6406425E1,2.1033005E1,2.5795248E1,3.0131718E1,3.770835E1,7.1754766E0,8.451484E0,9.618912E0,1.1174787E1,1.5569892E1,1.7484543E1],"categories":[],"categories_nodes":[],"categories_segments":[],"categories_sizes":[],"default_left":[1,1,1,1,1,1,1,1,1,1,1,0,0,0,0,1,1,0,1,0,0,0,0,0,0,0,0,0,0],"id":3,"left_children":[1,3,5,7,9,11,13,15,17,19,21,-1,-1,-1,-1,23,25,-1,27,-1,-1,-1,-1,-1,-1,-1,-1,-1,-1],"loss_changes":[1.0635522E6,8.298344E4,4.50885E4,7.916078E3,1.9477531E4,3.044625E3,9.35075E3,6.0926953E2,1.2206875E3,2.5568438E3,1.1282344E3,0E0,0E0,0E0,0E0,1.1397461E1,6.6210938E0,0E0,4.640625E0,0E0,0E0,0E0,0E0,0E0,0E0,0E0,0E0,0E0,0E0],"parents":[2147483647,0,0,1,1,2,2,3,3,4,4,5,5,6,6,7,7,8,8,9,9,10,10,15,15,16,16,18,18],"right_children":[2,4,6,8,10,12,14,16,18,20,22,-1,-1,-1,-1,24,26,-1,28,-1,-1,-1,-1,-1,-1,-1,-1,-1,-1],"split_conditions":[8.245E1,3.9004997E1,1.28603E2,2.4055E1,5.565825E1,9.7520996E1,1.6028E2,1.8202858E1,2.90765E1,4.53685E1,6.4851746E1,9.334602E0,1.2081976E1,1.4561908E1,1.7591656E1,1.5618679E1,2.042625E1,2.7012904E0,3.239525E1,4.206601E0,5.1590495E0,6.026344E0,7.5416703E0,1.4350953E0,1.6902968E0,1.9237823E0,2.2349575E0,3.1139784E0,3.4969087E0],"split_indices":[8,8,1,1,1,0,1,9,1,1,1,0,0,0,0,1,8,0,1,0,0,0,0,0,0,0,0,0,0],"split_type":[0,0,0,0,0,0,0,0,0,0,0,0,0,0,0,0,0,0,0,0,0,0,0,0,0,0,0,0,0],"sum_hessian":[2.358E3,1.863E3,4.95E2,1.132E3,7.31E2,1.97E2,2.98E2,4.4E2,6.92E2,5.47E2,1.84E2,4.2E1,1.55E2,1.97E2,1.01E2,2.32E2,2.08E2,3.86E2,3.06E2,2.92E2,2.55E2,6.1E1,1.23E2,6.5E1,1.67E2,7.8E1,1.3E2,1.81E2,1.25E2],"tree_param":{"num_deleted":"0","num_feature":"13","num_nodes":"29","size_leaf_vector":"0"}},{"base_weights":[2.3273094E1,1.466005E1,5.695903E1,1.0768572E1,2.2589302E1,5.0338673E1,6.621396E1,8.351202E0,1.3238502E1,2.0042246E1,3.0686342E1,4.330689E1,5.381076E1,6.1634415E1,7.2011406E1,6.733748E0,9.660038E0,1.220774E1,1.5612909E1,1.8600039E1,2.2965591E1,2.7670942E1,3.3171974E1,6.01632E0,7.2118096E0,8.43861E0,1.0078704E1,1.1600108E1,1.3100992E1,1.7287567E1,1.9526949E1],"categories":[],"categories_nodes":[],"categories_segments":[],"categories_sizes":[],"default_left":[1,1,1,1,1,1,1,1,1,1,1,0,0,0,0,1,1,1,0,1,0,0,0,0,0,0,0,0,0,0,0],"id":4,"left_children":[1,3,5,7,9,11,13,15,17,19,21,-1,-1,-1,-1,23,25,27,-1,29,-1,-1,-1,-1,-1,-1,-1,-1,-1,-1,-1],"loss_changes":[6.836015E5,5.7767E4,2.6076875E4,7.4304844E3,1.2130375E4,4.6034375E3,7.91875E2,1.2919375E3,1.3341641E3,1.5670469E3,1.7639062E2,0E0,0E0,0E0,0E0,5.607422E1,9.4953125E1,8.630469E1,0E0,5.415625E1,0E0,0E0,0E0,0E0,0E0,0E0,0E0,0E0,0E0,0E0,0E0],"parents":[2147483647,0,0,1,1,2,2,3,3,4,4,5,5,6,6,7,7,8,8,9,9,10,10,15,15,16,16,17,17,19,19],"right_children":[2,4,6,8,10,12,14,16,18,20,22,-1,-1,-1,-1,24,26,28,-1,30,-1,-1,-1,-1,-1,-1,-1,-1,-1,-1,-1],"split_conditions":[8.638408E1,4.182525E1,1.45395E2,2.810125E1,6.355625E1,1.19875244E2,1.7388501E2,2.0026428E1,3.5440876E1,5.14395E1,7.314687E1,8.661378E0,1.0762153E1,1.2326883E1,1.4402282E1,1.6383821E1,2.345E1,3.083E1,3.122582E0,4.6533752E1,4.593118E0,5.5341887E0,6.634395E0,1.2032641E0,1.442362E0,1.6877221E0,2.0157409E0,2.3200216E0,2.6201985E0,3.4575136E0,3.9053898E0],"split_indices":[0,1,1,8,1,1,8,8,4,1,2,0,0,0,0,1,1,1,0,8,0,0,0,0,0,0,0,0,0,0,0],"split_type":[0,0,0,0,0,0,0,0,0,0,0,0,0,0,0,0,0,0,0,0,0,0,0,0,0,0,0,0,0,0,0],"sum_hessian":[2.358E3,1.879E3,4.79E2,1.262E3,6.17E2,2.83E2,1.96E2,6.4E2,6.22E2,4.72E2,1.45E2,9.8E1,1.85E2,1.16E2,8E1,2.89E2,3.51E2,4.38E2,1.84E2,3.21E2,1.51E2,7.1E1,7.4E1,1.21E2,1.68E2,9.5E1,2.56E2,2.69E2,1.69E2,1.41E2,1.8E2],"tree_param":{"num_deleted":"0","num_feature":"13","num_nodes":"31","size_leaf_vector":"0"}},{"base_weights":[1.8654375E1,1.1601414E1,4.512225E1,8.482168E0,1.7567913E1,3.542406E1,4.967743E1,6.2663317E0,1.0094509E1,1.5079198E1,2.2206846E1,2.9347597E1,3.7049526E1,4.516114E1,5.488164E1,5.396121E0,7.3363085E0,9.184331E0,1.1599623E1,1.376069E1,1.5995935E1,1.9757372E1,2.477253E1,5.0117755E0,6.0066214E0,6.6394687E0,7.6569104E0,8.665094E0,9.820091E0,1.0753126E1,1.2533592E1,1.3761878E1,1.649441E1,3.9476938E0,5.1246467E0],"categories":[],"categories_nodes":[],"categories_segments":[],"categories_sizes":[],"default_left":[1,1,1,1,1,1,1,1,1,1,1,0,0,0,0,1,1,1,1,0,1,0,0,1,0,0,0,0,0,0,0,0,0,0,0],"id":5,"left_children":[1,3,5,7,9,11,13,15,17,19,21,-1,-1,-1,-1,23,25,27,29,-1,31,-1,-1,33,-1,-1,-1,-1,-1,-1,-1,-1,-1,-1,-1],"loss_changes":[4.398473E5,3.454186E4,2.0152062E4,4.3168516E3,7.042375E3,5.1278125E2,5.39525E3,4.4365625E2,8.633672E2,2.8633594E2,8.994531E2,0E0,0E0,0E0,0E0,3.794336E1,5.46875E-1,6.213672E1,7.315234E1,0E0,4.138672E1,0E0,0E0,1.8686523E0,0E0,0E0,0E0,0E0,0E0,0E0,0E0,0E0,0E0,0E0,0E0],"parents":[2147483647,0,0,1,1,2,2,3,3,4,4,5,5,6,6,7,7,8,8,9,9,10,10,15,15,16,16,17,17,18,18,20,20,23,23],"right_children":[2,4,6,8,10,12,14,16,18,20,22,-1,-1,-1,-1,24,26,28,30,-1,32,-1,-1,34,-1,-1,-1,-1,-1,-1,-1,-1,-1,-1,-1],"split_conditions":[8.245E1,3.989775E1,1.18825E2,2.4938E1,5.1595E1,9.30795E1,1.49055E2,2.0026428E1,3.169925E1,4.6533752E1,6.645975E1,5.8695197E0,7.4099054E0,9.032228E0,1.0976329E1,1.788218E1,2.2539207E1,2.845925E1,3.654425E1,2.752138E0,2.7116934E1,3.9514744E0,4.954506E0,2.8222843E1,1.2013243E0,1.3278937E0,1.5313821E0,1.7330189E0,1.9640182E0,2.1506252E0,2.5067184E0,2.7523756E0,3.298882E0,7.895388E-1,1.0249294E0],"split_indices":[8,1,9,1,9,4,1,8,1,8,1,0,0,0,0,1,4,1,1,0,10,0,0,5,0,0,0,0,0,0,0,0,0,0,0],"split_type":[0,0,0,0,0,0,0,0,0,0,0,0,0,0,0,0,0,0,0,0,0,0,0,0,0,0,0,0,0,0,0,0,0,0,0],"sum_hessian":[2.358E3,1.863E3,4.95E2,1.225E3,6.38E2,1.61E2,3.34E2,5.18E2,7.07E2,4.18E2,2.2E2,3.8E1,1.23E2,1.84E2,1.5E2,2.89E2,2.29E2,4.45E2,2.62E2,1.78E2,2.4E2,1.17E2,1.03E2,1.83E2,1.06E2,7.9E1,1.5E2,2.53E2,1.92E2,1.44E2,1.18E2,4.9E1,1.91E2,2.1E1,1.62E2],"tree_param":{"num_deleted":"0","num_feature":"13","num_nodes":"35","size_leaf_vector":"0"}},{"base_weights":[1.4951151E1,9.0976095E0,3.5482708E1,6.5279756E0,1.3252499E1,2.763966E1,3.9801674E1,4.8999066E0,7.7014456E0,1.1626739E1,1.6849104E1,2.3855108E1,3.0028547E1,3.7376175E1,4.6946114E1,4.1783204E0,5.6010766E0,7.0518756E0,8.513732E0,1.063382E1,1.2552213E1,1.5245618E1,1.8460253E1,3.4863483E1,3.971047E1,3.4878907E0,4.3371854E0,5.1492887E0,5.9499073E0,6.278178E0,7.3446074E0,9.635812E0,1.1097104E1,1.1100511E1,1.8801056E1],"categories":[],"categories_nodes":[],"categories_segments":[],"categories_sizes":[],"default_left":[1,1,1,1,1,1,1,1,1,1,1,0,0,1,0,1,1,1,0,1,0,0,1,0,0,0,0,0,0,0,0,0,0,0,0],"id":6,"left_children":[1,3,5,7,9,11,13,15,17,19,21,-1,-1,23,-1,25,27,29,-1,31,-1,-1,33,-1,-1,-1,-1,-1,-1,-1,-1,-1,-1,-1,-1],"loss_changes":[2.8318725E5,1.9526297E4,1.6615938E4,2.1344883E3,3.903E3,9.923906E2,4.0505E3,2.1894922E2,2.8767578E2,3.131172E2,2.7658984E2,0E0,0E0,1.1121875E2,0E0,1.1196777E1,7.1850586E0,3.8140625E1,0E0,4.5E0,0E0,0E0,4.9648438E1,0E0,0E0,0E0,0E0,0E0,0E0,0E0,0E0,0E0,0E0,0E0,0E0],"parents":[2147483647,0,0,1,1,2,2,3,3,4,4,5,5,6,6,7,7,8,8,9,9,10,10,13,13,15,15,16,16,17,17,19,19,22,22],"right_children":[2,4,6,8,10,12,14,16,18,20,22,-1,-1,24,-1,26,28,30,-1,32,-1,-1,34,-1,-1,-1,-1,-1,-1,-1,-1,-1,-1,-1,-1],"split_conditions":[7.39525E1,3.5676247E1,1.18825E2,2.4557499E1,5.2738E1,1.10807E2,1.7388501E2,1.8745857E1,2.9998749E1,4.2223747E1,6.355625E1,4.771022E0,6.0057096E0,5.6609745E1,9.389223E0,1.5397179E1,2.165007E1,4.216133E1,1.7027464E0,4.516043E1,2.5104425E0,3.0491235E0,-2.0452204E0,6.972697E0,7.942094E0,6.9757813E-1,8.6743706E-1,1.0298578E0,1.1899815E0,1.2556356E0,1.4689215E0,1.9271624E0,2.219421E0,2.220102E0,3.7602112E0],"split_indices":[9,9,9,1,1,1,8,1,8,9,1,0,0,10,0,1,0,10,0,10,0,0,6,0,0,0,0,0,0,0,0,0,0,0,0],"split_type":[0,0,0,0,0,0,0,0,0,0,0,0,0,0,0,0,0,0,0,0,0,0,0,0,0,0,0,0,0,0,0,0,0,0,0],"sum_hessian":[2.358E3,1.836E3,5.22E2,1.136E3,7E2,1.88E2,3.34E2,4.78E2,6.58E2,4.85E2,2.15E2,7.7E1,1.11E2,2.54E2,8E1,2.39E2,2.39E2,3.71E2,2.87E2,2.4E2,2.45E2,1.13E2,1.02E2,1.3E2,1.24E2,4.9E1,1.9E2,1.11E2,1.28E2,1.08E2,2.63E2,8.3E1,1.57E2,6E0,9.6E1],"tree_param":{"num_deleted":"0","num_feature":"13","num_nodes":"35","size_leaf_vector":"0"}},{"base_weights":[1.1985923E1,7.5551195E0,2.9451786E1,5.4314404E0,1.1482132E1,2.6331686E1,3.535611E1,4.133016E0,6.5604863E0,1.00410595E1,1.5480752E1,2.2639843E1,2.8220245E1,2.9926777E1,3.725113E1,3.463547E0,4.8044405E0,6.050635E0,7.660893E0,9.273868E0,1.1336669E1,1.3708445E1,1.7114267E1,3.245061E1,4.0277622E1,3.0590653E0,3.7472615E0,4.28634E0,4.9944797E0,5.4982963E0,6.3103175E0,8.269794E0,9.825922E0,8.561664E0,1.7536507E1,2.3703663E0,3.1601493E0,1.2334744E0,3.7703965E0,3.301073E0,6.339831E0],"categories":[],"categories_nodes":[],"categories_segments":[],"categories_sizes":[],"default_left":[1,1,1,1,1,1,1,1,1,1,1,0,0,0,1,1,1,1,0,1,0,0,1,0,0,1,1,0,0,0,1,0,0,0,0,0,0,0,0,0,0],"id":7,"left_children":[1,3,5,7,9,11,13,15,17,19,21,-1,-1,-1,23,25,27,29,-1,31,-1,-1,33,-1,-1,35,37,-1,-1,-1,39,-1,-1,-1,-1,-1,-1,-1,-1,-1,-1],"loss_changes":[1.8233534E5,1.56413125E4,7.8563438E3,1.7672461E3,3.6476797E3,1.5643281E3,5.5196875E2,2.4047266E2,3.200078E2,3.799297E2,2.662422E2,0E0,0E0,0E0,3.7829688E2,2.181665E1,6.4555664E0,2.9992188E1,0E0,9.168359E1,0E0,0E0,1.6042578E2,0E0,0E0,1.2113037E0,5.003174E0,0E0,0E0,0E0,5.7158203E0,0E0,0E0,0E0,0E0,0E0,0E0,0E0,0E0,0E0,0E0],"parents":[2147483647,0,0,1,1,2,2,3,3,4,4,5,5,6,6,7,7,8,8,9,9,10,10,14,14,15,15,16,16,17,17,19,19,22,22,25,25,26,26,30,30],"right_children":[2,4,6,8,10,12,14,16,18,20,22,-1,-1,-1,24,26,28,30,-1,32,-1,-1,34,-1,-1,36,38,-1,-1,-1,40,-1,-1,-1,-1,-1,-1,-1,-1,-1,-1],"split_conditions":[8.750292E1,4.138625E1,1.48411E2,2.608425E1,5.9568253E1,1.21587E2,4.220273E1,2.0026428E1,3.2663E1,4.699875E1,6.6292496E1,4.527969E0,5.644049E0,5.9853554E0,1.5784413E2,1.6460892E1,2.2814423E1,2.7831001E1,1.5321786E0,4.5265656E1,2.2673337E0,2.741689E0,1.1175216E0,6.4901223E0,8.055525E0,1.038375E1,1.9491698E0,8.5726804E-1,9.9889594E-1,1.0996593E0,-6.5378207E-1,1.6539589E0,1.9651845E0,1.7123327E0,3.5073013E0,4.7407326E-1,6.320299E-1,2.4669488E-1,7.540793E-1,6.602146E-1,1.2679662E0],"split_indices":[0,8,1,1,1,1,5,8,1,9,9,0,0,0,0,1,0,1,0,10,0,0,6,0,0,11,10,0,0,0,7,0,0,0,0,0,0,0,0,0,0],"split_type":[0,0,0,0,0,0,0,0,0,0,0,0,0,0,0,0,0,0,0,0,0,0,0,0,0,0,0,0,0,0,0,0,0,0,0,0,0,0,0,0,0],"sum_hessian":[2.358E3,1.882E3,4.76E2,1.223E3,6.59E2,3.15E2,1.61E2,5.71E2,6.52E2,4.87E2,1.72E2,1.11E2,2.04E2,4.6E1,1.15E2,2.89E2,2.82E2,4.5E2,2.02E2,3.11E2,1.76E2,8.7E1,8.5E1,4.9E1,6.6E1,1.24E2,1.65E2,8.2E1,2E2,1.51E2,2.99E2,1.16E2,1.95E2,5E0,8E1,1.9E1,1.05E2,2E0,1.63E2,4E0,2.95E2],"tree_param":{"num_deleted":"0","num_feature":"13","num_nodes":"41","size_leaf_vector":"0"}},{"base_weights":[9.611237E0,5.8170166E0,2.275783E1,4.1223874E0,8.398853E0,1.9057524E1,2.6986639E1,3.0974476E0,4.829154E0,7.372194E0,1.073729E1,1.5804526E1,2.0924187E1,2.5557743E1,3.189289E1,2.5741124E0,3.4906237E0,4.345893E0,5.231424E0,6.7780004E0,8.047303E0,9.264728E0,1.160224E1,1.9204355E1,2.3189434E1,2.3605604E1,2.798967E1,2.110488E0,2.7155266E0,3.1265538E0,3.6463206E0,3.6293287E0,4.5151777E0,2.3454227E0,5.2495112E0,5.554126E0,6.986174E0,6.76361E0,8.3628025E0,1.052668E1,1.3000722E1,1.54495535E1,2.0160704E1,2.3842554E0,5.2674637E0],"categories":[],"categories_nodes":[],"categories_segments":[],"categories_sizes":[],"default_left":[1,1,1,1,1,1,1,1,1,1,1,0,1,1,0,1,1,1,1,1,1,0,1,1,0,0,0,0,0,0,0,0,0,0,1,0,0,0,0,0,0,0,0,0,0],"id":8,"left_children":[1,3,5,7,9,11,13,15,17,19,21,-1,23,25,-1,27,29,31,33,35,37,-1,39,41,-1,-1,-1,-1,-1,-1,-1,-1,-1,-1,43,-1,-1,-1,-1,-1,-1,-1,-1,-1,-1],"loss_changes":[1.1753706E5,7.9808438E3,7.7477812E3,7.876699E2,1.6614062E3,1.3998906E3,8.954531E2,8.463721E1,1.0440332E2,1.4883594E2,1.7144727E2,0E0,2.48125E2,2.6028906E2,0E0,7.315918E0,3.1674805E0,2.0368164E1,6.0625E0,3.1515625E1,3.7398438E1,0E0,6.470117E1,7.275E1,0E0,0E0,0E0,0E0,0E0,0E0,0E0,0E0,0E0,0E0,5.392578E0,0E0,0E0,0E0,0E0,0E0,0E0,0E0,0E0,0E0,0E0],"parents":[2147483647,0,0,1,1,2,2,3,3,4,4,5,5,6,6,7,7,8,8,9,9,10,10,12,12,13,13,15,15,16,16,17,17,18,18,19,19,20,20,22,22,23,23,34,34],"right_children":[2,4,6,8,10,12,14,16,18,20,22,-1,24,26,-1,28,30,32,34,36,38,-1,40,42,-1,-1,-1,-1,-1,-1,-1,-1,-1,-1,44,-1,-1,-1,-1,-1,-1,-1,-1,-1,-1],"split_conditions":[7.234375E1,3.654425E1,1.3923E2,2.42265E1,4.98525E1,1.1476399E2,1.70494E2,1.8227428E1,2.82725E1,4.3979E1,6.5635544E1,3.1609054E0,7.421576E1,6.636809E1,6.378578E0,4.154979E1,4.281119E1,2.2271027E1,-6.5378207E-1,2.3770164E1,2.7061668E1,1.8529456E0,6.5069046E1,1.1746037E2,4.637887E0,4.721121E0,5.5979342E0,4.220976E-1,5.431053E-1,6.253108E-1,7.2926414E-1,7.258658E-1,9.030356E-1,4.6908456E-1,8.450329E0,1.1108252E0,1.3972348E0,1.352722E0,1.6725606E0,2.105336E0,2.6001444E0,3.0899107E0,4.0321407E0,4.7685108E-1,1.0534928E0],"split_indices":[9,1,8,1,9,1,1,1,1,1,10,0,10,10,0,12,10,10,7,10,10,0,4,4,0,0,0,0,0,0,0,0,0,0,11,0,0,0,0,0,0,0,0,0,0],"split_type":[0,0,0,0,0,0,0,0,0,0,0,0,0,0,0,0,0,0,0,0,0,0,0,0,0,0,0,0,0,0,0,0,0,0,0,0,0,0,0,0,0,0,0,0,0],"sum_hessian":[2.358E3,1.831E3,5.27E2,1.107E3,7.24E2,2.84E2,2.43E2,4.54E2,6.53E2,5.06E2,2.18E2,1.07E2,1.77E2,1.93E2,5E1,1.98E2,2.56E2,3.02E2,3.51E2,2.75E2,2.31E2,8.5E1,1.33E2,1.06E2,7.1E1,1.13E2,8E1,5E1,1.48E2,8.3E1,1.73E2,6.2E1,2.4E2,3E0,3.48E2,4.4E1,2.31E2,5E1,1.81E2,8E1,5.3E1,2.5E1,8.1E1,3E0,3.45E2],"tree_param":{"num_deleted":"0","num_feature":"13","num_nodes":"45","size_leaf_vector":"0"}},{"base_weights":[7.71004E0,4.8547087E0,1.9024967E1,3.6691883E0,7.7931004E0,1.691034E1,2.3006254E1,2.811355E0,4.5985823E0,6.763565E0,9.981196E0,1.4976539E1,1.8285124E1,1.8353115E1,2.4236757E1,2.3014069E0,3.3118677E0,4.095053E0,5.312459E0,6.372847E0,7.7315083E0,5.9895973E0,1.032661E1,1.1659327E1,1.5926138E1,1.6988745E1,2.0402443E1,2.0558925E0,2.5916867E0,3.0988436E0,3.7080438E0,3.6210291E0,4.290675E0,3.9899387E0,5.4407105E0,5.3434005E0,6.6054707E0,3.094223E0,7.793312E0,7.1918855E0,3.8883233E0,9.322226E0,1.1287048E1,6.415085E0,1.7116852E1,1.7871457E0,2.2785869E0,1.8493928E0,2.6403635E0,2.3347526E0,3.1746893E0,3.3161395E0,4.041936E0,4.1815543E0,1.8427601E0,1.6673546E0,4.350754E0,1.207176E0,1.8746445E0,1.6380742E0,2.3609364E0,1.8937688E0,7.5890666E-1],"categories":[],"categories_nodes":[],"categories_segments":[],"categories_sizes":[],"default_left":[1,1,1,1,1,1,1,1,1,1,1,1,1,0,0,1,1,1,1,1,1,1,1,0,0,1,0,1,1,1,0,1,0,1,0,0,0,0,0,0,1,0,0,0,0,1,1,0,0,0,0,0,0,0,0,0,0,0,1,0,0,0,0],"id":9,"left_children":[1,3,5,7,9,11,13,15,17,19,21,23,25,-1,-1,27,29,31,33,35,37,39,41,-1,-1,43,-1,45,47,49,-1,51,-1,53,-1,-1,-1,-1,-1,-1,55,-1,-1,-1,-1,57,59,-1,-1,-1,-1,-1,-1,-1,-1,-1,-1,-1,61,-1,-1,-1,-1],"loss_changes":[7.612191E4,6.5378438E3,3.6099531E3,1.0593945E3,1.1512109E3,5.609375E2,4.827422E2,1.7155322E2,2.0973633E2,9.103906E1,1.7391406E2,2.4271484E2,1.4471875E2,0E0,0E0,1.9686768E1,1.8216553E1,1.9885742E1,2.2900879E1,2.9363281E1,5.1186523E0,1.2457031E1,4.526367E1,0E0,0E0,4.867578E1,0E0,7.5982666E0,7.897949E-1,6.2070312E0,0E0,1.7392578E0,0E0,3.4030762E0,0E0,0E0,0E0,0E0,0E0,0E0,9.6209717E-1,0E0,0E0,0E0,0E0,2.456421E0,1.5654297E0,0E0,0E0,0E0,0E0,0E0,0E0,0E0,0E0,0E0,0E0,0E0,2.4847412E-1,0E0,0E0,0E0,0E0],"parents":[2147483647,0,0,1,1,2,2,3,3,4,4,5,5,6,6,7,7,8,8,9,9,10,10,11,11,12,12,15,15,16,16,17,17,18,18,19,19,20,20,21,21,22,22,25,25,27,27,28,28,29,29,31,31,33,33,40,40,45,45,46,46,58,58],"right_children":[2,4,6,8,10,12,14,16,18,20,22,24,26,-1,-1,28,30,32,34,36,38,40,42,-1,-1,44,-1,46,48,50,-1,52,-1,54,-1,-1,-1,-1,-1,-1,56,-1,-1,-1,-1,58,60,-1,-1,-1,-1,-1,-1,-1,-1,-1,-1,-1,62,-1,-1,-1,-1],"split_conditions":[8.829434E1,4.3364998E1,1.42105E2,2.76745E1,5.925068E1,1.24402E2,2.4517498E1,2.165007E1,3.562964E1,4.98525E1,3.0162495E1,2.9987427E1,7.862491E1,3.670623E0,4.8473516E0,1.8078892E1,8.127216E1,4.3995895E1,3.1164593E1,2.5349022E1,-1.9887379E-1,3.7199944E1,7.314687E1,2.3318653E0,3.1852276E0,1.119675E2,4.0804887E0,4.7062485E1,1.2950794E1,6.968909E0,7.416088E-1,3.064E1,8.5813504E-1,4.4562416E1,1.0881422E0,1.0686802E0,1.3210942E0,6.188446E-1,1.5586624E0,1.4383771E0,6.966196E1,1.8644451E0,2.2574098E0,1.283017E0,3.4233704E0,1.4577679E1,1.5627321E1,3.6987856E-1,5.280727E-1,4.669505E-1,6.349379E-1,6.632279E-1,8.083872E-1,8.3631086E-1,3.6855203E-1,3.334709E-1,8.7015074E-1,2.414352E-1,4.502887E1,3.2761484E-1,4.7218728E-1,3.7875375E-1,1.5178134E-1],"split_indices":[0,1,9,1,0,1,10,0,0,9,11,10,10,0,0,1,10,10,5,10,7,12,2,0,0,9,0,10,10,10,0,9,0,4,0,0,0,0,0,0,0,0,0,0,0,9,8,0,0,0,0,0,0,0,0,0,0,0,10,0,0,0,0],"split_type":[0,0,0,0,0,0,0,0,0,0,0,0,0,0,0,0,0,0,0,0,0,0,0,0,0,0,0,0,0,0,0,0,0,0,0,0,0,0,0,0,0,0,0,0,0,0,0,0,0,0,0,0,0,0,0,0,0,0,0,0,0,0,0],"sum_hessian":[2.358E3,1.884E3,4.74E2,1.344E3,5.4E2,3.13E2,1.61E2,7.01E2,6.43E2,3.7E2,1.7E2,1.35E2,1.78E2,3.7E1,1.24E2,3.5E2,3.51E2,3.81E2,2.62E2,2.69E2,1.01E2,1.5E1,1.55E2,3.3E1,1.02E2,1.16E2,6.2E1,1.94E2,1.56E2,2.34E2,1.17E2,1.17E2,2.64E2,2.6E1,2.36E2,5.4E1,2.15E2,2E0,9.9E1,8E0,7E0,8.1E1,7.4E1,2E0,1.14E2,9.2E1,1.02E2,1.2E1,1.44E2,2.4E1,2.1E2,7.3E1,4.4E1,2.3E1,3E0,2E0,5E0,1.4E1,7.8E1,1.4E1,8.8E1,7.6E1,2E0],"tree_param":{"num_deleted":"0","num_feature":"13","num_nodes":"63","size_leaf_vector":"0"}},{"base_weights":[6.186298E0,3.8945186E0,1.526802E1,2.785018E0,5.9400387E0,1.3498521E1,1.8363308E1,2.200047E0,3.4545364E0,5.0572357E0,7.7027073E0,1.1501301E1,1.4329828E1,1.6117075E1,2.027324E1,1.7730814E0,2.5314364E0,3.0974088E0,3.7946503E0,4.49962E0,5.4719467E0,6.9213514E0,8.830603E0,8.687088E0,1.2666521E1,1.2997503E1,1.566538E1,1.6658823E1,2.2345802E1,1.4277327E0,1.893409E0,2.3573942E0,2.8064172E0,2.5692317E0,3.243107E0,3.5666134E0,4.0738263E0,4.005236E0,4.87693E0,4.749047E0,5.7106643E0,5.89629E0,7.519277E0,4.5373263E0,9.095881E0,5.415647E0,1.30861225E1,8.85155E-1,1.4848475E0,1.3457308E0,1.9465793E0,1.6541259E0,2.3951437E0,2.2741942E0,2.9805977E0,3.2728636E0,5.009928E0,1.6953354E0,5.3350554E0,1.806931E0,4.4059563E-1,2.4092395E0,1.0422254E0,2.2439723E0,2.624699E0],"categories":[],"categories_nodes":[],"categories_segments":[],"categories_sizes":[],"default_left":[1,1,1,1,1,1,1,1,1,1,1,1,1,0,1,1,1,1,1,1,1,1,1,0,0,1,0,0,0,1,1,1,1,0,0,0,0,0,1,0,0,0,0,1,0,0,0,0,0,0,0,1,1,0,0,0,0,0,0,0,0,1,0,0,0],"id":10,"left_children":[1,3,5,7,9,11,13,15,17,19,21,23,25,-1,27,29,31,33,35,37,39,41,43,-1,-1,45,-1,-1,-1,47,49,51,53,-1,-1,-1,-1,-1,55,-1,-1,-1,-1,57,-1,-1,-1,-1,-1,-1,-1,59,61,-1,-1,-1,-1,-1,-1,-1,-1,63,-1,-1,-1],"loss_changes":[4.9039117E4,4.2614746E3,2.35375E3,4.7177832E2,9.9117773E2,3.432422E2,4.0258203E2,8.833032E1,5.7358887E1,7.805371E1,1.3188281E2,2.014873E2,1.736211E2,0E0,2.8696094E2,9.347656E0,1.0948242E1,1.3445801E1,3.741211E0,1.6841064E1,1.6021973E1,3.7794434E1,5.667578E1,0E0,0E0,4.3828125E0,0E0,0E0,0E0,1.1338196E0,3.553894E0,2.1706543E0,5.921753E0,0E0,0E0,0E0,0E0,0E0,6.217041E0,0E0,0E0,0E0,0E0,6.8252563E0,0E0,0E0,0E0,0E0,0E0,0E0,0E0,1.9853783E0,1.6274414E0,0E0,0E0,0E0,0E0,0E0,0E0,0E0,0E0,1.7304688E0,0E0,0E0,0E0],"parents":[2147483647,0,0,1,1,2,2,3,3,4,4,5,5,6,6,7,7,8,8,9,9,10,10,11,11,12,12,14,14,15,15,16,16,17,17,18,18,19,19,20,20,21,21,22,22,25,25,29,29,30,30,31,31,32,32,38,38,43,43,51,51,52,52,61,61],"right_children":[2,4,6,8,10,12,14,16,18,20,22,24,26,-1,28,30,32,34,36,38,40,42,44,-1,-1,46,-1,-1,-1,48,50,52,54,-1,-1,-1,-1,-1,56,-1,-1,-1,-1,58,-1,-1,-1,-1,-1,-1,-1,60,62,-1,-1,-1,-1,-1,-1,-1,-1,64,-1,-1,-1],"split_conditions":[8.829434E1,4.138625E1,1.4139E2,2.822875E1,5.311625E1,1.1247E2,5.546383E1,2.0026428E1,3.14585E1,5.967755E1,7.193E1,5.258189E1,5.7534477E1,3.2234151E0,1.5729349E2,2.7381363E1,8.123639E1,2.8530607E1,3.639025E1,4.4537003E1,4.458625E1,7.174437E1,2.3769506E1,1.7374176E0,2.5333042E0,1.149495E2,3.133076E0,3.3317647E0,4.4691606E0,1.5316714E1,1.5818571E1,2.1003649E1,2.3402887E1,5.1384634E-1,6.4862144E-1,7.133227E-1,8.147653E-1,8.0104727E-1,3.6237283E0,9.498094E-1,1.1421329E0,1.179258E0,1.5038555E0,1.9299397E1,1.8191763E0,1.0831294E0,2.6172245E0,1.7703101E-1,2.969695E-1,2.6914617E-1,3.8931587E-1,2.653925E1,2.8084667E1,4.5483884E-1,5.961196E-1,6.545727E-1,1.0019857E0,3.3906707E-1,1.0670111E0,3.613862E-1,8.811913E-2,2.559375E1,2.0844507E-1,4.4879445E-1,5.2493984E-1],"split_indices":[0,8,9,8,9,9,10,8,1,10,2,10,10,0,0,10,10,10,1,2,8,10,10,0,0,4,0,0,0,2,8,5,0,0,0,0,0,0,10,0,0,0,0,11,0,0,0,0,0,0,0,2,4,0,0,0,0,0,0,0,0,8,0,0,0],"split_type":[0,0,0,0,0,0,0,0,0,0,0,0,0,0,0,0,0,0,0,0,0,0,0,0,0,0,0,0,0,0,0,0,0,0,0,0,0,0,0,0,0,0,0,0,0,0,0,0,0,0,0,0,0,0,0,0,0,0,0,0,0,0,0,0,0],"sum_hessian":[2.358E3,1.884E3,4.74E2,1.223E3,6.61E2,3.05E2,1.69E2,6.55E2,5.68E2,4.43E2,2.18E2,9.4E1,2.11E2,8.2E1,8.7E1,2.89E2,3.66E2,2.82E2,2.86E2,1.94E2,2.49E2,1.33E2,8.5E1,3E1,6.4E1,1.11E2,1E2,3.5E1,5.2E1,7.8E1,2.11E2,2.3E2,1.36E2,6.5E1,2.17E2,1.65E2,1.21E2,8.9E1,1.05E2,6.7E1,1.82E2,5.3E1,8E1,6E0,7.9E1,2E0,1.09E2,9E0,6.9E1,2.1E1,1.9E2,1.4E1,2.16E2,3.7E1,9.9E1,1E1,9.5E1,2E0,4E0,1.2E1,2E0,2.13E2,3E0,1.27E2,8.6E1],"tree_param":{"num_deleted":"0","num_feature":"13","num_nodes":"65","size_leaf_vector":"0"}},{"base_weights":[4.9656096E0,3.126896E0,1.2271196E1,2.2333295E0,4.771841E0,1.0892711E1,1.4883454E1,1.6199758E0,2.6433704E0,3.9749284E0,6.0724406E0,9.25044E0,1.16169E1,1.3934175E1,1.9078615E1,1.3324453E0,1.8357431E0,2.3530736E0,3.0097742E0,3.675147E0,4.6087465E0,5.515146E0,7.1671033E0,7.198136E0,1.0184473E1,8.704341E0,1.2196292E1,1.29257145E1,1.6549725E1,1.1911278E0,1.5653858E0,1.6657534E0,1.9535608E0,2.0151987E0,2.5245585E0,2.6557674E0,3.1980538E0,2.761226E0,3.7794158E0,4.8712983E0,6.146698E0,3.391927E0,7.3708396E0,1.1305801E1,1.3413343E1,8.40205E-1,1.2504389E0,1.286442E0,1.7195511E0,1.9630561E0,8.0545616E-1,1.6113178E0,2.0987966E0,1.1811647E0,2.6842115E0,1.491527E0,2.9881394E0,3.5227923E0,4.193005E0,5.040079E0,3.3682826E0,1.4692917E0,3.9859219E0,5.2929664E-1,1.2649002E0,2.0458279E0,1.6789745E0,2.1260002E0,8.0559635E-1,1.8863401E0,7.2383213E-1,2.061423E0,3.5559912E0,6.588707E-1,3.8442779E0,2.4416227E0,8.6734897E-1,4.2791753E0,1.4031258E0],"categories":[],"categories_nodes":[],"categories_segments":[],"categories_sizes":[],"default_left":[1,1,1,1,1,1,1,1,1,1,1,1,1,1,0,1,1,1,1,1,0,1,1,0,0,0,1,0,0,1,0,1,1,1,0,1,0,1,1,1,0,1,0,0,0,0,1,0,0,1,0,0,1,0,0,1,0,1,0,0,1,0,0,0,0,0,0,0,0,0,0,1,0,0,1,0,0,0,0],"id":11,"left_children":[1,3,5,7,9,11,13,15,17,19,21,23,25,27,-1,29,31,33,35,37,-1,39,41,-1,-1,-1,43,-1,-1,45,-1,47,49,51,-1,53,-1,55,57,59,-1,61,-1,-1,-1,-1,63,-1,-1,65,-1,-1,67,-1,-1,69,-1,71,-1,-1,73,-1,-1,-1,-1,-1,-1,-1,-1,-1,-1,75,-1,-1,77,-1,-1,-1,-1],"loss_changes":[3.1649793E4,2.7615117E3,1.5447344E3,3.035542E2,6.6303906E2,2.6598438E2,3.753203E2,2.8139526E1,7.077734E1,6.1725098E1,1.1298535E2,1.20299805E2,2.5496484E2,1.4216992E2,0E0,5.212921E0,2.3336182E0,1.8842041E1,1.2835449E1,1.6818115E1,0E0,3.9183105E1,3.7299316E1,0E0,0E0,0E0,3.9095703E1,0E0,0E0,1.8216553E0,0E0,2.5704956E-1,1.5216064E-1,1.4801025E0,0E0,1.7369995E0,0E0,5.0507812E0,1.21875E1,5.6013184E0,0E0,9.9573517E-1,0E0,0E0,0E0,0E0,5.4022217E-1,0E0,0E0,2.567749E-1,0E0,0E0,2.3681335E0,0E0,0E0,7.5627804E-1,0E0,5.777588E-1,0E0,0E0,1.29431305E1,0E0,0E0,0E0,0E0,0E0,0E0,0E0,0E0,0E0,0E0,6.061821E-1,0E0,0E0,4.612274E0,0E0,0E0,0E0,0E0],"parents":[2147483647,0,0,1,1,2,2,3,3,4,4,5,5,6,6,7,7,8,8,9,9,10,10,11,11,12,12,13,13,15,15,16,16,17,17,18,18,19,19,21,21,22,22,26,26,29,29,31,31,32,32,33,33,35,35,37,37,38,38,39,39,41,41,46,46,49,49,52,52,55,55,57,57,60,60,71,71,74,74],"right_children":[2,4,6,8,10,12,14,16,18,20,22,24,26,28,-1,30,32,34,36,38,-1,40,42,-1,-1,-1,44,-1,-1,46,-1,48,50,52,-1,54,-1,56,58,60,-1,62,-1,-1,-1,-1,64,-1,-1,66,-1,-1,68,-1,-1,70,-1,72,-1,-1,74,-1,-1,-1,-1,-1,-1,-1,-1,-1,-1,76,-1,-1,78,-1,-1,-1,-1],"split_conditions":[8.879666E1,4.138625E1,1.48514E2,2.561875E1,5.41815E1,3.81623E1,3.4252968E0,1.8528538E1,3.043075E1,8.510164E1,7.314687E1,1.2276732E2,1.0405E2,8.029838E1,3.8157232E0,6.868907E1,5.335235E1,4.8422424E1,4.559786E1,7.9715548E0,9.217493E-1,7.859512E1,2.3769506E1,1.4396272E0,2.0368946E0,1.7408682E0,8.4856094E1,2.5851429E0,3.3099449E0,1.4640179E1,3.1307718E-1,1.8108213E1,2.4856441E1,1.0655294E1,5.049117E-1,3.098925E1,6.3961077E-1,-2.2577724E0,4.935875E1,7.274729E1,1.2293396E0,7.7934494E1,1.474168E0,2.2611604E0,2.6826687E0,1.68041E-1,5.437782E-1,2.5728843E-1,3.4391022E-1,3.5691148E-1,1.6109124E-1,3.2226357E-1,2.9689499E1,2.3623295E-1,5.368423E-1,4.031337E0,5.976279E-1,3.9411247E1,8.3860105E-1,1.0080159E0,6.966196E1,2.9385835E-1,7.971844E-1,1.0585933E-1,2.5298005E-1,4.091656E-1,3.357949E-1,4.2520005E-1,1.6111927E-1,3.7726805E-1,1.4476644E-1,4.013662E1,7.111983E-1,1.3177414E-1,4.513035E1,4.8832455E-1,1.734698E-1,8.558351E-1,2.8062516E-1],"split_indices":[0,8,1,8,1,10,7,0,1,10,2,0,9,10,0,10,10,10,10,10,0,10,10,0,0,0,10,0,0,9,0,9,0,11,0,1,0,6,8,4,0,1,0,0,0,0,10,0,0,7,0,0,1,0,0,11,0,2,0,0,0,0,0,0,0,0,0,0,0,0,0,0,0,0,10,0,0,0,0],"split_type":[0,0,0,0,0,0,0,0,0,0,0,0,0,0,0,0,0,0,0,0,0,0,0,0,0,0,0,0,0,0,0,0,0,0,0,0,0,0,0,0,0,0,0,0,0,0,0,0,0,0,0,0,0,0,0,0,0,0,0,0,0,0,0,0,0,0,0,0,0,0,0,0,0,0,0,0,0,0,0],"sum_hessian":[2.358E3,1.885E3,4.73E2,1.223E3,6.62E2,3.13E2,1.6E2,4.92E2,7.31E2,4.13E2,2.49E2,1E2,2.13E2,1.34E2,2.6E1,2.14E2,2.78E2,4.12E2,3.19E2,2.85E2,1.28E2,1.69E2,8E1,3.4E1,6.6E1,3.8E1,1.75E2,1.01E2,3.3E1,1.37E2,7.7E1,1.2E2,1.58E2,1.43E2,2.69E2,1.16E2,2.03E2,3.2E1,2.53E2,8.8E1,8.1E1,5E0,7.5E1,1.07E2,6.8E1,2.2E1,1.15E2,1.8E1,1.02E2,1.56E2,2E0,2.8E1,1.15E2,3E0,1.13E2,6E0,2.6E1,1.62E2,9.1E1,7.7E1,1.1E1,2E0,3E0,3E0,1.12E2,1.16E2,4E1,1.12E2,3E0,3E0,3E0,5E0,1.57E2,2E0,9E0,3E0,2E0,7E0,2E0],"tree_param":{"num_deleted":"0","num_feature":"13","num_nodes":"79","size_leaf_vector":"0"}},{"base_weights":[3.987481E0,2.515375E0,9.883067E0,1.9276992E0,4.171002E0,9.055743E0,1.2861883E1,1.4310404E0,2.4083068E0,3.5878108E0,5.2813144E0,7.6872306E0,9.776395E0,1.0806439E1,1.5232301E1,1.1835401E0,1.6875407E0,2.1116645E0,2.7888997E0,2.943964E0,3.7776747E0,3.1850102E0,5.4660172E0,5.531932E0,8.11104E0,8.582889E0,1.048603E1,8.941348E0,1.208228E1,9.26893E-1,1.2636952E0,1.5618892E0,1.9898577E0,1.975839E0,2.445714E0,2.6078668E0,3.269982E0,2.1360083E0,3.0567918E0,3.386665E0,4.077656E0,4.121509E0,1.7333226E0,4.3210483E0,5.7215333E0,5.8089037E0,1.564504E0,6.276054E0,8.502921E0,3.333041E0,8.659949E0,5.9438413E-1,9.66675E-1,1.0258145E0,1.3462675E0,1.2346157E0,1.6264024E0,1.3680588E0,2.0039139E0,1.7595077E0,2.6593497E0,3.3815951E0,2.3557093E0,4.1165752E0,1.7641745E0,2.060585E-1,2.2080677E0,7.872498E0,1.034483E1,4.4990182E-1,9.815455E-1,8.32412E-1,1.1645613E0,1.3866335E0,4.8936462E-1,1.6418614E0,8.5549164E-1,2.0049798E0,5.218458E-1,7.969862E0,3.0738704E0,8.7273085E-1,4.2401677E-1,1.4209688E0,5.352891E-1,6.297137E-1,1.5649986E-1,1.373445E0,1.6923089E0],"categories":[],"categories_nodes":[],"categories_segments":[],"categories_sizes":[],"default_left":[1,1,1,1,1,1,1,1,1,1,1,1,1,1,0,1,1,1,1,1,1,1,1,1,1,1,0,0,0,1,1,1,0,1,0,1,1,0,0,0,1,0,1,0,0,0,0,0,1,0,0,0,1,1,0,1,1,0,0,1,0,0,0,0,0,0,0,1,0,0,0,1,0,1,1,1,0,0,0,0,0,0,0,0,0,0,0,0,0],"id":12,"left_children":[1,3,5,7,9,11,13,15,17,19,21,23,25,27,-1,29,31,33,35,37,39,41,43,45,47,49,-1,-1,-1,51,53,55,-1,57,-1,59,61,-1,-1,-1,63,-1,65,-1,-1,-1,-1,-1,67,-1,-1,-1,69,71,-1,73,75,-1,-1,77,-1,-1,-1,-1,-1,-1,-1,79,-1,-1,-1,81,-1,83,85,87,-1,-1,-1,-1,-1,-1,-1,-1,-1,-1,-1,-1,-1],"loss_changes":[2.044873E4,1.8299023E3,1.0442812E3,3.2977588E2,3.009287E2,2.917207E2,3.226172E2,4.1743042E1,7.4043945E1,2.885205E1,4.763916E1,7.661719E1,1.1326953E2,2.7603516E1,0E0,6.1110535E0,9.655518E0,1.3407349E1,1.8209717E1,6.7230225E-1,1.53967285E1,1.4608154E1,2.0038574E1,1.8383606E1,2.5016602E1,9.568848E0,0E0,0E0,0E0,5.894699E-1,3.8634644E0,3.1015015E0,0E0,2.223877E0,0E0,5.2789307E0,1.9750977E-1,0E0,0E0,0E0,4.9831543E0,0E0,5.345495E0,0E0,0E0,0E0,0E0,0E0,1.9583496E1,0E0,0E0,0E0,1.501236E-1,9.8947906E-1,0E0,4.3062515E0,9.6698E-1,0E0,0E0,3.8146973E0,0E0,0E0,0E0,0E0,0E0,0E0,0E0,7.739258E0,0E0,0E0,0E0,1.8979263E-1,0E0,2.9169464E-1,3.2190514E-1,3.026123E-1,0E0,0E0,0E0,0E0,0E0,0E0,0E0,0E0,0E0,0E0,0E0,0E0,0E0],"parents":[2147483647,0,0,1,1,2,2,3,3,4,4,5,5,6,6,7,7,8,8,9,9,10,10,11,11,12,12,13,13,15,15,16,16,17,17,18,18,19,19,20,20,21,21,22,22,23,23,24,24,25,25,29,29,30,30,31,31,33,33,35,35,36,36,40,40,42,42,48,48,52,52,53,53,55,55,56,56,59,59,67,67,71,71,73,73,74,74,75,75],"right_children":[2,4,6,8,10,12,14,16,18,20,22,24,26,28,-1,30,32,34,36,38,40,42,44,46,48,50,-1,-1,-1,52,54,56,-1,58,-1,60,62,-1,-1,-1,64,-1,66,-1,-1,-1,-1,-1,68,-1,-1,-1,70,72,-1,74,76,-1,-1,78,-1,-1,-1,-1,-1,-1,-1,80,-1,-1,-1,82,-1,84,86,88,-1,-1,-1,-1,-1,-1,-1,-1,-1,-1,-1,-1,-1],"split_conditions":[9.055052E1,4.235875E1,1.60341E2,2.8723751E1,6.1334126E1,1.24589005E2,6.6954575E1,2.1982735E1,3.606775E1,3.284117E1,3.0162495E1,2.320358E1,4.4947266E1,-2.685845E-1,3.0464602E0,2.7877989E1,8.7314125E1,8.390787E1,8.6681335E1,3.6237283E0,5.157625E1,3.7199944E1,6.502333E1,2.474121E0,1.0324789E2,1.2326524E2,2.0972059E0,1.7882696E0,2.416456E0,1.5559923E1,1.6796787E1,3.053413E1,3.9797154E-1,6.1226273E0,4.891428E-1,2.6626778E1,6.5101767E-1,4.2720166E-1,6.1135834E-1,6.7733306E-1,6.240175E1,8.2430184E-1,3.843142E1,8.6420965E-1,1.1443067E0,1.1617807E0,3.129008E-1,1.2552108E0,5.915188E1,6.666082E-1,1.7319899E0,1.1887683E-1,5.437782E-1,7.213211E1,2.692535E-1,2.6568832E1,2.788575E1,2.7361175E-1,4.007828E-1,4.288282E1,5.3186995E-1,6.7631906E-1,4.7114187E-1,8.233151E-1,3.528349E-1,4.1211702E-2,4.4161353E-1,6.9076614E1,2.068966E0,8.9980364E-2,1.963091E-1,1.611082E1,2.3291226E-1,4.0673546E1,-4.4892207E-1,2.3744999E1,1.7109834E-1,4.0099597E-1,1.0436916E-1,1.5939724E0,6.147741E-1,1.7454617E-1,8.480336E-2,2.8419375E-1,1.07057825E-1,1.2594275E-1,3.1299975E-2,2.7468902E-1,3.384618E-1],"split_indices":[0,9,1,8,2,1,10,0,1,10,11,11,10,6,0,10,10,10,10,10,8,12,4,6,0,3,0,0,0,0,8,12,0,10,0,5,7,0,0,0,1,0,5,0,0,0,0,0,12,0,0,0,10,10,0,3,1,0,0,0,0,0,0,0,0,0,0,5,0,0,0,2,0,11,6,4,0,0,0,0,0,0,0,0,0,0,0,0,0],"split_type":[0,0,0,0,0,0,0,0,0,0,0,0,0,0,0,0,0,0,0,0,0,0,0,0,0,0,0,0,0,0,0,0,0,0,0,0,0,0,0,0,0,0,0,0,0,0,0,0,0,0,0,0,0,0,0,0,0,0,0,0,0,0,0,0,0,0,0,0,0,0,0,0,0,0,0,0,0,0,0,0,0,0,0,0,0,0,0,0,0],"sum_hessian":[2.358E3,1.888E3,4.7E2,1.395E3,4.93E2,3.71E2,9.9E1,6.88E2,7.07E2,3.26E2,1.67E2,1.32E2,2.39E2,5.6E1,4.3E1,3.53E2,3.35E2,4.01E2,3.06E2,7.8E1,2.48E2,1.5E1,1.52E2,2.4E1,1.08E2,9.4E1,1.45E2,2.6E1,3E1,8.7E1,2.66E2,2.41E2,9.4E1,2.9E2,1.11E2,2.27E2,7.9E1,1.2E1,6.6E1,1.13E2,1.35E2,8E0,7E0,3.1E1,1.21E2,2.2E1,2E0,2.2E1,8.6E1,2E0,9.2E1,1.1E1,7.6E1,7.2E1,1.94E2,4.3E1,1.98E2,1.5E1,2.75E2,1.5E1,2.12E2,6.8E1,1.1E1,1.32E2,3E0,2E0,5E0,6.8E1,1.8E1,3E0,7.3E1,3.3E1,3.9E1,3.5E1,8E0,1.93E2,5E0,1.2E1,3E0,6.6E1,2E0,2.9E1,4E0,3.3E1,2E0,5E0,3E0,3.5E1,1.58E2],"tree_param":{"num_deleted":"0","num_feature":"13","num_nodes":"89","size_leaf_vector":"0"}},{"base_weights":[3.203214E0,2.018892E0,7.9462733E0,1.4740916E0,3.1726928E0,6.919369E0,9.582791E0,1.1311697E0,1.8288262E0,2.7395234E0,4.221397E0,6.2595677E0,7.929766E0,8.978604E0,1.2284299E1,8.946105E-1,1.2964027E0,1.6542926E0,2.1335044E0,2.4706428E0,3.0293467E0,3.0803034E0,4.455206E0,4.331215E0,6.4976463E0,5.161251E0,8.405001E0,8.338566E0,1.0995148E1,8.126528E-1,1.0522283E0,1.1996336E0,1.4583364E0,1.4923719E0,1.8715762E0,1.9254909E0,2.4497418E0,2.3168833E0,3.0478623E0,2.7539241E0,3.386744E0,1.0855436E0,3.2435946E0,3.9330876E0,4.8516574E0,4.5179353E0,1.5804342E0,4.8728294E0,6.7213645E0,5.7969565E0,8.598033E0,6.884745E-1,9.3199474E-1,6.303813E-1,1.0913178E0,9.4570625E-1,1.2400624E0,1.2179554E0,1.5498626E0,1.346568E0,1.5981511E0,1.7861447E0,2.2547286E0,1.9606681E0,5.765358E-1,2.3385162E0,1.0703903E0,3.3492794E0,1.176005E0,2.176165E0,4.010096E0,2.5135334E0,4.987215E0,5.178353E0,2.1270046E0,4.343916E0,6.8342543E0,7.612254E-1,6.5728097E0,3.5834045E0,8.71039E0,7.028382E-1,1.8958235E-1,6.108815E-1,9.975088E-1,4.34052E-1,9.771609E-1,1.1286763E0,1.328235E0,1.5986861E0,1.146217E0,3.4962463E-1,1.3623782E0,1.6804963E0,1.3502313E0,2.3813815E0,9.3112946E-1,1.4859949E0,2.979889E-1,3.448778E0,1.370533E0,5.531502E0,3.6882277E0,2.955799E0,1.086001E0,1.5113335E0,5.5083184E0,6.8739786E0,2.861267E0,7.704783E0,2.3826675E0,5.4452056E-1,7.454246E-1,7.3009354E-1,-2.2854328E-1,1.0162997E0,4.1459322E-1,1.0138037E0,4.397273E-1,1.1678214E0,8.526226E-1,3.8821793E-1,1.3419213E0,6.3645697E-1,1.3776387E0,6.50245E-1,1.6956604E0,9.408434E-1,1.4628397E0,2.1585591E-1,5.655431E-1,7.62228E-1,4.4195095E-1,1.3578148E0,7.397747E-1,1.3890257E0,5.4265594E-1,1.2354082E0,3.4028396E-1,1.5082677E-1,4.1631317E-1],"categories":[],"categories_nodes":[],"categories_segments":[],"categories_sizes":[],"default_left":[1,1,1,1,1,1,1,1,1,1,1,1,1,1,0,1,1,1,1,1,1,1,1,1,1,0,0,1,0,1,1,1,1,1,1,1,0,1,0,0,0,0,1,1,0,1,0,1,1,1,1,1,1,0,0,1,1,0,1,1,1,0,1,0,0,0,1,1,0,0,1,1,0,0,0,1,1,0,1,0,0,1,0,1,1,0,1,1,1,1,1,0,1,1,1,0,0,0,0,0,0,0,0,0,0,0,0,0,0,0,0,1,1,0,0,0,0,0,0,1,1,0,1,0,1,0,0,1,0,1,1,1,1,1,1,0,0,0,1,1,1],"id":13,"left_children":[1,3,5,7,9,11,13,15,17,19,21,23,25,27,-1,29,31,33,35,37,39,41,43,45,47,-1,-1,49,-1,51,53,55,57,59,61,63,-1,65,-1,-1,-1,-1,67,69,-1,71,-1,73,75,77,79,81,83,-1,-1,85,87,-1,-1,91,93,-1,95,-1,-1,-1,97,99,-1,-1,101,103,-1,-1,-1,105,107,-1,109,-1,-1,111,-1,113,115,-1,117,-1,121,-1,-1,-1,123,125,127,-1,-1,-1,-1,-1,-1,-1,-1,-1,-1,-1,-1,-1,-1,-1,-1,-1,-1,-1,-1,-1,-1,-1,-1,-1,-1,-1,-1,-1,135,-1,-1,137,-1,-1,-1,-1,-1,-1,-1,-1,-1,-1,-1,-1,-1],"loss_changes":[1.3235191E4,1.1827314E3,7.2523047E2,1.5424658E2,2.632666E2,1.4569434E2,1.8186914E2,2.4481567E1,2.9971924E1,2.610254E1,3.2966064E1,5.5413574E1,1.0397754E2,1.01916016E2,0E0,2.6715088E0,4.2678833E0,1.1455933E1,1.014978E1,1.3262817E1,1.065564E1,7.2279053E0,1.0518311E1,4.673126E0,2.5408203E1,0E0,0E0,2.797461E1,0E0,2.0851746E0,7.9613495E-1,1.3526917E0,1.1705017E0,1.5032959E0,1.5046997E0,5.560425E0,0E0,2.4855347E0,0E0,0E0,0E0,0E0,2.6166077E0,3.3825684E-1,0E0,7.217621E0,0E0,8.280701E0,7.350586E0,4.9694427E1,2.7947266E1,5.4034805E-1,1.3050461E0,0E0,0E0,1.8742752E-1,5.534668E-1,0E0,7.917786E-2,1.1944427E0,4.257202E-1,0E0,2.308838E0,0E0,0E0,0E0,1.1622581E0,7.8604126E-1,0E0,0E0,1.0449219E1,5.780945E-1,0E0,0E0,0E0,2.1359497E1,8.486328E-1,0E0,3.855963E1,0E0,0E0,2.076416E-1,0E0,1.9681101E0,3.8921356E-1,0E0,2.4346161E-1,7.409668E-2,9.071045E-1,0E0,0E0,0E0,2.7529907E-1,3.815918E-1,3.755188E-1,0E0,0E0,0E0,0E0,0E0,0E0,0E0,0E0,0E0,0E0,0E0,0E0,0E0,0E0,0E0,0E0,3.6839485E-2,1.499176E-2,0E0,0E0,0E0,0E0,0E0,0E0,0E0,0E0,0E0,3.866577E-2,0E0,2.0654297E-1,0E0,0E0,1.5255518E0,0E0,0E0,0E0,0E0,0E0,0E0,0E0,0E0,0E0,0E0,9.2301965E-3,0E0,0E0],"parents":[2147483647,0,0,1,1,2,2,3,3,4,4,5,5,6,6,7,7,8,8,9,9,10,10,11,11,12,12,13,13,15,15,16,16,17,17,18,18,19,19,20,20,21,21,22,22,23,23,24,24,27,27,29,29,30,30,31,31,32,32,33,33,34,34,35,35,37,37,42,42,43,43,45,45,47,47,48,48,49,49,50,50,51,51,52,52,55,55,56,56,58,58,59,59,60,60,62,62,66,66,67,67,70,70,71,71,75,75,76,76,78,78,81,81,83,83,84,84,86,86,87,87,88,88,92,92,93,93,94,94,111,111,112,112,122,122,124,124,127,127,138,138],"right_children":[2,4,6,8,10,12,14,16,18,20,22,24,26,28,-1,30,32,34,36,38,40,42,44,46,48,-1,-1,50,-1,52,54,56,58,60,62,64,-1,66,-1,-1,-1,-1,68,70,-1,72,-1,74,76,78,80,82,84,-1,-1,86,88,-1,-1,92,94,-1,96,-1,-1,-1,98,100,-1,-1,102,104,-1,-1,-1,106,108,-1,110,-1,-1,112,-1,114,116,-1,118,-1,122,-1,-1,-1,124,126,128,-1,-1,-1,-1,-1,-1,-1,-1,-1,-1,-1,-1,-1,-1,-1,-1,-1,-1,-1,-1,-1,-1,-1,-1,-1,-1,-1,-1,-1,136,-1,-1,138,-1,-1,-1,-1,-1,-1,-1,-1,-1,-1,-1,-1,-1],"split_conditions":[9.055052E1,4.01075E1,1.4097E2,2.822875E1,5.925068E1,7.862491E1,3.4252968E0,1.98325E1,3.4763916E1,6.911556E1,5.353624E1,1.1386926E1,1.1273288E2,8.077527E1,2.4568598E0,6.868907E1,8.123639E1,7.345828E1,7.86181E1,5.4226997E1,4.7707085E1,1.1189898E1,7.52375E1,1.4965964E2,1.1495167E2,1.0322503E0,1.6810001E0,-1.892119E0,2.1990297E0,1.7345137E1,1.5586785E1,1.0314564E1,2.426E1,3.0924246E-2,9.680812E1,4.288282E1,4.8994836E-1,5.01625E1,6.0957247E-1,5.507848E-1,6.773488E-1,2.1710873E-1,7.9371765E1,4.6998886E1,9.703315E-1,1.14692E2,3.1608686E-1,1.14859E2,2.7639177E1,1.3974505E1,1.9376743E1,1.7443443E1,3.5398186E1,1.2607627E-1,2.1826355E-1,1.9610645E1,2.3145E1,2.4359107E-1,3.0997252E-1,8.2210195E-1,4.3790942E-1,3.5722896E-1,3.2233448E1,3.9213362E-1,1.1530717E-1,4.6770325E-1,5.149282E1,5.2540085E1,2.35201E-1,4.3523303E-1,4.5803094E-1,1.13555E2,9.97443E-1,1.0356706E0,4.2540094E-1,1.281757E2,7.2738144E1,1.5224509E-1,1.63028E2,7.1668094E-1,1.7420781E0,1.4640179E1,3.791647E-2,2.4527178E1,1.9063953E1,8.68104E-2,2.7890583E1,2.2573526E-1,2.5263311E1,3.1973723E-1,2.292434E-1,6.992493E-2,6.744765E0,2.795575E1,4.8877102E-1,4.762763E-1,1.8622589E-1,2.9719898E-1,5.959778E-2,6.897556E-1,2.741066E-1,1.1063004E0,7.3764557E-1,5.911598E-1,2.172002E-1,3.022667E-1,1.1016637E0,1.3747958E0,5.722534E-1,1.5409566E0,4.765335E-1,1.08904116E-1,1.4908493E-1,1.4601871E-1,-4.5708656E-2,2.0325994E-1,8.2918644E-2,2.0276074E-1,8.794546E-2,2.3356429E-1,1.7052452E-1,7.764359E-2,2.6838428E-1,1.272914E-1,1.2465159E-2,1.30049E-1,3.3913207E-1,2.920123E1,2.9256794E-1,4.3171182E-2,1.1310863E-1,1.524456E-1,8.8390194E-2,2.7156296E-1,1.4795494E-1,2.7780515E-1,1.0853119E-1,2.4708164E-1,6.805679E-2,3.0165354E-2,8.326264E-2],"split_indices":[0,9,9,8,0,10,7,8,0,10,10,10,2,10,0,10,10,10,10,1,4,11,8,0,4,0,0,7,0,4,8,10,8,7,10,0,0,9,0,0,0,0,0,5,0,1,0,4,5,11,5,0,5,0,0,0,9,0,12,10,7,0,0,0,0,0,0,10,0,0,6,1,0,0,0,0,5,0,3,0,0,9,0,11,4,0,4,1,5,2147483647,2147483647,0,11,3,7,0,0,0,0,0,0,0,0,0,0,0,0,0,0,0,0,6,12,0,0,0,0,0,0,2147483647,2147483647,0,4,0,7,0,0,0,0,2147483647,2147483647,2147483647,2147483647,2147483647,2147483647,0,0,0,0,2147483647,2147483647],"split_type":[0,0,0,0,0,0,0,0,0,0,0,0,0,0,0,0,0,0,0,0,0,0,0,0,0,0,0,0,0,0,0,0,0,0,0,0,0,0,0,0,0,0,0,0,0,0,0,0,0,0,0,0,0,0,0,0,0,0,0,0,0,0,0,0,0,0,0,0,0,0,0,0,0,0,0,0,0,0,0,0,0,0,0,0,0,0,0,0,0,0,0,0,0,0,0,0,0,0,0,0,0,0,0,0,0,0,0,0,0,0,0,0,0,0,0,0,0,0,0,0,0,0,0,0,0,0,0,0,0,0,0,0,0,0,0,0,0,0,0,0,0],"sum_hessian":[2.358E3,1.888E3,4.7E2,1.284E3,6.04E2,2.92E2,1.78E2,6.55E2,6.29E2,4.3E2,1.74E2,1.81E2,1.11E2,1.49E2,2.9E1,2.72E2,3.83E2,4.04E2,2.25E2,2.28E2,2.02E2,3.2E1,1.42E2,2.2E1,1.59E2,1.8E1,9.3E1,1.17E2,3.2E1,1.83E2,8.9E1,2.45E2,1.38E2,2.36E2,1.68E2,1.4E2,8.5E1,1.84E2,4.4E1,1.19E2,8.3E1,3E0,2.9E1,6.6E1,7.6E1,2E1,2E0,2.2E1,1.37E2,1.3E1,1.04E2,9.3E1,9E1,9E0,8E1,3.7E1,2.08E2,4.2E1,9.6E1,1.05E2,1.31E2,1.42E2,2.6E1,1.36E2,4E0,1.8E2,4E0,2.7E1,2E0,4E0,6.2E1,5E0,1.5E1,1.9E1,3E0,8E0,1.29E2,2E0,1.1E1,3E0,1.01E2,9E1,3E0,1.7E1,7.3E1,3E0,3.4E1,9.8E1,1.1E2,8.3E1,1.3E1,2E0,1.03E2,9.4E1,3.7E1,2.3E1,3E0,2E0,2E0,2.5E1,2E0,8E0,5.4E1,3E0,2E0,3E0,5E0,1.27E2,2E0,8E0,3E0,2.2E1,6.8E1,1.5E1,2E0,7E1,3E0,3.1E1,3E0,8.3E1,1.5E1,2E0,1.08E2,3E0,1E2,2E0,9.2E1,1E1,2.7E1,2E0,2E1,6.3E1,5E0,1.04E2,4E0,9.8E1,2E0,6E0,4E0,2E0,2E0],"tree_param":{"num_deleted":"12","num_feature":"13","num_nodes":"141","size_leaf_vector":"0"}},{"base_weights":[2.5763338E0,1.537638E0,6.08921E0,1.1138643E0,2.2680585E0,4.891159E0,7.2868905E0,8.4238964E-1,1.3279654E0,1.9975193E0,2.8866875E0,4.0885525E0,5.386858E0,6.3231764E0,8.253857E0,6.720302E-1,9.512302E-1,1.1945156E0,1.4950374E0,1.8477074E0,2.3571417E0,2.1053374E0,3.0114543E0,4.1478496E0,1.5098724E0,4.6765337E0,6.1571517E0,4.620769E0,6.641045E0,7.1056714E0,9.839487E0,6.227565E-1,9.701569E-1,9.105163E-1,1.1447321E0,1.0987316E0,1.4076385E0,1.3491002E0,1.7211114E0,1.503694E0,1.9345304E0,1.3713559E0,2.4255815E0,2.2069235E0,4.2155966E-1,1.1906462E0,3.0368817E0,4.868938E0,2.4039001E0,8.235476E0,5.7550564E0,5.0845146E0,1.748883E0,5.2715096E0,7.025644E0,7.1883945E0,2.6138813E0,4.131901E0,1.0104607E1,6.4452106E-1,4.1967845E-1,6.004349E-1,1.0695379E0,6.654155E-1,9.259336E-1,1.2009832E0,6.9929147E-1,9.213469E-1,1.1716958E0,1.4201177E0,4.93337E-1,1.4000653E0,7.0873755E-1,1.7907537E0,1.2130985E0,1.5671412E0,-4.779714E-1,1.8130623E0,2.2332637E0,1.6909512E0,6.4965135E-1,3.728321E0,1.8879807E0,2.8011887E0,3.4043891E0,2.9374647E0,5.0100427E0,5.65155E-1,2.8485196E0,2.6545167E0,5.584048E0,1.5718994E0,7.1367817E0,1.0273577E1,4.089203E0,5.634204E-1,7.33566E-1,2.2169566E-1,6.370246E-1,3.6238608E-1,7.477556E-1,1.0364031E0,8.797712E-1,6.823095E-1,9.667102E-1,1.1914101E0,6.713185E-1,1.4145031E0,4.761443E-1,5.5331594E-1,9.97818E-1,1.8161895E0,7.771177E-1,1.0579509E0,1.7938099E0,1.8626043E0,7.2018355E-1,2.295538E0,9.39682E-1,8.3890533E-1,2.438469E-1,2.1996434E-1,2.0178168E0,9.483385E-1,2.8450956E0,3.7074997E0,1.2405548E0,5.0959535E0,2.2111378E0,3.3326843E0,1.0920715E0,5.910608E0,2.3919563E0,1.1114401E1,7.949832E0,7.215811E-1,4.9878785E-1,8.0821395E-1,5.6089926E-1,3.5761207E-1,-1.395402E-1,1.0620731E0,6.0268945E-1,3.213005E-1,8.875089E-1,7.967457E-1,1.3981438E-1,1.0093096E0,6.3574183E-1,1.1991653E0,5.717139E-1,1.2997111E0,1.5384748E0,1.1227181E0,2.3034032E-1,1.8430125E0,4.5783487E-1,7.155247E-1,1.8776635E0,9.506671E-1,2.3218875E0,2.1513453E0,3.6600366E-1,3.4419413E0,5.2489247E0,6.1649237E0,2.2449646E0,8.747701E0,4.4449797E0,1.4325333E-1,5.078008E-1,4.0988564E-1,6.502753E-1,8.7011045E-1,1.1798137E0,7.395334E-1,2.1933429E-1,7.7680224E-1,9.3307847E-1,1.023683E0,4.189466E-1,2.5532278E-1,6.989312E-1,1.2316551E0,9.556152E-1,1.4680383E0,1.1025014E0,1.5620617E0,7.528777E-1,8.24933E-1,1.397567E0,1.8944608E0,4.912478E-1,1.9753623E0,1.6364168E0,1.3113575E0,2.3212616E0,1.8079548E0,3.9576085E0,5.5689317E-1,3.9821E-1,7.996408E-1,9.916178E-2,1.0322331E0,8.515058E-1,8.136178E-1,1.1084702E0,1.0934427E0,1.3457526E0,3.0237865E-1,1.0345358E0,1.1530241E0,4.6771544E-1,1.0402576E0,4.917608E-1,1.3834463E0,2.0264297E0,1.5900211E0,5.026868E-1,2.732048E-1,4.5905584E-1,3.7062898E-1,1.0525008E0,4.3505287E-1,8.698754E-1,4.4798756E-1,9.122009E-1,1.3601499E0,5.5163574E-1,1.1784118E0,4.386406E-1,1.2304894E0,3.7645212E-1,1.635556E0,-2.1044414E-3,2.5477726E0,1.9322354E0],"categories":[],"categories_nodes":[],"categories_segments":[],"categories_sizes":[],"default_left":[1,1,1,1,1,1,1,1,1,1,1,1,1,1,1,1,1,1,1,1,1,1,1,0,0,1,1,1,1,1,1,1,1,1,1,1,1,1,1,1,1,1,0,1,0,0,1,1,1,0,0,0,0,1,1,0,0,0,1,1,1,0,0,1,1,0,0,1,1,0,0,1,1,1,0,1,0,1,1,0,1,0,1,1,0,1,1,0,1,0,1,0,0,1,0,1,1,1,0,0,0,1,1,1,1,1,0,1,0,0,0,0,0,1,1,1,0,1,0,0,0,0,1,0,0,0,0,1,0,0,0,1,0,0,1,0,1,0,1,0,0,1,1,0,1,0,0,1,1,1,0,1,1,1,0,1,0,0,1,0,0,1,0,1,0,0,0,0,0,0,1,1,1,0,0,0,0,1,1,1,0,1,1,1,1,0,1,0,0,1,0,0,0,1,0,1,0,0,0,0,1,0,0,1,1,1,0,0,1,0,0,1,0,1,0,1,1,0,0,1,1,0,0,0,0,0,0,1,1,0,0,0,0,0,0,0,0],"id":14,"left_children":[1,3,5,7,9,11,13,15,17,19,21,23,25,27,29,31,33,35,37,39,41,43,45,-1,-1,47,49,51,53,55,57,59,61,63,65,67,69,71,73,75,77,79,-1,81,-1,-1,83,85,87,-1,-1,-1,-1,89,91,-1,-1,-1,93,95,97,-1,-1,99,101,-1,-1,103,105,-1,-1,107,109,111,-1,113,-1,115,117,-1,119,-1,121,123,-1,125,127,-1,129,-1,131,-1,-1,133,-1,135,137,139,-1,-1,-1,141,143,145,147,149,-1,151,-1,-1,-1,-1,-1,153,155,157,-1,159,-1,-1,-1,-1,161,-1,-1,-1,-1,163,-1,-1,-1,165,-1,-1,167,-1,169,-1,-1,-1,-1,173,175,-1,177,-1,-1,179,-1,183,-1,185,187,189,-1,191,-1,-1,193,-1,-1,195,-1,197,-1,-1,-1,-1,-1,-1,199,-1,-1,-1,-1,-1,-1,201,203,205,-1,-1,-1,207,209,-1,211,-1,-1,213,-1,-1,-1,215,-1,217,-1,-1,-1,-1,-1,-1,-1,221,223,225,-1,-1,-1,-1,-1,229,-1,231,-1,233,235,-1,-1,-1,-1,-1,-1,-1,-1,-1,-1,-1,-1,-1,-1,-1,-1,-1,-1,-1,-1],"loss_changes":[8.598179E3,5.614429E2,7.363262E2,6.601343E1,1.06032715E2,8.619141E1,1.966211E2,8.854279E0,1.257251E1,2.085852E1,1.3254639E1,1.0251343E1,6.1486816E1,4.3990723E1,1.6676172E2,2.3778534E0,1.3999634E0,5.8635864E0,6.9819336E0,7.0968018E0,5.7141724E0,4.3721466E0,4.3011475E0,0E0,0E0,2.7649414E1,1.6116455E1,2.4403442E1,2.3010254E1,1.0564941E1,3.693506E1,5.118332E-1,3.4988213E-1,3.7013245E-1,4.1299438E-1,2.2208557E0,5.430603E-1,4.7516785E0,1.6131897E0,9.8016815E0,5.5306396E0,1.4386578E0,0E0,7.0329285E0,0E0,0E0,5.015625E0,7.6314697E0,5.74802E0,0E0,0E0,0E0,0E0,8.896423E0,4.0907715E1,0E0,0E0,0E0,7.7939453E0,7.277069E-1,7.1939015E-1,0E0,0E0,2.0310211E-1,3.2739258E-1,0E0,0E0,1.9704437E-1,9.4621277E-1,0E0,0E0,1.4874878E0,1.2183142E-1,9.606323E-1,0E0,6.1814575E0,0E0,9.108215E0,3.6430054E0,0E0,1.7943597E-1,0E0,5.186943E0,6.0880127E0,0E0,5.85408E0,6.7663574E0,0E0,2.313343E0,0E0,1.1922302E1,0E0,0E0,3.474121E0,0E0,5.294266E-1,4.746971E-1,6.390759E-1,0E0,0E0,0E0,9.4703674E-2,4.840393E-1,8.8190174E-1,2.6068115E-1,1.2663269E-1,0E0,2.6315308E-1,0E0,0E0,0E0,0E0,0E0,1.0278435E0,2.2456818E0,1.8349609E0,0E0,2.0236206E-1,0E0,0E0,0E0,0E0,4.506134E0,0E0,0E0,0E0,0E0,1.5075684E-1,0E0,0E0,0E0,6.6691284E0,0E0,0E0,5.859253E0,0E0,1.3554192E-1,0E0,7.088661E-2,0E0,0E0,3.5214233E-1,1.5255404E-1,0E0,1.5803528E-1,0E0,0E0,3.7830353E-2,6.193161E-2,1.365509E-1,0E0,1.335907E0,1.395874E-1,6.477108E-1,0E0,2.1989288E0,0E0,0E0,1.0335693E0,0E0,0E0,9.60083E-2,0E0,4.2816925E-1,0E0,0E0,0E0,0E0,0E0,0E0,1.1718559E-1,0E0,0E0,0E0,0E0,0E0,0E0,8.0285263E-1,8.355713E-2,4.2099E-2,0E0,0E0,0E0,7.8356934E-1,9.244709E-1,0E0,9.039116E-1,0E0,0E0,4.2106438E-1,0E0,0E0,0E0,9.447632E-1,0E0,5.528002E-1,0E0,0E0,0E0,0E0,4.9522877E-2,0E0,0E0,2.6696014E-1,1.64711E-1,2.7619934E-1,0E0,0E0,9.573364E-2,0E0,0E0,2.2670364E-1,0E0,4.2071772E-1,0E0,4.5444813E0,5.7714844E-1,0E0,0E0,0E0,0E0,0E0,0E0,0E0,0E0,0E0,0E0,0E0,0E0,0E0,0E0,0E0,0E0,0E0,0E0,0E0,0E0],"parents":[2147483647,0,0,1,1,2,2,3,3,4,4,5,5,6,6,7,7,8,8,9,9,10,10,11,11,12,12,13,13,14,14,15,15,16,16,17,17,18,18,19,19,20,20,21,21,22,22,25,25,26,26,27,27,28,28,29,29,30,30,31,31,32,32,33,33,34,34,35,35,36,36,37,37,38,38,39,39,40,40,41,41,43,43,46,46,47,47,48,48,53,53,54,54,58,58,59,59,60,60,63,63,64,64,67,67,68,68,71,71,72,72,73,73,75,75,77,77,78,78,80,80,82,82,83,83,85,85,86,86,88,88,90,90,93,93,95,95,96,96,97,97,101,101,102,102,103,103,104,104,105,105,107,107,113,113,114,114,115,115,117,117,122,122,127,127,131,131,134,134,136,136,138,138,141,141,142,142,144,144,147,147,148,148,149,149,151,151,152,152,153,153,155,155,158,158,161,161,163,163,170,170,177,177,178,178,179,179,183,183,184,184,186,186,189,189,193,193,195,195,200,200,203,203,204,204,205,205,208,208,211,211,213,213,215,215,216,216],"right_children":[2,4,6,8,10,12,14,16,18,20,22,24,26,28,30,32,34,36,38,40,42,44,46,-1,-1,48,50,52,54,56,58,60,62,64,66,68,70,72,74,76,78,80,-1,82,-1,-1,84,86,88,-1,-1,-1,-1,90,92,-1,-1,-1,94,96,98,-1,-1,100,102,-1,-1,104,106,-1,-1,108,110,112,-1,114,-1,116,118,-1,120,-1,122,124,-1,126,128,-1,130,-1,132,-1,-1,134,-1,136,138,140,-1,-1,-1,142,144,146,148,150,-1,152,-1,-1,-1,-1,-1,154,156,158,-1,160,-1,-1,-1,-1,162,-1,-1,-1,-1,164,-1,-1,-1,166,-1,-1,168,-1,170,-1,-1,-1,-1,174,176,-1,178,-1,-1,180,-1,184,-1,186,188,190,-1,192,-1,-1,194,-1,-1,196,-1,198,-1,-1,-1,-1,-1,-1,200,-1,-1,-1,-1,-1,-1,202,204,206,-1,-1,-1,208,210,-1,212,-1,-1,214,-1,-1,-1,216,-1,218,-1,-1,-1,-1,-1,-1,-1,222,224,226,-1,-1,-1,-1,-1,230,-1,232,-1,234,236,-1,-1,-1,-1,-1,-1,-1,-1,-1,-1,-1,-1,-1,-1,-1,-1,-1,-1,-1,-1],"split_conditions":[7.7480255E1,3.951625E1,1.25770004E2,2.5785E1,5.2738E1,1.131965E2,5.6609745E1,1.7551785E1,7.367732E1,8.660676E1,3.2982697E1,1.1416864E2,6.856639E1,1.3677649E2,1.5729349E2,7.495444E1,9.236334E1,3.171475E1,3.1092499E1,2.0499662E1,4.070375E1,7.740823E1,2.8097466E1,8.2956994E-1,3.019745E-1,2.7838092E0,1.11572334E2,1.338705E2,1.6834719E1,4.685769E0,4.5981693E1,1.7446638E1,1.5575321E1,1.1275303E1,4.5268148E-1,2.0866524E1,3.8472878E1,2.9457125E1,9.654E-1,4.5980826E-1,4.935875E1,8.85612E1,4.851163E-1,3.3360474E1,8.431193E-2,2.3812924E-1,6.502333E1,6.799787E0,1.2057497E2,1.6470951E0,1.1510113E0,1.0169029E0,3.497766E-1,2.6049667E1,-4.093728E0,1.4376789E0,5.227763E-1,8.263802E-1,5.4887333E0,1.5955101E1,1.8203554E1,1.2008698E-1,2.1390758E-1,1.8200178E1,-6.9013365E-2,2.4019663E-1,1.3985829E-1,2.401375E1,3.1537416E1,2.8402355E-1,9.8667406E-2,8.961203E1,4.0147787E-1,3.8886204E1,2.4261971E-1,4.107E1,-9.559428E-2,4.7902E1,5.239654E1,3.3819026E-1,6.89319E1,7.4566424E-1,2.6163425E0,-1.9887379E-1,6.8087786E-1,5.81359E-1,6.4698395E1,1.1303101E-1,6.378988E1,5.3090334E-1,1.5709641E1,3.143799E-1,1.4273564E0,1.7032434E2,8.178406E-1,1.5328041E1,1.7193518E1,3.4685844E1,1.2740491E-1,7.2477214E-2,1.4955112E-1,2.5411167E1,-5.6287836E-2,2.6136005E1,2.9689499E1,7.270639E1,1.342637E-1,2.624125E1,9.5228866E-2,1.1066319E-1,1.9956361E-1,3.6323792E-1,1.5542355E-1,2.3987827E1,5.2538143E1,1.4255917E1,1.4403671E-1,2.2355942E1,1.8793641E-1,1.6778107E-1,4.876938E-2,4.399287E-2,6.203625E1,1.896677E-1,5.6901914E-1,7.4149996E-1,2.4811096E-1,1.1495167E2,4.4222757E-1,6.6653687E-1,2.184143E-1,3.745623E1,4.7839126E-1,2.2228801E0,5.325699E1,1.4431623E-1,-4.211514E-1,1.6164279E-1,1.1217985E-1,7.1522415E-2,-2.790804E-2,3.4375137E1,-7.706144E-1,6.42601E-2,1.9611572E1,1.5934914E-1,2.7962876E-2,1.907297E1,1.2714837E-1,4.672553E-1,1.1434279E-1,2.688875E1,2.9272917E1,1.3266741E1,4.6068065E-2,3.2218185E1,9.156697E-2,1.4310494E-1,5.9200027E1,1.9013342E-1,4.643775E-1,1.2203158E1,7.320073E-2,1.1804E2,1.049785E0,1.2329848E0,4.4899294E-1,1.7495402E0,8.8899595E-1,2.8650666E-2,1.5759428E1,8.197713E-2,1.3005506E-1,1.740221E-1,2.3596275E-1,1.4790669E-1,4.3866858E-2,1.9587181E1,5.886086E1,6.8278136E0,8.378932E-2,5.106456E-2,1.3978624E-1,3.3496678E-2,5.082845E-1,2.9360768E-1,2.7696417E1,3.1241235E-1,1.5057555E-1,4.286053E1,2.7951342E-1,3.7889215E-1,9.824956E-2,-2.0379832E0,3.2728335E-1,1.0793059E1,4.6425232E-1,3.6159095E-1,7.915217E-1,1.1137863E-1,7.9642E-2,1.5992816E-1,1.9832356E-2,1.9302273E1,6.0547394E1,2.673825E1,2.2169404E-1,2.1868853E-1,2.6915053E-1,6.0475733E-2,2.0690715E-1,2.849125E1,9.354309E-2,-2.5434238E-1,9.835216E-2,4.3264053E1,-4.016957E-1,3.1800422E-1,1.0053736E-1,5.464096E-2,9.181117E-2,7.41258E-2,2.1050017E-1,8.701058E-2,1.7397508E-1,8.9597516E-2,1.8244019E-1,2.7202997E-1,1.1032715E-1,2.3568237E-1,8.772812E-2,2.4609788E-1,7.529043E-2,3.271112E-1,-4.2088827E-4,5.0955456E-1,3.8644707E-1],"split_indices":[1,8,9,8,1,2,10,9,10,10,10,0,10,2,0,5,10,3,8,10,8,0,11,0,0,6,4,4,11,6,5,0,3,10,7,10,2,2,7,6,8,11,0,5,0,0,4,10,0,0,0,0,0,5,7,0,0,0,7,4,2,0,0,9,6,0,0,9,0,0,0,5,7,0,0,9,0,1,4,0,12,0,10,7,0,7,10,0,5,0,11,0,0,4,0,4,0,5,0,0,0,4,6,0,1,10,0,9,0,0,0,0,0,11,0,11,0,10,0,0,0,0,9,0,0,0,0,4,0,0,0,5,0,0,12,0,6,0,3,0,0,10,6,0,1,0,0,10,0,7,0,1,3,11,0,11,0,0,12,0,0,10,0,2,0,0,0,0,0,0,0,2147483647,2147483647,0,0,0,0,0,12,10,0,2147483647,2147483647,7,7,0,3,0,0,0,0,0,0,6,0,10,0,0,0,0,6,0,0,4,12,1,0,0,12,0,0,1,0,6,0,10,6,0,0,2147483647,2147483647,0,0,0,0,0,0,2147483647,2147483647,0,0,0,0,0,0,0,0],"split_type":[0,0,0,0,0,0,0,0,0,0,0,0,0,0,0,0,0,0,0,0,0,0,0,0,0,0,0,0,0,0,0,0,0,0,0,0,0,0,0,0,0,0,0,0,0,0,0,0,0,0,0,0,0,0,0,0,0,0,0,0,0,0,0,0,0,0,0,0,0,0,0,0,0,0,0,0,0,0,0,0,0,0,0,0,0,0,0,0,0,0,0,0,0,0,0,0,0,0,0,0,0,0,0,0,0,0,0,0,0,0,0,0,0,0,0,0,0,0,0,0,0,0,0,0,0,0,0,0,0,0,0,0,0,0,0,0,0,0,0,0,0,0,0,0,0,0,0,0,0,0,0,0,0,0,0,0,0,0,0,0,0,0,0,0,0,0,0,0,0,0,0,0,0,0,0,0,0,0,0,0,0,0,0,0,0,0,0,0,0,0,0,0,0,0,0,0,0,0,0,0,0,0,0,0,0,0,0,0,0,0,0,0,0,0,0,0,0,0,0,0,0,0,0,0,0,0,0,0,0,0,0,0,0,0,0,0,0],"sum_hessian":[2.358E3,1.821E3,5.37E2,1.154E3,6.67E2,2.71E2,2.66E2,5.11E2,6.43E2,4.67E2,2E2,1.07E2,1.64E2,1.37E2,1.29E2,2.02E2,3.09E2,3.62E2,2.81E2,3.34E2,1.33E2,3E1,1.7E2,1.04E2,3E0,8.9E1,7.5E1,2.4E1,1.13E2,7.8E1,5.1E1,1.76E2,2.6E1,2.6E2,4.9E1,2.54E2,1.08E2,1.75E2,1.06E2,7.1E1,2.63E2,1E1,1.23E2,2.8E1,2E0,3E0,1.67E2,8.1E1,8E0,9E0,6.6E1,2E1,4E0,2.8E1,8.5E1,7.6E1,2E0,3E0,4.8E1,1.57E2,1.9E1,7E0,1.9E1,1.8E1,2.42E2,4.2E1,7E0,7.8E1,1.76E2,1.06E2,2E0,1.61E2,1.4E1,9.1E1,1.5E1,6.9E1,2E0,1.92E2,7.1E1,6E0,4E0,3E0,2.5E1,1.07E2,6E1,7E0,7.4E1,2E0,6E0,4E0,2.4E1,2E0,8.3E1,4.6E1,2E0,8.6E1,7.1E1,1.1E1,8E0,5E0,1.3E1,6.5E1,1.77E2,1.5E1,6.3E1,1.68E2,8E0,1.58E2,3E0,1.1E1,3E0,8.8E1,3E0,2.3E1,4.6E1,1.83E2,9E0,6.7E1,4E0,2E0,2E0,2E0,2.3E1,3E0,1.04E2,4E0,3E0,7.1E1,3E0,4E0,2E0,2.1E1,3E0,3.1E1,1.5E1,2.2E1,6.4E1,4.7E1,2.4E1,8E0,3E0,6E1,5E0,3E0,1.74E2,1.2E1,3E0,5.4E1,9E0,1.65E2,3E0,8.8E1,7E1,2.1E1,2E0,4.4E1,2E0,3E0,1.8E2,2E0,6.5E1,2.1E1,2E0,8E0,6.3E1,1.9E1,2E0,1.1E1,4E0,2E0,6.2E1,1.1E1,1.3E1,2.6E1,3.4E1,3E0,2E0,5.6E1,1.18E2,5.2E1,2E0,2E0,7E0,1.42E2,2.3E1,4.4E1,4.4E1,6.7E1,3E0,1.2E1,9E0,4.2E1,2E0,1.23E2,5.7E1,5E0,1.6E1,3E0,5E0,4E1,2.2E1,5.4E1,2E0,4.8E1,7E1,1.8E1,3.4E1,6.9E1,7.3E1,3E0,2E1,4E1,4E0,6E0,6E0,1.2E1,1.11E2,3E0,2E0,9E0,1.3E1,2E0,4.6E1,4E0,6.6E1,5E0,1.3E1,7.1E1,2E0,3.8E1,2E0,4E0,2E0,1E1,2E0,1.3E1,9.8E1],"tree_param":{"num_deleted":"8","num_feature":"13","num_nodes":"237","size_leaf_vector":"0"}},{"base_weights":[2.077612E0,1.3048115E0,5.172606E0,9.9761194E-1,2.1702888E0,4.7201786E0,7.0099945E0,8.0560887E-1,1.3368825E0,1.8600888E0,2.7251103E0,4.2222056E0,5.2702594E0,5.7915583E0,8.486074E0,6.207977E-1,9.325409E-1,1.2168565E0,1.5568348E0,1.6434107E0,2.0237117E0,1.8041077E0,2.8457503E0,3.4829504E0,4.571659E0,3.8357017E0,5.609326E0,2.4236107E0,5.945163E0,8.665978E0,3.4385731E0,5.432537E-1,7.1243787E-1,7.8834504E-1,1.0017928E0,1.0938746E0,1.3391552E0,1.6629006E0,1.2255456E0,1.5245612E0,2.008027E0,1.8299062E0,2.2965844E0,2.0665524E0,1.0537047E0,2.5521686E0,3.157395E0,2.5388732E0,3.8098037E0,4.3612227E0,6.3827343E0,4.273598E0,2.5672836E0,2.4550552E0,5.6601067E0,2.7137413E0,6.0936847E0,5.027747E-1,7.8849596E-1,6.4627385E-1,8.04286E-1,8.034987E-1,3.077082E-1,9.6561927E-1,1.2682766E0,8.16982E-1,1.1381955E0,9.65567E-1,1.4039531E0,1.492011E0,1.8463686E0,1.2707118E0,6.0104066E-1,1.5393355E0,4.7465006E-1,2.0885422E0,5.3353375E-1,1.3381588E0,1.8941407E0,2.4938745E0,9.387029E-1,5.961609E-2,1.3751316E0,1.3421881E0,2.6618748E0,3.2858286E0,1.7513065E0,2.766953E0,8.777962E-1,3.958544E0,2.0592854E0,4.492165E0,3.0021656E0,2.4674072E0,4.5861483E0,3.08815E0,1.2204406E0,6.0618377E0,5.0194526E0,2.29687E0,6.2113905E0,4.4657022E-1,5.6534046E-1,4.9535906E-1,8.663259E-1,6.521722E-1,2.3620415E-1,1.0746089E0,7.160397E-1,7.2502583E-1,8.827178E-1,1.4866495E-1,3.898244E-1,9.843959E-1,5.5320597E-1,6.2089205E-1,1.3049783E0,8.6351275E-1,1.568985E-1,7.718257E-1,1.2672912E0,1.4373802E0,8.4237707E-1,1.5583718E0,9.2473716E-1,2.014987E0,1.2778082E0,1.2954816E0,5.168775E-1,1.0519825E0,1.5828598E0,6.9750595E-1,2.162991E0,2.3299732E0,1.7748678E0,2.8714676E0,1.4664695E0,1.300677E0,4.3254662E-1,1.5907255E0,3.1487146E-1,3.842172E0,2.4459815E0,1.0019089E0,2.250227E0,3.1442883E0,1.4882342E0,2.4610558E0,8.3716327E-1,3.6124396E0,4.667071E0,7.481435E-1,3.1400032E0,4.9027615E0,2.0148525E0,1.2305756E0,3.9565797E0,6.661987E-2,1.9674479E0,3.6925137E0,6.204046E0,1.9765753E0,5.091543E0,4.6139786E-1,1.8789713E-1,6.3395816E-1,4.6846157E-1,3.9705876E-1,6.643617E-1,7.8705263E-1,3.850844E-1,9.110047E-1,1.1355404E0,1.684831E-1,5.9613186E-1,6.5076774E-1,1.0397558E0,9.039879E-1,4.771042E-1,1.3946882E0,5.4760104E-1,1.4850293E0,9.5011276E-1,9.2105436E-1,3.5177866E-1,6.4491016E-1,1.577749E0,1.0554123E0,4.648714E-1,2.2800908E0,1.6582929E0,1.3045049E0,4.3755037E-1,1.6620035E0,1.2303109E0,1.0006886E0,2.26244E0,1.0602118E0,1.8092934E0,4.5605978E-1,1.9880562E0,7.856455E-1,1.9981241E0,2.09139E0,6.638088E-1,3.864022E0,1.4514179E0,2.9197857E-1,4.8558104E-1,-2.1260865E-1,3.906212E-1,3.9822352E-1,7.099142E-1,3.452934E-1,5.367447E-1,1.6562526E-1,4.5650712E-1,8.170563E-1,5.0732267E-1,4.8138002E-1,-2.414751E-2,9.149117E-1,3.4036192E-1,1.1825672E0,7.823459E-1,8.0771446E-1,4.307274E-1,7.4424815E-1,2.3100471E-1,5.6318825E-1,1.1509228E0,1.5407746E0,1.079599E0,9.694926E-2,1.0842276E0,2.3619215E0,9.745229E-1,8.4832156E-1,1.7911576E0,1.69226E0,6.7919254E-1,6.637573E-4,1.4244308E0,1.562439E0,4.0329514E0,3.6624527E-1,1.653911E-1,5.063658E-1,3.4110722E-1,3.927926E-1,2.0066261E-1,5.6801206E-1,2.5403857E-1,2.59367E-1,5.76537E-1,8.223279E-1,9.6758664E-1,5.5358267E-1,1.1996617E0,2.95997E-1,8.1097096E-1,5.59391E-1,1.555547E0,4.492798E-1,1.1662891E0,9.722354E-1,1.7298013E0,8.5506004E-1,1.6214435E0,4.474585E-1,6.06519E-1,1.3076241E-1,3.6746424E-1,8.386715E-1,1.17837906E-1,9.87464E-1,6.016712E-1,1.9033139E0,1.4435617E0,3.000895E-1,1.2332859E0,1.0364113E0,2.6778793E-1,1.7310662E0,6.790123E-1],"categories":[],"categories_nodes":[],"categories_segments":[],"categories_sizes":[],"default_left":[1,1,1,1,1,1,1,1,1,1,1,1,1,1,1,1,1,1,1,1,1,1,1,1,1,1,1,0,1,0,0,1,1,1,1,1,1,1,1,1,1,1,0,1,1,1,1,1,1,1,0,1,1,0,1,0,1,1,1,1,1,1,1,1,1,1,0,1,1,1,1,1,0,1,0,1,0,0,1,1,1,0,0,1,1,0,1,1,0,0,1,1,0,1,1,1,1,1,1,0,0,1,1,0,0,1,1,0,0,1,0,1,1,1,1,0,0,1,0,1,1,1,1,1,1,1,0,0,0,1,1,0,1,0,1,0,1,0,0,1,0,0,0,0,0,0,1,0,0,1,0,0,0,0,0,0,0,0,0,0,0,0,0,1,1,1,1,1,1,1,1,1,1,0,1,1,0,1,0,1,1,1,1,1,1,1,1,0,0,1,1,0,0,1,1,0,0,1,1,0,0,0,0,0,0,1,0,1,1,0,0,0,0,1,1,1,1,0,1,0,0,1,0,1,0,0,0,1,0,0,0,1,0,0,1,1,1,0,0,1,0,0,1,0,0,1,1,1,1,1,1,1,1,1,1,1,1,0,0,1,1,0,1,0,0,1,0,1,1,0,0,1,1,0,0,0,0,0,0,0,0,0,0,0,0],"id":15,"left_children":[1,3,5,7,9,11,13,15,17,19,21,23,25,27,29,31,33,35,37,39,41,43,45,47,49,51,53,-1,55,-1,-1,57,59,61,63,65,67,69,71,73,75,77,-1,79,81,83,85,87,89,91,-1,93,95,-1,97,-1,99,101,103,-1,107,109,-1,113,115,117,-1,119,121,123,125,127,-1,129,-1,131,-1,-1,133,135,137,-1,-1,139,141,-1,143,145,-1,-1,147,149,-1,151,153,155,157,159,161,-1,-1,163,165,-1,-1,-1,-1,-1,-1,169,-1,-1,-1,171,173,-1,-1,175,-1,177,-1,181,-1,-1,187,189,-1,-1,-1,191,193,-1,195,-1,-1,-1,199,-1,-1,201,-1,-1,-1,-1,-1,-1,203,-1,-1,205,-1,-1,-1,-1,-1,-1,-1,-1,-1,-1,-1,-1,-1,207,209,211,213,-1,-1,217,219,221,223,-1,225,227,-1,229,-1,-1,-1,231,233,-1,-1,-1,-1,-1,-1,-1,237,-1,-1,239,241,-1,-1,-1,-1,-1,-1,-1,-1,-1,-1,243,-1,-1,247,-1,-1,-1,-1,-1,-1,-1,-1,-1,-1,-1,-1,255,-1,257,-1,-1,-1,-1,-1,-1,-1,261,-1,-1,263,-1,-1,-1,-1,265,-1,-1,267,-1,-1,-1,-1,269,-1,-1,-1,-1,-1,-1,-1,273,275,-1,-1,-1,-1,-1,277,-1,-1,279,-1,281,283,-1,-1,-1,-1,-1,-1,-1,-1,-1,-1,-1,-1,-1,-1,-1,-1],"loss_changes":[5.635537E3,5.000713E2,3.5844727E2,8.985974E1,7.995117E1,8.211328E1,1.145166E2,2.0392944E1,1.1384766E1,8.019409E0,1.4310181E1,3.703589E1,6.457959E1,1.3009888E1,5.615967E0,2.2209167E0,4.482788E0,3.4985352E0,4.076111E0,3.1354675E0,5.2108765E0,2.352066E0,5.9403076E0,1.1927612E1,2.3995361E1,9.57959E0,8.688965E0,0E0,7.460083E0,0E0,0E0,1.6187782E0,4.829178E-1,1.0346298E0,2.1781006E0,1.1563721E0,2.5418396E0,1.2897034E0,5.337448E-1,1.0066528E0,2.6847076E0,9.083252E-1,0E0,5.3702774E0,2.4742346E0,7.5775757E0,6.8867188E0,5.5272064E0,4.8668823E0,8.758545E0,0E0,3.3617554E0,4.6494064E0,0E0,5.0898438E0,0E0,6.737793E0,3.6995316E-1,1.8685722E-1,9.024429E-2,7.8110886E-1,4.168167E-1,3.3466935E-2,1.8946838E0,1.1639404E-1,6.9379807E-1,0E0,6.0019684E-1,1.3233643E0,1.2693329E0,2.985672E0,1.1463928E-1,0E0,6.6815186E-1,0E0,1.5981293E0,0E0,0E0,7.510376E-1,5.6427002E-2,5.366893E-1,0E0,0E0,1.7970638E0,9.968262E0,0E0,7.3659706E-1,4.005661E0,0E0,0E0,8.857689E-1,3.737793E-1,0E0,4.5890465E0,7.2178955E0,8.036514E0,4.1784906E0,4.046631E0,2.878662E0,0E0,0E0,2.8918457E-1,2.3482323E-1,0E0,0E0,4.4071198E-2,0E0,0E0,0E0,1.615696E0,0E0,0E0,0E0,2.293335E0,1.6379547E-1,0E0,0E0,2.6073265E-1,0E0,3.087721E-1,6.1444283E-2,1.5145264E0,6.198263E-2,9.761047E-2,1.1029816E-1,2.850647E-1,0E0,0E0,0E0,1.2911081E0,7.1751404E-1,0E0,9.725189E-1,0E0,7.4768066E-4,0E0,1.7284088E0,0E0,0E0,7.261028E-1,0E0,0E0,0E0,0E0,0E0,0E0,1.5952587E0,0E0,0E0,6.8962097E0,0E0,0E0,0E0,0E0,0E0,0E0,0E0,0E0,0E0,0E0,0E0,0E0,0E0,2.351551E-1,6.513945E-1,5.051365E-1,1.2584686E-1,2.0699263E-2,0E0,2.2335434E-1,6.421399E-1,1.5010071E-1,6.361313E-1,0E0,1.4204931E-1,3.7742996E-1,0E0,3.6167812E-1,0E0,0E0,0E0,8.904724E-1,1.4967909E0,0E0,0E0,0E0,0E0,0E0,0E0,4.862976E-2,8.480873E-1,0E0,0E0,1.1700897E0,5.2504272E0,0E0,0E0,0E0,0E0,0E0,0E0,0E0,0E0,0E0,0E0,1.474823E0,0E0,7.104361E-2,6.44989E-2,0E0,0E0,0E0,0E0,3.1098723E-2,5.0171852E-2,0E0,0E0,0E0,2.2086143E-2,0E0,0E0,2.0407104E-1,0E0,2.0681E-1,0E0,0E0,0E0,8.894968E-2,0E0,0E0,0E0,5.3608704E-1,0E0,0E0,1.01267815E-1,0E0,0E0,0E0,0E0,3.4552002E-1,0E0,0E0,7.448616E-1,0E0,0E0,0E0,0E0,1.2389374E-1,2.402234E-2,0E0,0E0,0E0,0E0,0E0,0E0,8.3379745E-1,3.1504822E-1,0E0,0E0,0E0,0E0,0E0,9.522095E-1,0E0,0E0,6.8268776E-1,0E0,4.6797943E-1,1.6764069E-1,0E0,0E0,0E0,0E0,0E0,0E0,0E0,0E0,0E0,0E0,0E0,0E0,0E0,0E0,0E0,0E0],"parents":[2147483647,0,0,1,1,2,2,3,3,4,4,5,5,6,6,7,7,8,8,9,9,10,10,11,11,12,12,13,13,14,14,15,15,16,16,17,17,18,18,19,19,20,20,21,21,22,22,23,23,24,24,25,25,26,26,28,28,31,31,32,32,33,33,34,34,35,35,36,36,37,37,38,38,39,39,40,40,41,41,43,43,44,44,45,45,46,46,47,47,48,48,49,49,51,51,52,52,54,54,56,56,57,57,58,58,59,59,60,60,61,61,62,62,63,63,64,64,65,65,67,67,68,68,69,69,70,70,71,71,73,73,75,75,78,78,79,79,80,80,83,83,84,84,86,86,87,87,90,90,91,91,93,93,94,94,95,95,96,96,97,97,98,98,101,101,102,102,105,105,109,109,113,113,114,114,117,117,119,119,120,120,121,121,122,122,123,123,124,124,125,125,129,129,130,130,132,132,134,134,136,136,139,139,146,146,149,149,163,163,164,164,165,165,166,166,167,167,169,169,170,170,171,171,172,172,174,174,175,175,177,177,181,181,182,182,189,189,190,190,193,193,194,194,205,205,207,207,208,208,213,213,214,214,218,218,221,221,223,223,227,227,231,231,234,234,239,239,242,242,247,247,248,248,255,255,256,256,262,262,265,265,267,267,268,268],"right_children":[2,4,6,8,10,12,14,16,18,20,22,24,26,28,30,32,34,36,38,40,42,44,46,48,50,52,54,-1,56,-1,-1,58,60,62,64,66,68,70,72,74,76,78,-1,80,82,84,86,88,90,92,-1,94,96,-1,98,-1,100,102,104,-1,108,110,-1,114,116,118,-1,120,122,124,126,128,-1,130,-1,132,-1,-1,134,136,138,-1,-1,140,142,-1,144,146,-1,-1,148,150,-1,152,154,156,158,160,162,-1,-1,164,166,-1,-1,-1,-1,-1,-1,170,-1,-1,-1,172,174,-1,-1,176,-1,178,-1,182,-1,-1,188,190,-1,-1,-1,192,194,-1,196,-1,-1,-1,200,-1,-1,202,-1,-1,-1,-1,-1,-1,204,-1,-1,206,-1,-1,-1,-1,-1,-1,-1,-1,-1,-1,-1,-1,-1,208,210,212,214,-1,-1,218,220,222,224,-1,226,228,-1,230,-1,-1,-1,232,234,-1,-1,-1,-1,-1,-1,-1,238,-1,-1,240,242,-1,-1,-1,-1,-1,-1,-1,-1,-1,-1,244,-1,-1,248,-1,-1,-1,-1,-1,-1,-1,-1,-1,-1,-1,-1,256,-1,258,-1,-1,-1,-1,-1,-1,-1,262,-1,-1,264,-1,-1,-1,-1,266,-1,-1,268,-1,-1,-1,-1,270,-1,-1,-1,-1,-1,-1,-1,274,276,-1,-1,-1,-1,-1,278,-1,-1,280,-1,282,284,-1,-1,-1,-1,-1,-1,-1,-1,-1,-1,-1,-1,-1,-1,-1,-1],"split_conditions":[9.055052E1,4.235875E1,1.71555E2,3.0966251E1,5.925068E1,1.25770004E2,6.6954575E1,2.3017498E1,7.86181E1,6.1491848E1,4.41858E1,4.2058495E1,2.392265E1,1.9376743E1,1.72192E2,1.7551785E1,4.7003952E1,3.615E1,6.5800834E-1,5.4932503E1,5.269875E1,4.3624672E1,7.4307E1,1.10994995E2,5.2742643E0,1.5262338E2,3.3450905E1,4.8472214E-1,8.654863E0,1.7331957E0,6.8771464E-1,7.495444E1,6.813472E1,2.9395601E1,9.6751144E1,1.6093216E1,1.466033E1,4.058875E1,1.03002E0,5.4878746E1,5.9945915E1,7.1071945E1,4.5931688E-1,7.7849045E1,-3.7791991E0,4.5323498E1,3.1142669E0,4.943442E1,1.304476E2,3.3508198E0,1.2765468E0,2.9684055E1,1.4562738E1,4.9101105E-1,2.0397127E0,5.427483E-1,1.6571114E2,4.979319E1,1.5575321E1,1.2925477E-1,1.8885845E1,2.607375E1,6.1541643E-2,2.979625E1,2.3687248E1,3.764447E1,2.2763911E-1,4.0975E1,7.972324E-1,3.8479378E1,4.305121E1,9.374559E1,1.2020814E-1,3.6237283E0,9.4930016E-2,5.2966705E1,1.0670675E-1,2.6763177E-1,4.5888374E1,2.7435434E1,2.9330036E1,1.1923218E-2,2.7502632E-1,4.3705433E1,4.5803094E-1,6.571657E-1,3.1538677E0,1.18083206E2,1.7555924E-1,7.917088E-1,2.5648468E1,1.12413666E2,6.004331E-1,1.4117967E2,2.209488E1,3.3286106E1,1.6768083E2,3.3400238E1,2.8849262E1,4.59374E-1,1.2422781E0,1.7842499E1,3.4583956E-2,9.9071816E-2,1.7326519E-1,1.3043444E-1,4.724083E-2,2.1492179E-1,1.4320795E-1,2.7721249E1,1.7654356E-1,2.9732991E-2,7.796488E-2,2.9177502E1,6.9149284E1,1.2417841E-1,2.6099566E-1,3.1032501E1,3.13797E-2,4.286053E1,2.5345823E-1,4.343475E1,1.6847542E-1,3.1167436E-1,8.916261E1,8.093872E-2,2.5556165E-1,2.5909632E-1,1.03375494E-1,2.45581E0,7.4235725E-1,1.395012E-1,1.2045487E1,4.6599466E-1,3.5497355E-1,5.7429355E-1,3.779906E1,2.6013538E-1,8.6509325E-2,3.9330833E1,6.29743E-2,7.684344E-1,4.891963E-1,2.0038179E-1,4.500454E-1,6.288577E-1,1.0152236E1,4.9221116E-1,1.6743265E-1,1.14922E2,9.3341416E-1,1.496287E-1,6.280007E-1,9.805523E-1,4.0297052E-1,2.4611512E-1,7.91316E-1,1.3323975E-2,3.9348957E-1,7.3850274E-1,1.2408092E0,3.9531505E-1,1.0183086E0,1.4396606E1,1.844119E1,1.5627321E1,1.4772308E-1,7.941175E-2,1.3287234E-1,4.381401E1,-3.9139634E-1,9.244876E1,2.94485E1,3.3696618E-2,7.129112E1,3.1631493E1,2.0795117E-1,4.240067E1,9.542084E-2,2.7893767E-1,1.0952021E-1,6.552922E1,4.3448124E1,1.8421088E-1,7.0355736E-2,1.2898204E-1,3.1554982E-1,2.1108246E-1,9.297428E-2,4.5601818E-1,3.829625E1,2.6090097E-1,8.751007E-2,7.291171E1,2.0667301E1,2.0013772E-1,4.52488E-1,2.1204236E-1,3.618587E-1,9.121196E-2,3.9761123E-1,1.571291E-1,3.9962482E-1,4.1827798E-1,1.3276176E-1,5.8798515E1,2.902836E-1,5.8395714E-2,5.0712547E1,-4.252173E-2,7.812424E-2,7.96447E-2,1.4198284E-1,6.905868E-2,1.0734894E-1,3.3125054E-2,9.130143E-2,1.6341126E-1,1.0146453E-1,9.627601E-2,-4.829502E-3,2.5785E1,6.8072386E-2,2.744225E1,1.5646918E-1,1.6154289E-1,8.614548E-2,1.4884964E-1,4.6200942E-2,1.12637654E-1,2.3018456E-1,2.2729498E1,2.1591981E-1,1.9389851E-2,4.259025E1,4.723843E-1,1.9490458E-1,1.6966431E-1,3.582315E-1,4.4399376E1,1.3583851E-1,1.3275146E-4,8.1836593E-1,3.124878E-1,8.0659026E-1,7.324906E-2,3.307822E-2,2.70242E1,6.822144E-2,7.855853E-2,4.0132523E-2,1.13602415E-1,5.0807714E-2,5.1873397E-2,1.15307406E-1,2.5163414E1,6.678957E-1,1.1071654E-1,2.3993234E-1,5.91994E-2,1.6219419E-1,1.1187821E-1,-3.5329586E-1,8.985596E-2,2.3325782E-1,4.1899902E1,3.4596026E-1,4.6508152E1,1.2208866E0,8.94917E-2,1.213038E-1,2.6152482E-2,7.349285E-2,1.6773431E-1,2.3567582E-2,1.9749281E-1,1.20334245E-1,3.8066277E-1,2.8871235E-1,6.0017902E-2,2.4665718E-1,2.0728226E-1,5.3557586E-2,3.4621325E-1,1.3580246E-1],"split_indices":[0,9,8,8,0,9,10,1,10,10,10,10,10,5,4,9,10,9,7,2,8,12,2,9,7,0,5,0,11,0,0,5,10,0,10,10,11,8,7,2,10,10,0,0,6,5,7,5,0,7,0,5,10,0,7,0,0,10,3,10,3,9,11,1,1,0,0,9,6,2,4,5,0,10,0,4,0,0,2,10,5,0,0,5,6,0,7,4,0,0,5,3,0,0,10,5,4,12,10,0,0,1,7,0,0,2147483647,2147483647,0,0,8,0,2147483647,2147483647,8,5,0,0,9,0,0,5,2,11,5,11,7,0,0,0,10,7,0,10,0,0,0,5,0,0,5,0,0,0,0,0,0,11,0,0,1,0,0,0,0,0,0,0,0,0,0,0,0,0,9,0,8,6,2147483647,2147483647,10,6,5,1,0,5,0,0,0,0,2147483647,2147483647,12,2,2147483647,2147483647,2147483647,2147483647,0,0,11,9,0,0,11,10,0,0,2147483647,2147483647,0,0,0,0,0,0,10,0,12,5,0,0,0,0,2,5,2147483647,2147483647,0,7,0,0,8,0,2,0,0,0,11,0,0,0,5,0,0,1,2147483647,2147483647,0,0,2,0,0,6,0,0,2147483647,2147483647,10,5,2147483647,2147483647,2147483647,2147483647,2147483647,2147483647,0,6,0,0,2147483647,2147483647,0,6,0,0,5,0,10,6,0,0,2147483647,2147483647,0,0,0,0,0,0,0,0,0,0,0,0],"split_type":[0,0,0,0,0,0,0,0,0,0,0,0,0,0,0,0,0,0,0,0,0,0,0,0,0,0,0,0,0,0,0,0,0,0,0,0,0,0,0,0,0,0,0,0,0,0,0,0,0,0,0,0,0,0,0,0,0,0,0,0,0,0,0,0,0,0,0,0,0,0,0,0,0,0,0,0,0,0,0,0,0,0,0,0,0,0,0,0,0,0,0,0,0,0,0,0,0,0,0,0,0,0,0,0,0,0,0,0,0,0,0,0,0,0,0,0,0,0,0,0,0,0,0,0,0,0,0,0,0,0,0,0,0,0,0,0,0,0,0,0,0,0,0,0,0,0,0,0,0,0,0,0,0,0,0,0,0,0,0,0,0,0,0,0,0,0,0,0,0,0,0,0,0,0,0,0,0,0,0,0,0,0,0,0,0,0,0,0,0,0,0,0,0,0,0,0,0,0,0,0,0,0,0,0,0,0,0,0,0,0,0,0,0,0,0,0,0,0,0,0,0,0,0,0,0,0,0,0,0,0,0,0,0,0,0,0,0,0,0,0,0,0,0,0,0,0,0,0,0,0,0,0,0,0,0,0,0,0,0,0,0,0,0,0,0,0,0,0,0,0,0,0,0,0,0,0,0,0,0,0,0,0,0,0,0],"sum_hessian":[2.358E3,1.888E3,4.7E2,1.395E3,4.93E2,3.8E2,9E1,8.93E2,5.02E2,3.19E2,1.74E2,2.04E2,1.76E2,5.2E1,3.8E1,3.66E2,5.27E2,3.29E2,1.73E2,1.42E2,1.77E2,2.2E1,1.52E2,6.9E1,1.35E2,3.6E1,1.4E2,3E0,4.9E1,3.6E1,2E0,2.02E2,1.64E2,1.75E2,3.52E2,1.69E2,1.6E2,1.28E2,4.5E1,1.11E2,3.1E1,1.08E2,6.9E1,1.5E1,7E0,8.3E1,6.9E1,2E1,4.9E1,1.24E2,1.1E1,2.5E1,1.1E1,3E0,1.37E2,3E0,4.6E1,1.76E2,2.6E1,1E2,6.4E1,1.69E2,6E0,3.14E2,3.8E1,2.6E1,1.43E2,2.6E1,1.34E2,7.1E1,5.7E1,4.1E1,4E0,1.09E2,2E0,2.9E1,2E0,1.5E1,9.3E1,1E1,5E0,2E0,5E0,8E0,7.5E1,6.2E1,7E0,1.7E1,3E0,4.4E1,5E0,1.11E2,1.3E1,5E0,2E1,7E0,4E0,7.9E1,5.8E1,2E0,4.4E1,9.7E1,7.9E1,7E0,1.9E1,9.8E1,2E0,1.3E1,5.1E1,9E1,7.9E1,3E0,3E0,2.99E2,1.5E1,3E0,3.5E1,2.4E1,2E0,1.8E1,8E0,1.25E2,9E0,6.2E1,9E0,4.2E1,1.5E1,3.9E1,2E0,1.1E1,9.8E1,2E0,2.7E1,1.6E1,7.7E1,6E0,4E0,2E0,3E0,6E0,2E0,9E0,6.6E1,4E0,3E0,1.2E1,5E0,3E0,2E0,2.2E1,8.9E1,2E0,3E0,1.7E1,3E0,3E0,4E0,2E0,2E0,6E0,7.3E1,2E0,5.6E1,9.1E1,6E0,4.3E1,3.6E1,6E0,9.2E1,7.5E1,1.5E1,2.06E2,9.3E1,2E0,1.3E1,1.3E1,1.1E1,1.1E1,7E0,6E0,2E0,1.12E2,1.3E1,7E0,2E0,2E0,6E1,6E0,3E0,2.1E1,2.1E1,7E0,4E0,7.7E1,2.1E1,3E0,2.4E1,5E0,7.2E1,2E0,2E0,3E0,3E0,2E0,3E0,1.9E1,3E0,1.3E1,7.8E1,2E0,4E0,1.2E1,3.1E1,1.5E1,2.1E1,2E0,4E0,6.6E1,9E0,1.2E1,3E0,2.04E2,2E0,8E1,1.3E1,4E0,9E0,1E1,3E0,6E0,5E0,9.6E1,1.6E1,2E0,1.1E1,1.9E1,2E0,4E0,1.7E1,7.4E1,3E0,3E0,1.8E1,2E0,1.7E1,7E0,6E0,6.6E1,1.2E1,1E1,5E0,1.8E1,3E0,3E0,6E0,8E1,1.24E2,3E0,7.7E1,2E0,8E0,2E0,9.4E1,2E0,9E0,5E0,6.9E1,6E0,1.2E1,4.5E1,2.1E1,2E0,1E1,7.8E1,2E0,1.16E2,8E0,1.9E1,7.5E1,2E0,3E0,4E0,2E0,1E1,2E0],"tree_param":{"num_deleted":"30","num_feature":"13","num_nodes":"285","size_leaf_vector":"0"}},{"base_weights":[1.6782169E0,1.0518874E0,4.1733665E0,7.929885E-1,1.7238078E0,3.7603674E0,5.5020776E0,6.4882255E-1,1.0649446E0,1.4834573E0,2.2028804E0,3.6438825E0,5.5817137E0,4.1602445E0,6.437092E0,5.008481E-1,7.509207E-1,9.4795436E-1,1.1986694E0,8.681947E-1,1.5278407E0,1.9204757E0,2.4538338E0,3.027285E0,3.8938093E0,6.7955256E0,4.2062116E0,1.9985565E0,4.6078506E0,6.5349703E0,2.3012035E0,4.5913234E-1,6.264613E-1,6.467E-1,8.179228E-1,7.724258E-1,1.0124415E0,1.6326355E0,1.1384941E0,1.2760739E0,6.160221E-1,1.4563792E0,1.8097913E0,1.9796586E0,5.657822E-1,2.111037E0,2.8493288E0,3.2333834E0,1.7823477E0,2.6354008E0,3.9831662E0,3.34257E0,1.2447319E0,7.7609673E0,4.1295085E0,6.6154695E0,2.7734935E0,3.2057223E-1,5.046692E-1,3.892611E-1,6.583722E-1,5.8199525E-1,7.305261E-1,8.341692E-1,4.601513E-1,8.5979223E-1,5.4511636E-1,1.0430955E0,5.289867E-1,1.171263E0,7.548379E-1,7.0884323E-1,1.5880897E0,1.8990135E-1,6.885862E-1,1.3764821E0,1.6687783E0,1.597274E0,2.123583E0,5.6298447E-1,2.02633E0,8.439204E-1,9.904989E-2,2.7964714E0,1.8029548E0,3.0831535E0,1.9951081E0,1.05065E0,3.3248153E0,1.921403E0,4.9295554E-1,2.906973E0,8.902626E-1,3.5147302E0,4.209353E0,-3.357849E-1,1.827535E0,1.7000479E0,4.466517E0,5.8220305E0,7.685252E0,3.47345E-1,2.0515853E-1,1.01114035E-1,5.1005536E-1,4.936343E-1,7.0382714E-1,6.16756E-1,3.7040168E-1,6.914186E-1,1.1497587E0,7.469579E-1,9.40828E-1,3.616322E-1,7.6652336E-1,3.927908E-1,9.020143E-1,2.4596357E-1,6.6062295E-1,9.555328E-1,1.216741E0,-1.800232E-1,6.7426336E-1,1.0609096E0,1.2672161E0,8.200152E-1,1.5561295E-1,8.4753686E-1,3.0890402E-1,2.0827203E0,1.332067E0,1.7391828E0,1.0139948E0,1.6812483E0,8.272152E-1,2.3431797E0,1.1474622E0,2.0819225E0,1.0029665E0,1.8435194E0,7.151947E-1,1.3466009E0,4.044825E-1,2.545253E0,3.5603817E0,1.0926163E0,2.1234512E0,3.1454027E0,1.4053326E0,5.0389132E0,3.015536E0,5.969599E0,4.064052E0,2.2142944E0,7.026774E-1,2.1096916E0,5.8717346E-1,4.682163E0,1.8403664E0,6.655376E0,3.9180539E0,1.396183E-1,3.6038816E-1,9.134722E-2,2.4858665E-1,2.402544E-1,5.169481E-1,5.431937E-1,2.3631744E-1,8.041017E-1,6.149581E-1,5.554368E-1,7.583016E-1,2.256879E-1,5.592613E-1,7.0609957E-1,2.2494507E-1,7.597319E-1,2.6905218E-1,9.5017165E-1,2.2232755E-1,3.8866076E-1,1.3297398E-1,2.1514559E-1,4.987208E-1,9.217601E-1,3.1173834E-1,3.4324232E-1,-3.0581793E-2,7.2251415E-1,1.515897E-1,9.806258E-1,-3.4160614E-1,1.2488301E0,2.5494894E-1,2.7341715E-1,7.329606E-1,1.080737E0,1.3888867E-1,1.2818196E0,4.213066E-1,8.966694E-1,4.7204208E-1,7.509476E-1,1.3568135E0,1.7824553E0,6.877537E-1,1.72318E0,6.4560574E-1,3.1148657E-1,1.0072079E0,1.426948E0,2.1856766E0,2.357076E-1,1.3276691E0,2.881136E0,7.598465E-1,3.1654422E0,4.5868297E0,1.7631963E0,5.783081E-2,1.9395828E0,5.3051057E0,6.320521E-1,3.0844514E0,2.8724995E0,4.2188473E0,4.884523E0,2.246872E0,3.5170555E-2,1.9752662E-1,3.744976E-1,1.5003815E-1,1.1915636E-1,2.3819288E-2,8.163524E-2,3.0098903E-1,3.4424844E-1,1.2980708E-1,4.3185726E-1,5.4026455E-1,3.4544426E-1,6.2729895E-1,4.0767956E-1,8.630022E-1,5.7248545E-1,-5.592537E-2,3.2054377E-1,7.964836E-1,4.013095E-1,1.3287048E-1,7.631329E-1,5.6588095E-1,8.380909E-1,6.770945E-1,9.106947E-1,1.2624704E0,3.5292116E-1,9.4044477E-1,3.5986137E-1,9.9380505E-1,1.2930173E0,5.748665E-1,1.122409E0,8.086623E-1,1.3074654E0,8.019442E-1,9.7802687E-1,-1.0491308E-1,1.367094E0,2.9113898E-1,9.060562E-1,1.8315033E0,1.8254068E0,4.2433244E-1,2.3393996E0,1.4915259E0,1.154363E0,3.0163822E0,-2.698644E-1,1.5362753E0,3.308962E0,7.5948334E-1,3.6957202E0,2.57428E0,1.8648942E0,3.592855E0,4.3379507E0,3.0959249E0,2.8095907E-1,4.038856E-1,5.2485466E-2,1.9757812E-1,4.5012838E-1,7.74765E-3,3.3381844E-1,5.508492E-1,1.6032791E-1,4.4419956E-1,5.967659E-1,2.9454112E-1,2.9864311E-2,1.7274965E-1,5.516992E-1,8.376393E-1,3.0625173E-1,6.5908E-1,7.230336E-1,9.618282E-1,6.957725E-1,4.6556455E-1,1.0416484E0,8.228966E-1,1.0123578E0,4.9112955E-1,7.4437857E-1,1.3685317E0,8.9983547E-1,1.2216537E0,1.1049505E0,3.9817047E-1,1.5350208E0,1.2881935E0,7.7748746E-1,1.8575923E0,2.0369575E0,2.8358765E0,2.8773752E-1,1.6681792E0,4.274843E0,2.9108574E0,3.8825798E0,1.7440624E0,1.3355227E0,2.8272378E0,2.1291838E0,5.384903E-1,1.7604929E0,4.3705897E0,8.68557E-1,3.580387E0,3.8894442E-1,1.0198375E-1,4.994413E-1,3.2645154E-1,2.865281E-1,6.066764E-1,1.2635708E-2,4.6115723E-1,1.578741E-1,6.248136E-1,3.6565876E-1,1.4057827E-1,7.6527494E-1,4.26728E-1,9.9879164E-1,4.1642284E-1,5.7872236E-1,7.508477E-1,7.550945E-1,1.1638281E0,8.504711E-1,5.5585766E-1,1.0274686E0,4.9255905E-1,4.8480606E-1,1.4014201E0,1.1607679E0,1.5302726E0,2.2006736E0,6.472694E-1,1.345549E0,3.069428E0,4.132014E0,2.2081008E0,8.735199E-1,1.814354E0,2.9968863E0,1.0177135E0,4.031772E0,1.6696739E0],"categories":[],"categories_nodes":[],"categories_segments":[],"categories_sizes":[],"default_left":[1,1,1,1,1,1,1,1,1,1,1,1,1,1,1,1,1,1,1,1,1,1,1,1,1,0,0,1,1,1,0,1,1,1,1,1,1,0,1,1,1,1,1,1,1,1,1,1,1,1,1,0,1,0,1,1,0,1,1,0,1,1,1,1,1,1,1,1,1,1,1,0,0,0,1,1,1,1,1,0,1,0,0,0,1,0,0,1,1,1,0,1,0,1,1,0,1,1,1,1,0,1,1,0,1,1,1,1,1,1,0,1,1,1,0,1,1,1,1,1,1,0,1,1,1,1,0,0,0,0,1,1,0,1,1,0,0,1,1,0,0,0,0,1,1,1,0,0,0,1,1,0,1,0,0,0,0,1,0,0,0,1,1,1,1,1,1,1,0,1,0,1,1,1,0,1,0,1,0,1,0,1,1,1,1,1,0,0,0,0,0,1,0,1,0,1,1,1,0,1,0,1,1,1,1,1,0,0,0,0,0,1,1,0,0,1,1,1,0,0,0,0,0,0,1,1,1,0,0,1,1,1,1,1,1,1,1,1,1,1,1,1,1,0,0,1,0,0,0,0,1,1,1,1,1,1,0,0,0,0,1,1,0,1,0,1,1,1,0,1,0,0,1,0,0,1,1,0,0,0,0,1,0,1,1,1,0,1,1,1,0,1,1,1,0,0,0,1,1,1,1,1,1,1,0,1,0,1,1,1,1,1,1,1,0,0,1,0,0,0,0,0,1,1,1,1,0,0,0,0,1,1,0,1,1,0,0,0,0,0,1,0,0,0,0,1,1,0,0,0,0,1,1,0,0,0,0,1,1,0,0,1,1,0,0,0,0,0,0,0,0,0,0,1,1,0,0,0,0,0,0],"id":16,"left_children":[1,3,5,7,9,11,13,15,17,19,21,23,25,27,29,31,33,35,37,39,41,43,45,47,49,-1,-1,51,53,55,-1,57,59,61,63,65,67,-1,69,71,73,75,77,79,81,83,85,87,89,91,93,-1,95,-1,97,99,-1,101,103,-1,105,107,109,111,113,115,117,119,121,123,125,-1,-1,-1,127,129,131,133,135,-1,137,-1,-1,-1,139,-1,-1,141,143,145,-1,147,-1,149,151,-1,153,155,157,159,-1,161,-1,-1,165,167,169,171,173,175,-1,177,179,-1,-1,-1,185,187,189,191,193,-1,-1,197,199,-1,-1,-1,-1,-1,203,205,-1,207,209,-1,-1,211,213,-1,-1,-1,-1,215,217,219,-1,-1,-1,221,223,-1,225,-1,-1,-1,-1,227,-1,-1,-1,-1,231,-1,-1,-1,239,-1,-1,243,-1,245,247,249,-1,251,-1,253,-1,255,-1,-1,-1,-1,-1,257,-1,-1,-1,-1,-1,259,-1,261,-1,-1,-1,263,-1,-1,-1,-1,-1,267,269,271,-1,-1,-1,-1,-1,273,275,-1,-1,277,279,281,-1,-1,-1,-1,-1,-1,283,285,287,-1,-1,-1,-1,289,-1,-1,-1,-1,-1,-1,-1,293,295,-1,-1,-1,-1,299,-1,-1,-1,-1,-1,303,305,307,-1,311,-1,-1,-1,-1,313,315,-1,317,-1,-1,-1,319,-1,321,-1,-1,-1,-1,-1,325,327,-1,-1,-1,-1,329,-1,331,333,335,-1,337,339,341,-1,-1,-1,343,-1,-1,-1,-1,-1,-1,347,-1,-1,349,-1,-1,-1,353,355,-1,-1,359,-1,363,-1,-1,365,-1,-1,-1,-1,-1,367,-1,-1,369,-1,-1,-1,-1,371,-1,-1,375,377,-1,-1,-1,-1,-1,379,-1,-1,-1,-1,-1,-1,-1,-1,-1,-1,-1,-1,-1,-1,-1,-1,-1,-1,-1,-1,-1,-1,-1,-1,-1,-1,-1,-1,-1,-1,-1,-1,-1,-1,-1,-1,-1,-1,-1,-1],"loss_changes":[3.6822212E3,3.268943E2,2.3887207E2,5.278711E1,5.7068237E1,5.688672E1,1.1122974E2,1.3130402E1,6.2323E0,8.285767E0,7.5480957E0,4.1378418E1,4.8085327E0,3.7234985E1,1.0465088E1,1.6407166E0,3.1510925E0,2.1157227E0,3.7818909E0,1.8881645E0,3.9528809E0,5.7749634E0,5.9154663E0,2.0921265E1,1.6714844E1,0E0,0E0,5.9709015E0,2.677356E1,1.22802734E-1,0E0,1.6049042E0,4.173851E-1,7.192917E-1,1.458725E0,9.8103714E-1,2.175064E0,0E0,1.5422821E0,4.6715832E-1,4.258151E-1,2.21698E0,7.425995E-1,4.280884E0,5.6549E-1,5.727768E0,1.4388428E0,1.4069092E1,2.1008797E0,6.4167175E0,8.938965E0,0E0,7.9826994E0,0E0,2.1881653E1,5.3356934E0,0E0,1.5121508E-1,4.0271378E-1,0E0,2.2915268E-1,6.8358994E-1,6.478081E-1,2.1063995E0,2.057364E-1,6.5130234E-1,6.322551E-1,1.452591E0,1.4604168E0,5.192108E-1,5.7540035E-1,0E0,0E0,0E0,6.434536E-1,3.4678345E0,1.3712616E0,1.2605209E0,2.0270538E0,0E0,2.406311E0,0E0,0E0,0E0,3.5825348E-1,0E0,0E0,4.1149282E-1,6.3635254E0,1.917038E-1,0E0,1.3082428E0,0E0,4.4913147E1,1.3081055E1,0E0,1.0543613E0,1.4965382E0,8.938965E0,3.4217285E1,0E0,1.04120255E-1,5.6374073E-2,0E0,2.5889206E-1,1.2668276E-1,2.2367477E-2,4.9015808E-1,4.2039323E-1,4.095726E-1,0E0,8.395004E-1,6.749191E-1,3.4842372E-2,0E0,5.610168E-3,2.4880219E-1,2.2571284E-1,3.9454937E-1,4.208336E0,1.3482208E0,0E0,5.8410168E-2,1.4586487E0,5.594177E-1,3.5114288E-3,0E0,0E0,0E0,0E0,1.71344E0,1.5039825E0,0E0,4.5085144E-1,2.4323225E-1,0E0,0E0,1.9099121E0,1.1818438E0,0E0,0E0,0E0,0E0,1.1603607E1,1.0614563E1,3.367566E0,0E0,0E0,0E0,4.5606384E0,8.234497E0,0E0,1.3334961E1,0E0,0E0,0E0,0E0,2.8236694E0,0E0,0E0,0E0,2.3294844E-2,1.01110935E-1,8.42914E-3,7.16638E-2,3.5715163E-2,1.6348648E-1,4.9411774E-2,0E0,2.0855808E-1,0E0,8.3457947E-1,2.2941208E-1,1.5858746E-1,0E0,2.079277E-1,0E0,5.074463E-1,0E0,4.5298767E-1,0E0,0E0,0E0,0E0,0E0,1.3575745E-1,0E0,0E0,0E0,0E0,0E0,5.995636E-1,0E0,8.052826E-1,0E0,0E0,0E0,6.74057E-2,0E0,2.217102E-2,0E0,0E0,0E0,2.0460901E0,1.5849609E0,7.907257E-1,0E0,0E0,0E0,0E0,0E0,4.418934E0,3.1265564E0,0E0,0E0,9.55246E-1,4.412072E0,1.4061432E1,0E0,0E0,0E0,0E0,0E0,0E0,9.197266E0,7.090561E0,2.6193848E0,0E0,0E0,0E0,0E0,2.1221638E-2,1.2818284E-2,0E0,0E0,0E0,0E0,0E0,0E0,3.6846256E-1,1.5044785E-1,5.6750953E-2,0E0,0E0,0E0,3.3037376E-1,0E0,0E0,0E0,0E0,3.591895E-2,3.88546E-1,4.514799E-1,4.5775223E-1,1.5853882E-2,5.110321E-1,0E0,0E0,0E0,0E0,5.6596375E-1,9.699402E-1,0E0,4.9114227E-1,0E0,0E0,0E0,1.4882183E-1,0E0,3.942566E-1,0E0,0E0,1.3153076E-2,0E0,0E0,1.5810547E0,2.4971485E0,0E0,0E0,0E0,0E0,4.860016E0,0E0,2.3456726E0,7.504883E0,2.3590012E0,0E0,1.2227783E0,1.3076355E1,2.502346E-1,0E0,0E0,0E0,1.1750412E-1,0E0,0E0,0E0,0E0,0E0,3.5245895E-2,3.6993277E-1,0E0,0E0,3.9086103E-1,0E0,3.7175834E-2,0E0,2.4918747E-1,3.0984116E-1,6.18515E-2,0E0,6.6168976E-1,8.6883545E-2,3.5006714E-1,0E0,0E0,5.1221466E-1,0E0,0E0,0E0,0E0,0E0,2.1721191E0,0E0,0E0,6.3110657E0,0E0,0E0,0E0,0E0,4.5573425E0,6.488037E-2,0E0,1.8489742E-1,5.852539E0,0E0,0E0,0E0,0E0,0E0,3.617859E0,0E0,0E0,0E0,0E0,0E0,0E0,0E0,0E0,0E0,0E0,0E0,0E0,0E0,0E0,0E0,0E0,0E0,0E0,0E0,0E0,0E0,0E0,0E0,0E0,0E0,0E0,0E0,0E0,0E0,0E0,0E0,0E0,0E0,0E0,0E0,0E0,0E0,0E0,0E0,0E0],"parents":[2147483647,0,0,1,1,2,2,3,3,4,4,5,5,6,6,7,7,8,8,9,9,10,10,11,11,12,12,13,13,14,14,15,15,16,16,17,17,18,18,19,19,20,20,21,21,22,22,23,23,24,24,27,27,28,28,29,29,31,31,32,32,33,33,34,34,35,35,36,36,38,38,39,39,40,40,41,41,42,42,43,43,44,44,45,45,46,46,47,47,48,48,49,49,50,50,52,52,54,54,55,55,57,57,58,58,60,60,61,61,62,62,63,63,64,64,65,65,66,66,67,67,68,68,69,69,70,70,74,74,75,75,76,76,77,77,78,78,80,80,84,84,87,87,88,88,89,89,91,91,93,93,94,94,96,96,97,97,98,98,99,99,101,101,102,102,104,104,105,105,106,106,107,107,108,108,109,109,111,111,112,112,113,113,115,115,116,116,117,117,118,118,119,119,120,120,122,122,123,123,124,124,125,125,130,130,131,131,133,133,134,134,137,137,138,138,143,143,144,144,145,145,149,149,150,150,152,152,157,157,161,161,162,162,163,163,164,164,165,165,166,166,167,167,169,169,171,171,172,172,173,173,175,175,177,177,179,179,185,185,191,191,193,193,197,197,199,199,203,203,204,204,205,205,211,211,212,212,215,215,216,216,217,217,224,224,225,225,226,226,231,231,232,232,239,239,240,240,241,241,245,245,250,250,251,251,252,252,253,253,254,254,255,255,260,260,261,261,263,263,267,267,269,269,272,272,275,275,276,276,281,281,283,283,284,284,285,285,287,287,288,288,289,289,293,293,299,299,300,300,303,303,305,305,307,307,308,308,309,309,311,311,312,312,313,313,316,316,322,322,325,325,330,330,331,331,333,333,334,334,340,340],"right_children":[2,4,6,8,10,12,14,16,18,20,22,24,26,28,30,32,34,36,38,40,42,44,46,48,50,-1,-1,52,54,56,-1,58,60,62,64,66,68,-1,70,72,74,76,78,80,82,84,86,88,90,92,94,-1,96,-1,98,100,-1,102,104,-1,106,108,110,112,114,116,118,120,122,124,126,-1,-1,-1,128,130,132,134,136,-1,138,-1,-1,-1,140,-1,-1,142,144,146,-1,148,-1,150,152,-1,154,156,158,160,-1,162,-1,-1,166,168,170,172,174,176,-1,178,180,-1,-1,-1,186,188,190,192,194,-1,-1,198,200,-1,-1,-1,-1,-1,204,206,-1,208,210,-1,-1,212,214,-1,-1,-1,-1,216,218,220,-1,-1,-1,222,224,-1,226,-1,-1,-1,-1,228,-1,-1,-1,-1,232,-1,-1,-1,240,-1,-1,244,-1,246,248,250,-1,252,-1,254,-1,256,-1,-1,-1,-1,-1,258,-1,-1,-1,-1,-1,260,-1,262,-1,-1,-1,264,-1,-1,-1,-1,-1,268,270,272,-1,-1,-1,-1,-1,274,276,-1,-1,278,280,282,-1,-1,-1,-1,-1,-1,284,286,288,-1,-1,-1,-1,290,-1,-1,-1,-1,-1,-1,-1,294,296,-1,-1,-1,-1,300,-1,-1,-1,-1,-1,304,306,308,-1,312,-1,-1,-1,-1,314,316,-1,318,-1,-1,-1,320,-1,322,-1,-1,-1,-1,-1,326,328,-1,-1,-1,-1,330,-1,332,334,336,-1,338,340,342,-1,-1,-1,344,-1,-1,-1,-1,-1,-1,348,-1,-1,350,-1,-1,-1,354,356,-1,-1,360,-1,364,-1,-1,366,-1,-1,-1,-1,-1,368,-1,-1,370,-1,-1,-1,-1,372,-1,-1,376,378,-1,-1,-1,-1,-1,380,-1,-1,-1,-1,-1,-1,-1,-1,-1,-1,-1,-1,-1,-1,-1,-1,-1,-1,-1,-1,-1,-1,-1,-1,-1,-1,-1,-1,-1,-1,-1,-1,-1,-1,-1,-1,-1,-1,-1,-1],"split_conditions":[8.934274E1,4.5042503E1,1.4841E2,3.0966251E1,5.925068E1,7.9864914E1,4.49114E1,2.2490881E1,6.8284256E1,-1.812158E0,8.415161E1,1.18382996E2,7.2909E1,-1.892119E0,5.6182976E0,8.504468E1,5.6420433E1,3.200332E1,-2.5216898E-1,-2.4297032E0,9.279994E1,8.265276E1,7.620125E1,1.1912566E2,1.1386926E1,1.3591051E0,8.412423E-1,-3.4878893E0,-2.723225E0,6.3560305E0,4.602407E-1,1.5982267E1,1.5961428E1,8.925262E-2,2.9457125E1,3.17635E1,4.3148415E1,3.265271E-1,9.760484E-1,6.110567E0,2.625409E1,5.4226997E1,5.0307945E1,1.1189898E1,7.701889E1,5.9269997E1,7.941468E1,2.9127146E1,6.2745007E1,1.51414E2,1.3001868E2,6.68514E-1,1.59281E2,1.5521935E0,2.6035282E1,3.4252968E0,5.546987E-1,1.5971268E1,1.124631E0,7.785222E-2,6.3686333E1,2.7922E1,2.8874166E1,2.81525E1,2.9815674E1,1.0777901E1,4.718116E1,4.0323082E1,4.3065334E1,8.752648E1,3.7845478E1,1.4176865E-1,3.1761795E-1,3.798027E-2,-2.172779E0,-1.0142603E0,5.5774498E1,4.9249863E1,5.6348053E1,1.1259689E-1,8.741629E1,1.6878408E-1,1.9809978E-2,5.592943E-1,9.815587E1,6.1663073E-1,3.9902163E-1,1.17232666E2,1.0324789E2,1.348984E1,9.859111E-2,1.0693235E1,1.7805253E-1,1.23024E2,1.304745E2,-6.7156985E-2,2.0564066E1,1.65363E2,4.2161842E1,1.7062067E2,1.5370505E0,-4.1131827E-1,4.1031707E-2,2.0222807E-2,-6.6287655E-1,5.093179E-1,9.135651E1,2.7398624E1,2.919675E1,2.9403217E1,2.2995174E-1,2.774E1,8.429908E-1,7.2326444E-2,1.5330468E-1,7.855816E-2,5.5775703E1,1.8426183E-1,3.1974072E1,4.0562218E1,4.3306583E1,-3.600464E-2,1.3485268E-1,9.194391E1,4.33545E1,1.6400304E-1,3.112259E-2,1.6950737E-1,6.1780807E-2,4.1654405E-1,-8.8988256E-1,1.5868363E0,2.0279896E-1,9.9524414E1,7.530664E-1,4.6863595E-1,2.2949246E-1,-2.8991241E0,6.982353E1,3.687039E-1,1.4303894E-1,2.693202E-1,8.0896504E-2,7.329663E1,5.836908E1,3.1854778E1,4.2469025E-1,6.2908053E-1,2.810665E-1,5.427682E1,2.7781658E1,1.1939198E0,1.3833499E2,4.428589E-1,1.4053549E-1,4.2193833E-1,1.17434695E-1,1.74653E2,3.6807328E-1,1.3310752E0,7.8361076E-1,2.7923662E-2,1.5898077E1,1.8269444E-2,4.9717333E-2,4.805088E-2,1.7349495E1,1.0863874E-1,4.726349E-2,1.5878174E1,1.2299162E-1,2.74805E1,2.239812E1,2.8114582E1,1.11852266E-1,4.3662857E1,4.4989016E-2,6.57617E1,5.3810436E-2,9.722273E1,4.446551E-2,7.773215E-2,2.6594797E-2,4.302912E-2,9.974416E-2,3.496441E0,6.234767E-2,6.8648465E-2,-6.1163586E-3,1.4450283E-1,3.0317942E-2,2.3731897E1,-6.832123E-2,6.383676E1,5.0989788E-2,5.468343E-2,1.4659213E-1,6.7358154E1,2.7777735E-2,2.5636393E-1,8.426132E-2,1.7933388E-1,9.4408415E-2,3.2149235E1,5.468029E1,1.8844513E-2,1.3755074E-1,3.4463602E-1,1.2912115E-1,6.2297314E-2,2.0144157E-1,4.952198E1,7.912317E1,4.714152E-2,2.6553383E-1,3.9242447E1,7.455357E1,5.6009323E1,9.1736597E-1,3.526393E-1,1.1566162E-2,3.8791656E-1,1.0610212E0,1.2641042E-1,4.8923134E1,3.7018974E1,3.4318695E0,9.769046E-1,4.493744E-1,7.0341113E-3,3.9505325E-2,-1.850721E-1,3.000763E-2,2.3831272E-2,4.763858E-3,1.6327048E-2,6.0197808E-2,6.884969E-2,2.5961418E-2,1.7764477E1,5.7817564E0,6.9088854E-2,1.2545979E-1,8.153591E-2,1.7260043E-1,-1.207591E-2,-1.1185074E-2,6.410875E-2,1.5929672E-1,8.02619E-2,2.6574096E-2,1.3311003E1,2.5082417E1,2.359375E1,1.354189E-1,2.7925E1,2.5249407E-1,7.058423E-2,1.8808895E-1,7.197227E-2,6.6046214E-1,1.4235549E1,1.149733E-1,2.8298888E-1,1.6173247E-1,2.614931E-1,1.6038884E-1,-1.1297684E0,-2.0982616E-2,2.970937E-1,5.8227796E-2,1.8121125E-1,3.6630067E-1,3.6508137E-1,8.486649E-2,8.132875E1,7.931517E1,2.3087262E-1,6.0327643E-1,-5.397288E-2,3.0725506E-1,-3.4252805E-1,1.5189667E-1,1.26217E2,4.6961815E1,4.064618E1,7.18571E-1,2.9976673E1,2.8087258E0,-2.6224387E-1,8.077712E-2,1.0497093E-2,3.9515626E-2,1.7127548E1,1.5495301E-3,6.676369E-2,1.1016984E-1,3.206558E-2,8.883991E-2,1.19353175E-1,2.4223751E1,5.9728622E-3,3.4549933E-2,2.65985E1,1.6752785E-1,6.1250348E-2,1.3181601E-1,2.450475E1,2.75685E1,1.3915451E-1,9.311291E-2,2.6166248E1,1.6457932E-1,6.601286E1,9.8225914E-2,1.4887571E-1,2.2729498E1,1.7996709E-1,2.4433075E-1,2.209901E-1,7.963409E-2,3.0700418E-1,6.266195E1,1.5549749E-1,3.7151846E-1,7.660625E1,5.671753E-1,5.7547506E-2,3.3363584E-1,8.5496867E-1,1.13360504E2,7.7651596E-1,3.488125E-1,1.22283E2,1.316725E2,4.2583677E-1,1.0769806E-1,3.5209858E-1,8.74118E-1,1.737114E-1,8.141949E1,7.778888E-2,2.039675E-2,9.988826E-2,6.529031E-2,5.7305623E-2,1.2133528E-1,2.5271417E-3,9.2231445E-2,3.1574823E-2,1.24962725E-1,7.3131755E-2,2.8115654E-2,1.53055E-1,8.53456E-2,1.9975834E-1,8.328457E-2,1.1574447E-1,1.5016954E-1,1.510189E-1,2.3276563E-1,1.7009422E-1,1.11171536E-1,2.0549372E-1,9.851181E-2,9.6961215E-2,2.8028402E-1,2.3215358E-1,3.0605453E-1,4.4013473E-1,1.2945388E-1,2.6910982E-1,6.138856E-1,8.264028E-1,4.4162017E-1,1.7470399E-1,3.6287078E-1,5.993773E-1,2.0354271E-1,8.0635446E-1,3.3393478E-1],"split_indices":[0,8,9,8,0,5,5,4,10,6,10,4,12,7,7,10,10,0,7,6,10,10,8,3,10,0,0,6,6,6,0,4,8,7,2,1,0,0,7,11,5,1,0,11,0,9,0,5,5,2,3,0,1,0,5,7,0,2,10,0,5,1,4,8,0,11,5,3,3,10,0,0,0,0,6,7,4,0,0,0,11,0,0,0,11,0,0,3,0,11,0,10,0,4,2,0,10,1,12,0,0,6,6,0,6,6,11,2,3,0,0,1,7,1,0,0,5,6,0,0,3,0,5,11,4,5,0,0,0,0,6,7,0,10,7,0,0,6,0,0,0,0,0,5,12,12,0,0,0,5,5,0,8,0,0,0,0,4,0,0,0,0,4,2147483647,2147483647,10,4,4,0,0,0,1,5,4,0,11,0,12,0,10,0,2147483647,2147483647,2147483647,2147483647,10,0,0,0,0,0,5,0,5,0,2147483647,2147483647,12,0,5,0,2147483647,2147483647,5,0,7,0,0,0,0,0,12,4,0,0,11,5,12,0,0,0,0,0,0,5,10,6,0,0,2147483647,2147483647,7,4,2147483647,2147483647,2147483647,2147483647,2147483647,2147483647,3,10,2147483647,2147483647,0,0,7,0,0,0,0,4,11,3,9,7,4,0,0,0,0,6,11,0,6,0,2147483647,2147483647,6,0,7,0,0,10,0,0,8,4,0,0,0,0,6,0,1,12,5,0,5,7,7,0,2147483647,2147483647,4,0,0,0,2147483647,2147483647,10,9,2147483647,2147483647,1,0,0,0,1,1,2147483647,2147483647,9,12,5,0,0,5,0,0,0,0,0,12,2147483647,2147483647,4,0,0,0,0,2,4,0,3,2,0,0,0,0,0,11,0,0,0,0,2147483647,2147483647,0,0,0,0,2147483647,2147483647,0,0,0,0,2147483647,2147483647,0,0,2147483647,2147483647,0,0,0,0,0,0,0,0,0,0,2147483647,2147483647,0,0,0,0,0,0],"split_type":[0,0,0,0,0,0,0,0,0,0,0,0,0,0,0,0,0,0,0,0,0,0,0,0,0,0,0,0,0,0,0,0,0,0,0,0,0,0,0,0,0,0,0,0,0,0,0,0,0,0,0,0,0,0,0,0,0,0,0,0,0,0,0,0,0,0,0,0,0,0,0,0,0,0,0,0,0,0,0,0,0,0,0,0,0,0,0,0,0,0,0,0,0,0,0,0,0,0,0,0,0,0,0,0,0,0,0,0,0,0,0,0,0,0,0,0,0,0,0,0,0,0,0,0,0,0,0,0,0,0,0,0,0,0,0,0,0,0,0,0,0,0,0,0,0,0,0,0,0,0,0,0,0,0,0,0,0,0,0,0,0,0,0,0,0,0,0,0,0,0,0,0,0,0,0,0,0,0,0,0,0,0,0,0,0,0,0,0,0,0,0,0,0,0,0,0,0,0,0,0,0,0,0,0,0,0,0,0,0,0,0,0,0,0,0,0,0,0,0,0,0,0,0,0,0,0,0,0,0,0,0,0,0,0,0,0,0,0,0,0,0,0,0,0,0,0,0,0,0,0,0,0,0,0,0,0,0,0,0,0,0,0,0,0,0,0,0,0,0,0,0,0,0,0,0,0,0,0,0,0,0,0,0,0,0,0,0,0,0,0,0,0,0,0,0,0,0,0,0,0,0,0,0,0,0,0,0,0,0,0,0,0,0,0,0,0,0,0,0,0,0,0,0,0,0,0,0,0,0,0,0,0,0,0,0,0,0,0,0,0,0,0,0,0,0,0,0,0,0,0,0,0,0,0,0,0,0,0,0,0,0,0,0,0,0,0,0,0,0,0,0,0,0,0,0,0,0,0,0,0,0],"sum_hessian":[2.358E3,1.886E3,4.72E2,1.363E3,5.23E2,3.63E2,1.09E2,8.93E2,4.7E2,3.51E2,1.72E2,3.44E2,1.9E1,4.7E1,6.2E1,3.67E2,5.26E2,2.55E2,2.15E2,2.5E1,3.26E2,8.5E1,8.7E1,1.03E2,2.41E2,8E0,1.1E1,9E0,3.8E1,6E1,2E0,2.79E2,8.8E1,2.1E2,3.16E2,7.2E1,1.83E2,2.3E1,1.92E2,8E0,1.7E1,2.65E2,6.1E1,8.1E1,4E0,5E1,3.7E1,8.7E1,1.6E1,1.8E1,2.23E2,2E0,7E0,3E0,3.5E1,5.8E1,2E0,7.1E1,2.08E2,1.2E1,7.6E1,1.23E2,8.7E1,3.01E2,1.5E1,5E1,2.2E1,1.71E2,1.2E1,1.75E2,1.7E1,4E0,4E0,3E0,1.4E1,1.98E2,6.7E1,4E1,2.1E1,3E0,7.8E1,2E0,2E0,1.3E1,3.7E1,2.7E1,1E1,4E0,8.3E1,1.4E1,2E0,1.5E1,3E0,7.8E1,1.45E2,2E0,5E0,5E0,3E1,3.7E1,2.1E1,5.6E1,1.5E1,3E0,2.05E2,1.9E1,5.7E1,1.04E2,1.9E1,8.2E1,5E0,1.7E2,1.31E2,1.3E1,2E0,5E0,4.5E1,7E0,1.5E1,1.18E2,5.3E1,2E0,1E1,8.7E1,8.8E1,1.5E1,2E0,9E0,5E0,9E0,1.89E2,5.9E1,8E0,3.5E1,5E0,1.6E1,5E0,7.3E1,5E0,3.5E1,2E0,2E0,2E0,2.2E1,6.1E1,4E0,1E1,1.2E1,3E0,1.7E1,6.1E1,8E0,1.37E2,3E0,2E0,3E0,2E0,2.7E1,3E0,2.4E1,1.3E1,4E0,5.2E1,5E0,1E1,6E0,1.99E2,1.5E1,4E0,2.3E1,3.4E1,7.6E1,2.8E1,1.2E1,7E0,7.9E1,3E0,1.65E2,5E0,1.29E2,2E0,1.1E1,2E0,3E0,2E0,4.3E1,2E0,5E0,2E0,1.3E1,2E0,1.16E2,2E0,5.1E1,2E0,2E0,8E0,8.5E1,2E0,8.6E1,2E0,1.1E1,4E0,9E0,1.8E2,5.6E1,3E0,3.3E1,2E0,2E0,3E0,1.2E1,6.1E1,2E0,3E0,1.8E1,4E0,4.7E1,1.4E1,2E0,2E0,2E0,1.5E1,2E0,5.9E1,1.8E1,1.19E2,2.4E1,3E0,2E0,2E0,4.8E1,4E0,3E0,2E0,3E0,7E0,2E0,4E0,4.7E1,1.52E2,6E0,9E0,4E0,1.9E1,7.4E1,2E0,3E0,2.5E1,3E0,9E0,5.3E1,2.6E1,8E1,8.5E1,1.18E2,1.1E1,2E0,4.1E1,3E0,1.13E2,4.7E1,4E0,7.1E1,1.4E1,8E1,6E0,7E0,2E0,1.78E2,2E0,4E0,5.2E1,8E0,4E0,4.8E1,1.3E1,2E0,1.6E1,2E0,2E0,4.4E1,3E0,2.4E1,3.5E1,9E0,9E0,1.05E2,1.4E1,1.4E1,3.4E1,2E0,2E0,4.5E1,2E0,9E0,1.43E2,3E0,3E0,6.7E1,7E0,3E0,6E0,1.6E1,3.7E1,8E0,1.8E1,4.5E1,3.5E1,7.6E1,9E0,4.3E1,7.5E1,1.08E2,5E0,7E0,4E1,2.5E1,4.6E1,5E0,2E0,5.1E1,1.27E2,2E0,5E1,3.3E1,1.5E1,2E0,1.1E1,1E1,3.4E1,2.1E1,3E0,7E0,2.8E1,7E0,2E0,2E0,1.03E2,3E0,1.1E1,8E0,6E0,3E1,1.5E1,3E0,6.4E1,3E0,4E0,3E0,1.3E1,5E0,3E0,3.8E1,7E0,3.2E1,3E0,2.8E1,4.8E1,1.5E1,2.8E1,6.6E1,9E0,1.04E2,4E0,2E0,3.8E1,8.7E1,4E1,2.9E1,4E0,4E0,3E1,1.7E1,4E0,5E0,2E0,2.5E1,3E0,8E0,3E0],"tree_param":{"num_deleted":"42","num_feature":"13","num_nodes":"381","size_leaf_vector":"0"}},{"base_weights":[1.3613721E0,8.518691E-1,3.4019022E0,6.162921E-1,1.3447982E0,3.0618107E0,4.4901857E0,4.7428468E-1,7.6435703E-1,1.1774298E0,1.8413593E0,2.8564765E0,3.8631604E0,3.433838E0,5.2237496E0,3.7703294E-1,5.421895E-1,7.04867E-1,9.0310824E-1,1.1018761E0,1.5016054E0,1.5895375E0,2.0921042E0,2.407693E0,3.0673704E0,1.834497E0,4.165654E0,1.7173202E0,3.7859235E0,5.2969356E0,1.9943796E0,3.4656706E-1,5.0923276E-1,5.14431E-1,6.7805696E-1,6.6877526E-1,9.113749E-1,6.5128326E-1,9.498749E-1,9.383068E-1,1.1835042E0,1.3273146E0,1.7188768E0,1.640938E0,4.903427E-1,2.2152913E0,1.414723E0,