{"learner":{"attributes":{"best_iteration":"99","best_ntree_limit":"100","scikit_learn":"{\"n_estimators\": 100, \"objective\": \"reg:squarederror\", \"max_depth\": 11, \"max_leaves\": null, \"max_bin\": null, \"grow_policy\": null, \"learning_rate\": 0.05, \"verbosity\": null, \"booster\": null, \"tree_method\": null, \"gamma\": 0.005, \"min_child_weight\": 3, \"max_delta_step\": null, \"subsample\": 0.8, \"sampling_method\": null, \"colsample_bytree\": 1, \"colsample_bylevel\": 1, \"colsample_bynode\": null, \"reg_alpha\": null, \"reg_lambda\": null, \"scale_pos_weight\": null, \"base_score\": null, \"missing\": NaN, \"num_parallel_tree\": null, \"random_state\": 42, \"n_jobs\": null, \"monotone_constraints\": null, \"interaction_constraints\": null, \"importance_type\": null, \"gpu_id\": null, \"validate_parameters\": null, \"predictor\": null, \"enable_categorical\": false, \"max_cat_to_onehot\": null, \"eval_metric\": null, \"early_stopping_rounds\": null, \"callbacks\": null, \"evals_result_\": {\"validation_0\": {\"rmse\": [273592.4505693759, 260006.5249851562, 247099.7259578978, 234830.43365396713, 223177.0014722489, 212098.1877105829, 201575.67191471218, 191571.9383929447, 182079.7942707427, 173054.21986991653, 164474.1139146734, 156324.5874326334, 148579.80491856448, 141219.68099809746, 134215.5038808413, 127565.14001534613, 121257.22395296836, 115264.58695401372, 109551.53962120951, 104134.67891107069, 98979.96600500096, 94093.45152806757, 89437.9774174588, 85011.01522950508, 80804.64210986778, 76806.98310615632, 73014.04896669272, 69413.4690548528, 65989.3346312016, 62744.38302288752, 59654.23755492599, 56720.66605623206, 53929.24669797795, 51276.74779793298, 48757.935748723765, 46367.11512543272, 44093.30691507929, 41938.04933638184, 39886.5265566354, 37935.439117776456, 36079.20270166438, 34320.085422009746, 32653.704001698403, 31062.416220668878, 29551.695733332068, 28118.387639303935, 26753.70515437883, 25458.961959671604, 24229.010217072966, 23060.696592436878, 21948.47723712572, 20894.927190816074, 19893.014346785716, 18941.52961376395, 18041.85747928041, 17184.322554352915, 16373.368531850176, 15604.734626237994, 14870.76686254288, 14175.090061341902, 13514.037741257966, 12885.90443864699, 12289.762211254885, 11726.004846276426, 11190.262756977892, 10684.081367565592, 10199.517473058679, 9740.187641879596, 9309.725498432514, 8897.037785671018, 8507.79105365559, 8139.844319405334, 7787.439076053761, 7454.740806413175, 7138.851381567516, 6837.4975838011505, 6549.878182798034, 6277.571658021304, 6024.023850454681, 5776.718500394472, 5545.6081517442, 5325.512716104642, 5112.859303797796, 4914.392717162503, 4722.47279082821, 4542.696225831059, 4370.31925274071, 4208.954133790214, 4053.7139780468606, 3906.445884405649, 3766.00633606515, 3628.4576585121536, 3500.9937671635894, 3380.8796137934482, 3265.2957535955243, 3159.1659500474852, 3057.6041278718776, 2958.2153278129413, 2862.346100282686, 2773.1284735472636]}, \"validation_1\": {\"rmse\": [414244.0786552093, 393187.84358197695, 373083.31355082674, 354109.70283123537, 335829.15757444483, 318595.1295223372, 302225.2059973308, 286653.977536816, 271357.69372117944, 256805.49714948382, 243029.3968678182, 230295.8500084115, 218586.66743274813, 207538.08919592752, 196896.90399964436, 186782.91105918103, 176627.69246510693, 167295.70318605355, 158667.96243728598, 150621.73518860352, 142816.53041035417, 135417.13590141365, 128369.9155751619, 121698.45545604553, 114865.29331688573, 108963.26575561616, 103240.84273068453, 97859.96061522252, 92634.1030046919, 87698.567259419, 83062.17649680928, 78596.86465059039, 74546.77629861757, 70643.02757549578, 67026.74723884006, 63650.37417217643, 60395.3880865835, 57396.218634578945, 54206.057438104785, 51513.41863996027, 48930.31501929143, 46537.80425786407, 44137.74493386329, 41972.79947415445, 39901.12954528249, 37911.45221306124, 36049.8541680588, 34322.86582145466, 32699.13280097018, 31178.28294947333, 29826.14093131793, 28501.95261270524, 27314.638307193865, 26186.392643846666, 25132.958744365293, 24164.927840243876, 23297.53077166015, 22488.503698664317, 21756.697232431896, 21096.720030292443, 20456.55157584149, 19907.27656116379, 19330.25722275244, 18902.877564723858, 18510.826468539624, 18141.9521354867, 17846.000895344965, 17536.038750081356, 17281.617527175942, 17046.214373201965, 16861.558568168668, 16683.963201851395, 16546.499095203966, 16442.610748082363, 16374.653887717453, 16309.499132827767, 16264.80178393292, 16182.94438809095, 16105.455121365885, 16045.528644040802, 16062.463404007827, 16019.469021458746, 15956.010553997172, 15958.719394099164, 15954.977637412885, 15980.05973107011, 15981.454787692152, 15965.19001177611, 16023.12405960833, 16024.786010689746, 16036.616597647697, 16022.471402109015, 16071.014475628084, 16099.164130199648, 16163.41646561697, 16158.061306468964, 16163.525143988421, 16164.313253202055, 16191.240172426888, 16234.214175780604]}}, \"_estimator_type\": \"regressor\"}"},"feature_names":["EMA_9","SMA_5","SMA_10","SMA_15","SMA_30","RSI","MACD","MACD_signal","14-high","14-low","%K","%D","MFI"],"feature_types":["float","float","float","float","float","float","float","float","float","float","float","float","float"],"gradient_booster":{"model":{"gbtree_model_param":{"num_parallel_tree":"1","num_trees":"100","size_leaf_vector":"0"},"tree_info":[0,0,0,0,0,0,0,0,0,0,0,0,0,0,0,0,0,0,0,0,0,0,0,0,0,0,0,0,0,0,0,0,0,0,0,0,0,0,0,0,0,0,0,0,0,0,0,0,0,0,0,0,0,0,0,0,0,0,0,0,0,0,0,0,0,0,0,0,0,0,0,0,0,0,0,0,0,0,0,0,0,0,0,0,0,0,0,0,0,0,0,0,0,0,0,0,0,0,0,0],"trees":[{"base_weights":[2.750242E5,2.0883328E5,3.4771175E5,1.7922688E5,2.3081178E5,3.115081E5,4.4143025E5,1.6608738E5,1.9345202E5,2.148013E5,2.5591856E5,2.985272E5,3.2873562E5,4.1661825E5,4.8152675E5],"categories":[],"categories_nodes":[],"categories_segments":[],"categories_sizes":[],"default_left":[1,1,1,1,1,1,1,0,0,0,0,0,0,0,0],"id":0,"left_children":[1,3,5,7,9,11,13,-1,-1,-1,-1,-1,-1,-1,-1],"loss_changes":[8.977354E12,6.008802E11,2.8991784E12,4.7307555E10,1.7133732E11,4.700137E10,4.5122322E10,0E0,0E0,0E0,0E0,0E0,0E0,0E0,0E0],"parents":[2147483647,0,0,1,1,2,2,3,3,4,4,5,5,6,6],"right_children":[2,4,6,8,10,12,14,-1,-1,-1,-1,-1,-1,-1,-1],"split_conditions":[2.744899E5,2.042084E5,3.6282188E5,1.80557E5,2.3539E5,3.139802E5,4.370391E5,8.304369E3,9.672601E3,1.0740065E4,1.2795929E4,1.4926359E4,1.6436781E4,2.0830912E4,2.4076338E4],"split_indices":[1,1,0,8,8,1,0,0,0,0,0,0,0,0,0],"split_type":[0,0,0,0,0,0,0,0,0,0,0,0,0,0,0],"sum_hessian":[1.88E3,9.86E2,8.94E2,4.24E2,5.62E2,6.48E2,2.46E2,2.27E2,1.97E2,3.49E2,2.13E2,3.8E2,2.68E2,1.59E2,8.7E1],"tree_param":{"num_deleted":"0","num_feature":"13","num_nodes":"15","size_leaf_vector":"0"}},{"base_weights":[2.6196253E5,2.02768E5,3.3553912E5,1.8583419E5,2.4784689E5,2.993451E5,4.1814838E5,1.5962108E5,1.9817714E5,2.8955572E5,3.1575853E5,3.984111E5,4.5994247E5,1.862765E5,2.047279E5],"categories":[],"categories_nodes":[],"categories_segments":[],"categories_sizes":[],"default_left":[1,1,1,1,0,1,1,0,1,0,0,0,0,0,0],"id":1,"left_children":[1,3,5,7,-1,9,11,-1,13,-1,-1,-1,-1,-1,-1],"loss_changes":[8.1722574E12,7.562288E11,2.3923723E12,2.1685181E11,0E0,3.2086426E9,2.6277315E10,0E0,2.2460498E9,0E0,0E0,0E0,0E0,0E0,0E0],"parents":[2147483647,0,0,1,1,2,2,3,3,5,5,6,6,8,8],"right_children":[2,4,6,8,-1,10,12,-1,14,-1,-1,-1,-1,-1,-1],"split_conditions":[2.856182E5,2.32142E5,3.6678453E5,1.8477412E5,1.2392345E4,3.185321E5,4.4118253E5,7.981054E3,2.06402E5,1.4477786E4,1.5787927E4,1.9920555E4,2.2997123E4,9.313825E3,1.02363955E4],"split_indices":[1,8,0,4,0,1,0,0,1,0,0,0,0,0,0],"split_type":[0,0,0,0,0,0,0,0,0,0,0,0,0,0,0],"sum_hessian":[1.891E3,1.05E3,8.41E2,7.67E2,2.83E2,5.88E2,2.53E2,2.5E2,5.17E2,3.8E2,2.08E2,1.79E2,7.4E1,1.94E2,3.23E2],"tree_param":{"num_deleted":"0","num_feature":"13","num_nodes":"15","size_leaf_vector":"0"}},{"base_weights":[2.4764327E5,1.9080514E5,3.1609262E5,1.766216E5,2.333305E5,2.82614E5,3.9903634E5,1.5169478E5,1.8827223E5,2.7107322E5,2.9746878E5,3.7836806E5,4.354465E5,1.3388008E5,1.5656458E5,1.7571078E5,1.9406748E5],"categories":[],"categories_nodes":[],"categories_segments":[],"categories_sizes":[],"default_left":[1,1,1,1,0,1,1,1,1,0,0,0,0,0,0,0,0],"id":2,"left_children":[1,3,5,7,-1,9,11,13,15,-1,-1,-1,-1,-1,-1,-1,-1],"loss_changes":[7.2422124E12,5.788391E11,2.247543E12,1.9651153E11,0E0,2.3764926E10,1.735603E10,9.012511E8,4.0454062E9,0E0,0E0,0E0,0E0,0E0,0E0,0E0,0E0],"parents":[2147483647,0,0,1,1,2,2,3,3,5,5,6,6,7,7,8,8],"right_children":[2,4,6,8,-1,10,12,14,16,-1,-1,-1,-1,-1,-1,-1,-1],"split_conditions":[2.81012E5,2.32142E5,3.6691812E5,1.8504684E5,1.1666525E4,3.145084E5,4.3792338E5,1.5850223E5,2.035351E5,1.3553661E4,1.4873439E4,1.8918404E4,2.1772326E4,6.694004E3,7.828229E3,8.785539E3,9.703374E3],"split_indices":[1,8,0,4,0,1,0,0,1,0,0,0,0,0,0,0,0],"split_type":[0,0,0,0,0,0,0,0,0,0,0,0,0,0,0,0,0],"sum_hessian":[1.876E3,1.027E3,8.49E2,7.74E2,2.53E2,6.08E2,2.41E2,2.51E2,5.23E2,3.53E2,2.55E2,1.61E2,8E1,6E1,1.91E2,1.75E2,3.48E2],"tree_param":{"num_deleted":"0","num_feature":"13","num_nodes":"17","size_leaf_vector":"0"}},{"base_weights":[2.3682216E5,1.8034752E5,3.0033572E5,1.559829E5,2.0195008E5,2.6811228E5,3.792615E5,1.4223981E5,1.6845677E5,1.8643138E5,2.21433E5,2.588974E5,2.859084E5,3.593943E5,4.1701162E5],"categories":[],"categories_nodes":[],"categories_segments":[],"categories_sizes":[],"default_left":[1,1,1,1,1,1,1,0,0,0,0,0,0,0,0],"id":3,"left_children":[1,3,5,7,9,11,13,-1,-1,-1,-1,-1,-1,-1,-1],"loss_changes":[6.6712754E12,4.9220577E11,2.1389273E12,5.6953405E10,1.1714901E11,2.9129441E10,3.987525E10,0E0,0E0,0E0,0E0,0E0,0E0,0E0,0E0],"parents":[2147483647,0,0,1,1,2,2,3,3,4,4,5,5,6,6],"right_children":[2,4,6,8,10,12,14,-1,-1,-1,-1,-1,-1,-1,-1],"split_conditions":[2.776434E5,2.093635E5,3.6770206E5,1.80557E5,2.336484E5,3.187251E5,4.4240744E5,7.1119907E3,8.422839E3,9.321569E3,1.107165E4,1.294487E4,1.4295421E4,1.7969717E4,2.0850582E4],"split_indices":[1,1,0,8,0,1,0,0,0,0,0,0,0,0,0],"split_type":[0,0,0,0,0,0,0,0,0,0,0,0,0,0,0],"sum_hessian":[1.874E3,9.94E2,8.8E2,4.71E2,5.23E2,6.28E2,2.52E2,2.3E2,2.41E2,2.97E2,2.26E2,4.24E2,2.04E2,1.72E2,8E1],"tree_param":{"num_deleted":"0","num_feature":"13","num_nodes":"15","size_leaf_vector":"0"}},{"base_weights":[2.2336225E5,1.7107738E5,2.8521416E5,1.4864538E5,1.9244906E5,2.5451906E5,3.589201E5,1.3564198E5,1.6013842E5,1.7738348E5,2.1059467E5,2.4214078E5,2.654213E5,3.3873184E5,3.9308266E5],"categories":[],"categories_nodes":[],"categories_segments":[],"categories_sizes":[],"default_left":[1,1,1,1,1,1,1,0,0,0,0,0,0,0,0],"id":4,"left_children":[1,3,5,7,9,11,13,-1,-1,-1,-1,-1,-1,-1,-1],"loss_changes":[6.047146E12,4.6231087E11,1.8588484E12,5.360006E10,1.0507361E11,1.8324914E10,3.996123E10,0E0,0E0,0E0,0E0,0E0,0E0,0E0,0E0],"parents":[2147483647,0,0,1,1,2,2,3,3,4,4,5,5,6,6],"right_children":[2,4,6,8,10,12,14,-1,-1,-1,-1,-1,-1,-1,-1],"split_conditions":[2.671535E5,2.094113E5,3.5797184E5,1.80557E5,2.3333E5,3.096641E5,4.3481138E5,6.782099E3,8.0069214E3,8.869175E3,1.0529733E4,1.2107039E4,1.3271065E4,1.6936592E4,1.9654133E4],"split_indices":[9,1,0,8,0,1,0,0,0,0,0,0,0,0,0],"split_type":[0,0,0,0,0,0,0,0,0,0,0,0,0,0,0],"sum_hessian":[1.884E3,1.023E3,8.61E2,5.03E2,5.2E2,6.11E2,2.5E2,2.42E2,2.61E2,2.9E2,2.3E2,2.97E2,3.14E2,1.64E2,8.6E1],"tree_param":{"num_deleted":"0","num_feature":"13","num_nodes":"15","size_leaf_vector":"0"}},{"base_weights":[2.1374098E5,1.650835E5,2.7565103E5,1.5102052E5,2.00678E5,2.4486673E5,3.4553212E5,1.3394456E5,1.6370602E5,1.8812605E5,2.1134405E5,2.3832695E5,2.7070228E5,3.281238E5,3.7644247E5,1.135657E5,1.3802238E5],"categories":[],"categories_nodes":[],"categories_segments":[],"categories_sizes":[],"default_left":[1,1,1,1,1,1,1,1,0,0,0,0,0,0,0,0,0],"id":5,"left_children":[1,3,5,7,9,11,13,15,-1,-1,-1,-1,-1,-1,-1,-1,-1],"loss_changes":[5.659953E12,5.0179395E11,1.7052237E12,1.4400094E11,1.3631488E8,3.3648804E10,1.2081693E10,1.1914969E10,0E0,0E0,0E0,0E0,0E0,0E0,0E0,0E0,0E0],"parents":[2147483647,0,0,1,1,2,2,3,3,4,4,5,5,6,6,7,7],"right_children":[2,4,6,8,10,12,14,16,-1,-1,-1,-1,-1,-1,-1,-1,-1],"split_conditions":[2.856182E5,2.29337E5,3.7802975E5,1.927494E5,2.642E5,3.309632E5,4.4240744E5,1.5867981E5,8.185301E3,9.406303E3,1.0567202E4,1.1916348E4,1.3535114E4,1.6406191E4,1.8822123E4,5.678285E3,6.9011187E3],"split_indices":[1,8,4,1,8,1,0,0,0,0,0,0,0,0,0,0,0],"split_type":[0,0,0,0,0,0,0,0,0,0,0,0,0,0,0,0,0],"sum_hessian":[1.893E3,1.062E3,8.31E2,7.65E2,2.97E2,5.8E2,2.51E2,3.31E2,4.34E2,1.45E2,1.52E2,4.71E2,1.09E2,1.68E2,8.3E1,6E1,2.71E2],"tree_param":{"num_deleted":"0","num_feature":"13","num_nodes":"17","size_leaf_vector":"0"}},{"base_weights":[2.0339969E5,1.5768689E5,2.6210062E5,1.4434362E5,1.9212358E5,2.3341962E5,3.2908503E5,1.2340567E5,1.5362714E5,2.2592252E5,2.5264266E5,3.1196372E5,3.5744178E5,1.08168305E5,1.2764392E5,1.4400353E5,1.5891973E5],"categories":[],"categories_nodes":[],"categories_segments":[],"categories_sizes":[],"default_left":[1,1,1,1,0,1,1,1,1,0,0,0,0,0,0,0,0],"id":6,"left_children":[1,3,5,7,-1,9,11,13,15,-1,-1,-1,-1,-1,-1,-1,-1],"loss_changes":[5.0061115E12,4.593371E11,1.5023955E12,1.30324365E11,0E0,2.6367492E10,6.956253E9,1.756627E9,4.008706E9,0E0,0E0,0E0,0E0,0E0,0E0,0E0,0E0],"parents":[2147483647,0,0,1,1,2,2,3,3,5,5,6,6,7,7,8,8],"right_children":[2,4,6,8,-1,10,12,14,16,-1,-1,-1,-1,-1,-1,-1,-1],"split_conditions":[2.881408E5,2.32142E5,3.830017E5,1.8477412E5,9.606179E3,3.265635E5,4.4240744E5,1.584081E5,2.0597769E5,1.1296126E4,1.2632133E4,1.5598187E4,1.787209E4,5.4084155E3,6.3821963E3,7.200177E3,7.945987E3],"split_indices":[1,8,0,4,0,1,0,0,1,0,0,0,0,0,0,0,0],"split_type":[0,0,0,0,0,0,0,0,0,0,0,0,0,0,0,0,0],"sum_hessian":[1.88E3,1.059E3,8.21E2,7.67E2,2.92E2,5.78E2,2.43E2,2.4E2,5.27E2,4.25E2,1.53E2,1.59E2,8.4E1,5.8E1,1.82E2,1.97E2,3.3E2],"tree_param":{"num_deleted":"0","num_feature":"13","num_nodes":"17","size_leaf_vector":"0"}},{"base_weights":[1.9214038E5,1.4959095E5,2.4942162E5,1.3645152E5,1.818604E5,2.2197805E5,3.1288197E5,1.2085968E5,1.479104E5,1.6815572E5,1.9133348E5,2.1574822E5,2.4531888E5,2.9656812E5,3.4075728E5,1.0325475E5,1.2459494E5],"categories":[],"categories_nodes":[],"categories_segments":[],"categories_sizes":[],"default_left":[1,1,1,1,1,1,1,1,0,0,0,0,0,0,0,0,0],"id":7,"left_children":[1,3,5,7,9,11,13,15,-1,-1,-1,-1,-1,-1,-1,-1,-1],"loss_changes":[4.620336E12,4.4116528E11,1.3464513E12,1.2237511E11,8.721007E9,3.010252E10,9.44767E9,9.361687E9,0E0,0E0,0E0,0E0,0E0,0E0,0E0,0E0,0E0],"parents":[2147483647,0,0,1,1,2,2,3,3,4,4,5,5,6,6,7,7],"right_children":[2,4,6,8,10,12,14,16,-1,-1,-1,-1,-1,-1,-1,-1,-1],"split_conditions":[2.79195E5,2.2915E5,3.833625E5,1.927494E5,2.564802E5,3.32179E5,4.4240744E5,1.6003984E5,7.3955205E3,8.407786E3,9.566675E3,1.0787411E4,1.2265944E4,1.4828406E4,1.7037865E4,5.162738E3,6.229747E3],"split_indices":[9,8,0,1,1,1,0,0,0,0,0,0,0,0,0,0,0],"split_type":[0,0,0,0,0,0,0,0,0,0,0,0,0,0,0,0,0],"sum_hessian":[1.91E3,1.098E3,8.12E2,7.84E2,3.14E2,5.7E2,2.42E2,3.37E2,4.47E2,1.36E2,1.78E2,4.58E2,1.12E2,1.6E2,8.2E1,6.4E1,2.73E2],"tree_param":{"num_deleted":"0","num_feature":"13","num_nodes":"17","size_leaf_vector":"0"}},{"base_weights":[1.822369E5,1.4178628E5,2.3539389E5,1.2761176E5,1.6795747E5,2.0807225E5,2.9207412E5,1.1024187E5,1.3624584E5,1.5492328E5,1.7930225E5,2.758181E5,3.2020856E5,9.545039E4,1.13510695E5],"categories":[],"categories_nodes":[],"categories_segments":[],"categories_sizes":[],"default_left":[1,1,1,1,1,0,1,1,0,0,0,0,0,0,0],"id":8,"left_children":[1,3,5,7,9,-1,11,13,-1,-1,-1,-1,-1,-1,-1],"loss_changes":[3.98971E12,3.7364538E11,1.1889468E12,8.92118E10,2.7081572E10,0E0,3.0591156E10,5.761925E8,0E0,0E0,0E0,0E0,0E0,0E0,0E0],"parents":[2147483647,0,0,1,1,2,2,3,3,4,4,6,6,7,7],"right_children":[2,4,6,8,10,-1,12,14,-1,-1,-1,-1,-1,-1,-1],"split_conditions":[2.856182E5,2.1952031E5,3.518453E5,1.832845E5,2.521775E5,1.0403612E4,4.46397E5,1.5466669E5,6.8122925E3,7.746164E3,8.965112E3,1.3790905E4,1.6010429E4,4.7725195E3,5.6755347E3],"split_indices":[1,1,0,8,1,0,8,0,0,0,0,0,0,0,0],"split_type":[0,0,0,0,0,0,0,0,0,0,0,0,0,0,0],"sum_hessian":[1.87E3,1.064E3,8.06E2,6.94E2,3.7E2,5.47E2,2.59E2,2.35E2,4.59E2,1.79E2,1.91E2,1.71E2,8.8E1,4.8E1,1.87E2],"tree_param":{"num_deleted":"0","num_feature":"13","num_nodes":"15","size_leaf_vector":"0"}},{"base_weights":[1.7317903E5,1.3134031E5,2.1815153E5,1.11518375E5,1.4446595E5,1.9526394E5,2.767754E5,1.0180166E5,1.185128E5,1.3612527E5,1.5996031E5,1.8186794E5,2.0324234E5,2.611749E5,3.0539356E5],"categories":[],"categories_nodes":[],"categories_segments":[],"categories_sizes":[],"default_left":[1,1,1,1,1,1,1,0,0,0,0,0,0,0,0],"id":9,"left_children":[1,3,5,7,9,11,13,-1,-1,-1,-1,-1,-1,-1,-1],"loss_changes":[3.5143864E12,2.3834132E11,1.1615915E12,1.471257E10,5.38276E10,3.304063E10,3.2747028E10,0E0,0E0,0E0,0E0,0E0,0E0,0E0,0E0],"parents":[2147483647,0,0,1,1,2,2,3,3,4,4,5,5,6,6],"right_children":[2,4,6,8,10,12,14,-1,-1,-1,-1,-1,-1,-1,-1],"split_conditions":[2.71982E5,2.016144E5,3.49324E5,1.731275E5,2.3175256E5,3.033918E5,4.46397E5,5.090083E3,5.92564E3,6.806263E3,7.9980156E3,9.093397E3,1.0162117E4,1.3058745E4,1.5269679E4],"split_indices":[1,1,0,1,0,1,8,0,0,0,0,0,0,0,0],"split_type":[0,0,0,0,0,0,0,0,0,0,0,0,0,0,0],"sum_hessian":[1.882E3,9.77E2,9.05E2,3.93E2,5.84E2,6.54E2,2.51E2,1.71E2,2.22E2,3.86E2,1.98E2,2.53E2,4.01E2,1.69E2,8.2E1],"tree_param":{"num_deleted":"0","num_feature":"13","num_nodes":"15","size_leaf_vector":"0"}},{"base_weights":[1.6479812E5,1.263164E5,2.1034808E5,1.1253287E5,1.4545495E5,1.874922E5,2.639841E5,9.934249E4,1.2033084E5,1.3619584E5,1.589237E5,1.7416633E5,1.9379534E5,2.4984267E5,2.8818856E5,8.7036016E4,1.0285354E5],"categories":[],"categories_nodes":[],"categories_segments":[],"categories_sizes":[],"default_left":[1,1,1,1,1,1,1,1,0,0,0,0,0,0,0,0,0],"id":10,"left_children":[1,3,5,7,9,11,13,15,-1,-1,-1,-1,-1,-1,-1,-1,-1],"loss_changes":[3.328369E12,2.5798115E11,1.0231669E12,5.068659E10,3.2229032E10,1.8073256E10,1.6651387E10,1.0724311E9,0E0,0E0,0E0,0E0,0E0,0E0,0E0,0E0,0E0],"parents":[2147483647,0,0,1,1,2,2,3,3,4,4,5,5,6,6,7,7],"right_children":[2,4,6,8,10,12,14,16,-1,-1,-1,-1,-1,-1,-1,-1,-1],"split_conditions":[2.671535E5,2.154307E5,3.5293016E5,1.80557E5,2.494181E5,3.034224E5,4.45862E5,1.5779419E5,6.0165425E3,6.8097925E3,7.946185E3,8.708316E3,9.689768E3,1.2492134E4,1.4409429E4,4.351801E3,5.1426772E3],"split_indices":[9,1,0,8,1,1,8,3,0,0,0,0,0,0,0,0,0],"split_type":[0,0,0,0,0,0,0,0,0,0,0,0,0,0,0,0,0],"sum_hessian":[1.913E3,1.039E3,8.74E2,6.08E2,4.31E2,6.16E2,2.58E2,2.31E2,3.77E2,2.62E2,1.69E2,2.07E2,4.09E2,1.7E2,8.8E1,5.7E1,1.74E2],"tree_param":{"num_deleted":"0","num_feature":"13","num_nodes":"17","size_leaf_vector":"0"}},{"base_weights":[1.5536361E5,1.1823896E5,1.9665183E5,1.0156556E5,1.30565195E5,1.7819798E5,2.5555862E5,9.363607E4,1.09165586E5,1.2300199E5,1.4462322E5,1.7121269E5,1.9547602E5,8.026123E4,9.6496516E4],"categories":[],"categories_nodes":[],"categories_segments":[],"categories_sizes":[],"default_left":[1,1,1,1,1,1,0,1,0,0,0,0,0,0,0],"id":11,"left_children":[1,3,5,7,9,11,-1,13,-1,-1,-1,-1,-1,-1,-1],"loss_changes":[2.8630277E12,1.9102643E11,9.219416E11,1.551106E10,4.2602594E10,4.8723132E10,0E0,5.1878298E8,0E0,0E0,0E0,0E0,0E0,0E0,0E0],"parents":[2147483647,0,0,1,1,2,2,3,3,4,4,5,5,7,7],"right_children":[2,4,6,8,10,12,-1,14,-1,-1,-1,-1,-1,-1,-1],"split_conditions":[2.715771E5,2.035351E5,3.867026E5,1.785965E5,2.312584E5,3.226439E5,1.2777932E4,1.5441136E5,5.4582793E3,6.1500996E3,7.231161E3,8.560635E3,9.773801E3,4.0130613E3,4.8248257E3],"split_indices":[1,1,0,8,0,1,0,3,0,0,0,0,0,0,0],"split_type":[0,0,0,0,0,0,0,0,0,0,0,0,0,0,0],"sum_hessian":[1.882E3,9.93E2,8.89E2,4.26E2,5.67E2,6.8E2,2.09E2,2.15E2,2.11E2,3.75E2,1.92E2,4.92E2,1.88E2,4.3E1,1.72E2],"tree_param":{"num_deleted":"0","num_feature":"13","num_nodes":"15","size_leaf_vector":"0"}},{"base_weights":[1.484269E5,1.1710459E5,1.9440142E5,1.0584874E5,1.4247417E5,1.7349958E5,2.4314483E5,9.348426E4,1.15023836E5,1.3247812E5,1.497498E5,1.6768886E5,1.9188328E5,2.3509177E5,2.808348E5,7.973665E4,9.637274E4],"categories":[],"categories_nodes":[],"categories_segments":[],"categories_sizes":[],"default_left":[1,1,1,1,1,1,1,1,0,0,0,0,0,0,0,0,0],"id":12,"left_children":[1,3,5,7,9,11,13,15,-1,-1,-1,-1,-1,-1,-1,-1,-1],"loss_changes":[2.7118482E12,3.081681E11,7.402716E11,7.864215E10,5.252317E9,2.5614615E10,3.180331E9,5.856559E9,0E0,0E0,0E0,0E0,0E0,0E0,0E0,0E0,0E0],"parents":[2147483647,0,0,1,1,2,2,3,3,4,4,5,5,6,6,7,7],"right_children":[2,4,6,8,10,12,14,16,-1,-1,-1,-1,-1,-1,-1,-1,-1],"split_conditions":[2.944136E5,2.32142E5,3.8762678E5,1.936432E5,2.666975E5,3.3072862E5,4.844631E5,1.6057438E5,5.751192E3,6.6239062E3,7.4874897E3,8.384443E3,9.594164E3,1.1754589E4,1.4041741E4,3.9868325E3,4.818637E3],"split_indices":[1,8,0,1,8,1,1,0,0,0,0,0,0,0,0,0,0],"split_type":[0,0,0,0,0,0,0,0,0,0,0,0,0,0,0,0,0],"sum_hessian":[1.898E3,1.131E3,7.67E2,7.87E2,3.44E2,5.4E2,2.27E2,3.4E2,4.47E2,1.53E2,1.91E2,4.18E2,1.22E2,1.93E2,3.4E1,6.4E1,2.76E2],"tree_param":{"num_deleted":"0","num_feature":"13","num_nodes":"17","size_leaf_vector":"0"}},{"base_weights":[1.4131788E5,1.1058149E5,1.8314552E5,9.911877E4,1.3132555E5,1.6372264E5,2.3015981E5,8.63147E4,1.058474E5,1.2015948E5,1.3943062E5,1.5852552E5,1.8064388E5,2.2192302E5,2.6884012E5,7.2349484E4,8.832591E4],"categories":[],"categories_nodes":[],"categories_segments":[],"categories_sizes":[],"default_left":[1,1,1,1,1,1,1,1,0,0,0,0,0,0,0,0,0],"id":13,"left_children":[1,3,5,7,9,11,13,15,-1,-1,-1,-1,-1,-1,-1,-1,-1],"loss_changes":[2.4185867E12,2.4759396E11,6.946669E11,5.2032963E10,1.8270388E10,2.1577597E10,1.4253294E10,6.315049E8,0E0,0E0,0E0,0E0,0E0,0E0,0E0,0E0,0E0],"parents":[2147483647,0,0,1,1,2,2,3,3,4,4,5,5,6,6,7,7],"right_children":[2,4,6,8,10,12,14,16,-1,-1,-1,-1,-1,-1,-1,-1,-1],"split_conditions":[2.905858E5,2.196126E5,3.775907E5,1.8462328E5,2.5167E5,3.2922962E5,4.844631E5,1.5391422E5,5.29237E3,6.007974E3,6.9715312E3,7.926276E3,9.032194E3,1.1096151E4,1.3442007E4,3.6174744E3,4.4162954E3],"split_indices":[1,1,4,4,1,1,1,0,0,0,0,0,0,0,0,0,0],"split_type":[0,0,0,0,0,0,0,0,0,0,0,0,0,0,0,0,0],"sum_hessian":[1.896E3,1.095E3,8.01E2,7.09E2,3.86E2,5.7E2,2.31E2,2.49E2,4.6E2,1.69E2,2.17E2,4.44E2,1.26E2,1.96E2,3.5E1,3.6E1,2.13E2],"tree_param":{"num_deleted":"0","num_feature":"13","num_nodes":"17","size_leaf_vector":"0"}},{"base_weights":[1.3473969E5,1.0603639E5,1.7594989E5,9.548937E4,1.2983473E5,1.5739861E5,2.2053145E5,8.458323E4,1.043171E5,1.1958061E5,1.3615419E5,1.5201266E5,1.745301E5,2.0925767E5,2.4282753E5,7.222424E4,8.735562E4],"categories":[],"categories_nodes":[],"categories_segments":[],"categories_sizes":[],"default_left":[1,1,1,1,1,1,1,1,0,0,0,0,0,0,0,0,0],"id":14,"left_children":[1,3,5,7,9,11,13,15,-1,-1,-1,-1,-1,-1,-1,-1,-1],"loss_changes":[2.2358912E12,2.7022957E11,6.1121076E11,6.665745E10,5.9449016E9,2.4678236E10,6.2453187E9,5.8885407E9,0E0,0E0,0E0,0E0,0E0,0E0,0E0,0E0,0E0],"parents":[2147483647,0,0,1,1,2,2,3,3,4,4,5,5,6,6,7,7],"right_children":[2,4,6,8,10,12,14,16,-1,-1,-1,-1,-1,-1,-1,-1,-1],"split_conditions":[2.94895E5,2.271686E5,3.923477E5,1.96848E5,2.666975E5,3.3455662E5,4.664294E5,1.594946E5,5.215855E3,5.979031E3,6.8077095E3,7.600633E3,8.726505E3,1.0462884E4,1.2141377E4,3.6112122E3,4.367781E3],"split_indices":[1,1,0,1,8,1,1,0,0,0,0,0,0,0,0,0,0],"split_type":[0,0,0,0,0,0,0,0,0,0,0,0,0,0,0,0,0],"sum_hessian":[1.905E3,1.125E3,7.8E2,7.83E2,3.42E2,5.54E2,2.26E2,3.55E2,4.28E2,1.38E2,2.04E2,4.29E2,1.25E2,1.57E2,6.9E1,7E1,2.85E2],"tree_param":{"num_deleted":"0","num_feature":"13","num_nodes":"17","size_leaf_vector":"0"}},{"base_weights":[1.27563945E5,1.0054278E5,1.6669697E5,8.831982E4,1.186148E5,1.4932914E5,2.1054689E5,7.6656375E4,9.4535734E4,1.09383664E5,1.2850253E5,1.438049E5,1.6565502E5,2.0334212E5,2.4477544E5,6.274866E4,7.8485555E4,8.8319195E4,9.783011E4],"categories":[],"categories_nodes":[],"categories_segments":[],"categories_sizes":[],"default_left":[1,1,1,1,1,1,1,1,1,0,0,0,0,0,0,0,0,0,0],"id":15,"left_children":[1,3,5,7,9,11,13,15,17,-1,-1,-1,-1,-1,-1,-1,-1,-1,-1],"loss_changes":[1.9986823E12,2.3913405E11,5.603045E11,4.1907913E10,2.7291288E10,2.6683113E10,3.9877345E9,1.2061245E9,3.2977715E8,0E0,0E0,0E0,0E0,0E0,0E0,0E0,0E0,0E0,0E0],"parents":[2147483647,0,0,1,1,2,2,3,3,4,4,5,5,6,6,7,7,8,8],"right_children":[2,4,6,8,10,12,14,16,18,-1,-1,-1,-1,-1,-1,-1,-1,-1,-1],"split_conditions":[2.950348E5,2.219925E5,3.983445E5,1.80557E5,2.5753931E5,3.3455662E5,4.846777E5,1.4919831E5,1.99834E5,5.469183E3,6.4251265E3,7.1902456E3,8.282751E3,1.0167106E4,1.2238772E4,3.137433E3,3.9242778E3,4.41596E3,4.8915054E3],"split_indices":[1,8,0,8,1,1,1,0,1,0,0,0,0,0,0,0,0,0,0],"split_type":[0,0,0,0,0,0,0,0,0,0,0,0,0,0,0,0,0,0,0],"sum_hessian":[1.905E3,1.129E3,7.76E2,6.77E2,4.52E2,5.59E2,2.17E2,2.4E2,4.37E2,2.4E2,2.12E2,4.25E2,1.34E2,1.85E2,3.2E1,3.2E1,2.08E2,1.61E2,2.76E2],"tree_param":{"num_deleted":"0","num_feature":"13","num_nodes":"19","size_leaf_vector":"0"}},{"base_weights":[1.2113986E5,9.241391E4,1.5423786E5,8.022749E4,1.0465875E5,1.3704508E5,1.935561E5,7.2972E4,8.651405E4,9.751434E4,1.1503068E5,1.2751306E5,1.4233134E5,1.8269116E5,2.1404597E5,5.862085E4,7.433635E4],"categories":[],"categories_nodes":[],"categories_segments":[],"categories_sizes":[],"default_left":[1,1,1,1,1,1,1,1,0,0,0,0,0,0,0,0,0],"id":16,"left_children":[1,3,5,7,9,11,13,15,-1,-1,-1,-1,-1,-1,-1,-1,-1],"loss_changes":[1.7874572E12,1.4336131E11,5.676697E11,1.7131373E10,2.612999E10,1.2840862E10,1.9890438E10,4.394844E8,0E0,0E0,0E0,0E0,0E0,0E0,0E0,0E0,0E0],"parents":[2147483647,0,0,1,1,2,2,3,3,4,4,5,5,6,6,7,7],"right_children":[2,4,6,8,10,12,14,16,-1,-1,-1,-1,-1,-1,-1,-1,-1],"split_conditions":[2.650335E5,2.116348E5,3.4646612E5,1.80557E5,2.457117E5,2.9503E5,4.45862E5,1.4814812E5,4.3257026E3,4.8757173E3,5.751534E3,6.3756533E3,7.1165674E3,9.134558E3,1.0702299E4,2.9310427E3,3.7168176E3],"split_indices":[9,1,4,8,1,9,8,0,0,0,0,0,0,0,0,0,0],"split_type":[0,0,0,0,0,0,0,0,0,0,0,0,0,0,0,0,0],"sum_hessian":[1.894E3,1.016E3,8.78E2,5.13E2,5.03E2,6.14E2,2.64E2,2.44E2,2.69E2,3.04E2,1.99E2,2.28E2,3.86E2,1.79E2,8.5E1,2.5E1,2.19E2],"tree_param":{"num_deleted":"0","num_feature":"13","num_nodes":"17","size_leaf_vector":"0"}},{"base_weights":[1.1519271E5,9.24746E4,1.5223645E5,8.1982766E4,1.120958E5,1.3607912E5,1.8787028E5,7.2734664E4,8.914698E4,1.027135E5,1.1757401E5,1.3109061E5,1.4827944E5,6.2642426E4,7.507036E4],"categories":[],"categories_nodes":[],"categories_segments":[],"categories_sizes":[],"default_left":[1,1,1,1,1,1,0,1,0,0,0,0,0,0,0],"id":17,"left_children":[1,3,5,7,9,11,-1,13,-1,-1,-1,-1,-1,-1,-1],"loss_changes":[1.547866E12,2.2816909E11,3.7976277E11,4.3538973E10,8.4310753E9,1.0262413E10,0E0,3.1940936E9,0E0,0E0,0E0,0E0,0E0,0E0,0E0],"parents":[2147483647,0,0,1,1,2,2,3,3,4,4,5,5,7,7],"right_children":[2,4,6,8,10,12,-1,14,-1,-1,-1,-1,-1,-1,-1],"split_conditions":[2.984698E5,2.271686E5,3.905239E5,1.948408E5,2.666975E5,3.368815E5,9.393515E3,1.6580778E5,4.457349E3,5.1356753E3,5.8787007E3,6.554531E3,7.413972E3,3.1321213E3,3.753518E3],"split_indices":[1,1,0,1,8,8,0,0,0,0,0,0,0,0,0],"split_type":[0,0,0,0,0,0,0,0,0,0,0,0,0,0,0],"sum_hessian":[1.855E3,1.152E3,7.03E2,7.54E2,3.98E2,4.87E2,2.16E2,3.34E2,4.2E2,1.54E2,2.44E2,3.54E2,1.33E2,6.8E1,2.66E2],"tree_param":{"num_deleted":"0","num_feature":"13","num_nodes":"15","size_leaf_vector":"0"}},{"base_weights":[1.098179E5,8.8322625E4,1.4565017E5,7.836807E4,1.0785974E5,1.3020327E5,1.8077172E5,6.917504E4,8.526748E4,9.846593E4,1.1209991E5,1.2582461E5,1.4361583E5,1.7382233E5,2.1134656E5,5.7970062E4,7.119843E4],"categories":[],"categories_nodes":[],"categories_segments":[],"categories_sizes":[],"default_left":[1,1,1,1,1,1,1,1,0,0,0,0,0,0,0,0,0],"id":18,"left_children":[1,3,5,7,9,11,13,15,-1,-1,-1,-1,-1,-1,-1,-1,-1],"loss_changes":[1.4467119E12,2.2239982E11,3.6110965E11,4.420849E10,4.8145367E9,1.1058807E10,8.73359E9,3.67172E9,0E0,0E0,0E0,0E0,0E0,0E0,0E0,0E0,0E0],"parents":[2147483647,0,0,1,1,2,2,3,3,4,4,5,5,6,6,7,7],"right_children":[2,4,6,8,10,12,14,16,-1,-1,-1,-1,-1,-1,-1,-1,-1],"split_conditions":[2.9947512E5,2.46815E5,3.998237E5,1.9558481E5,2.622301E5,3.383663E5,4.842078E5,1.5882231E5,4.263374E3,4.9232964E3,5.6049956E3,6.2912305E3,7.1807915E3,8.691116E3,1.0567328E4,2.8985032E3,3.5599216E3],"split_indices":[1,8,0,1,1,1,1,0,0,0,0,0,0,0,0,0,0],"split_type":[0,0,0,0,0,0,0,0,0,0,0,0,0,0,0,0,0],"sum_hessian":[1.894E3,1.186E3,7.08E2,7.89E2,3.97E2,4.95E2,2.13E2,3.43E2,4.46E2,1.31E2,2.66E2,3.81E2,1.14E2,1.79E2,3.4E1,5.7E1,2.86E2],"tree_param":{"num_deleted":"0","num_feature":"13","num_nodes":"17","size_leaf_vector":"0"}},{"base_weights":[1.0380694E5,8.084664E4,1.337698E5,7.0998016E4,9.3894805E4,1.1895757E5,1.6714011E5,6.2332695E4,7.604842E4,8.726045E4,1.02552016E5,1.1130246E5,1.2341673E5,1.5779677E5,1.9016534E5,5.017269E4,6.349456E4],"categories":[],"categories_nodes":[],"categories_segments":[],"categories_sizes":[],"default_left":[1,1,1,1,1,1,1,1,0,0,0,0,0,0,0,0,0],"id":19,"left_children":[1,3,5,7,9,11,13,15,-1,-1,-1,-1,-1,-1,-1,-1,-1],"loss_changes":[1.2887356E12,1.3109245E11,3.8444466E11,2.2174237E10,1.7356292E10,5.7205064E9,2.3560978E10,9.207808E7,0E0,0E0,0E0,0E0,0E0,0E0,0E0,0E0,0E0],"parents":[2147483647,0,0,1,1,2,2,3,3,4,4,5,5,6,6,7,7],"right_children":[2,4,6,8,10,12,14,16,-1,-1,-1,-1,-1,-1,-1,-1,-1],"split_conditions":[2.79195E5,2.160159E5,3.4746634E5,1.80557E5,2.531575E5,-1.5245287E1,4.650018E5,1.4842434E5,3.8024211E3,4.363023E3,5.127601E3,5.565123E3,6.1708364E3,7.8898384E3,9.508268E3,2.5086345E3,3.174728E3],"split_indices":[9,1,4,8,1,6,1,0,0,0,0,0,0,0,0,0,0],"split_type":[0,0,0,0,0,0,0,0,0,0,0,0,0,0,0,0,0],"sum_hessian":[1.888E3,1.071E3,8.17E2,6.14E2,4.57E2,5.69E2,2.48E2,2.31E2,3.83E2,2.65E2,1.92E2,2.19E2,3.5E2,1.82E2,6.6E1,2.4E1,2.07E2],"tree_param":{"num_deleted":"0","num_feature":"13","num_nodes":"17","size_leaf_vector":"0"}},{"base_weights":[9.995359E4,7.989293E4,1.3237902E5,7.027172E4,9.670045E4,1.1758536E5,1.633145E5,6.2084902E4,7.678186E4,8.815196E4,1.0115346E5,1.1247193E5,1.2797732E5,1.5750794E5,1.9569531E5,5.280132E4,6.4321043E4],"categories":[],"categories_nodes":[],"categories_segments":[],"categories_sizes":[],"default_left":[1,1,1,1,1,1,1,1,0,0,0,0,0,0,0,0,0],"id":20,"left_children":[1,3,5,7,9,11,13,15,-1,-1,-1,-1,-1,-1,-1,-1,-1],"loss_changes":[1.2207732E12,1.8272748E11,3.1121945E11,3.5152724E10,7.223378E9,1.1749818E10,1.2609126E10,3.5996303E9,0E0,0E0,0E0,0E0,0E0,0E0,0E0,0E0,0E0],"parents":[2147483647,0,0,1,1,2,2,3,3,4,4,5,5,6,6,7,7],"right_children":[2,4,6,8,10,12,14,16,-1,-1,-1,-1,-1,-1,-1,-1,-1],"split_conditions":[2.998661E5,2.32142E5,4.0154006E5,1.9558481E5,2.5931844E5,3.291878E5,4.874708E5,1.6171603E5,3.839093E3,4.407598E3,5.0576733E3,5.6235967E3,6.398866E3,7.875397E3,9.784766E3,2.6400662E3,3.2160522E3],"split_indices":[1,8,0,1,0,1,1,0,0,0,0,0,0,0,0,0,0],"split_type":[0,0,0,0,0,0,0,0,0,0,0,0,0,0,0,0,0],"sum_hessian":[1.892E3,1.171E3,7.21E2,7.48E2,4.23E2,4.91E2,2.3E2,3.36E2,4.12E2,1.52E2,2.71E2,3.37E2,1.54E2,2E2,3E1,7E1,2.66E2],"tree_param":{"num_deleted":"0","num_feature":"13","num_nodes":"17","size_leaf_vector":"0"}},{"base_weights":[9.355419E4,7.4929766E4,1.2437476E5,6.662044E4,9.129433E4,1.10727086E5,1.5550725E5,5.696337E4,7.128498E4,8.313295E4,9.524259E4,1.0630268E5,1.2077334E5,1.4947061E5,1.8498111E5,4.822596E4,5.8519945E4,6.700104E4,7.509688E4],"categories":[],"categories_nodes":[],"categories_segments":[],"categories_sizes":[],"default_left":[1,1,1,1,1,1,1,1,1,0,0,0,0,0,0,0,0,0,0],"id":21,"left_children":[1,3,5,7,9,11,13,15,17,-1,-1,-1,-1,-1,-1,-1,-1,-1,-1],"loss_changes":[1.07040316E12,1.5369293E11,2.831753E11,3.1210078E10,4.745855E9,9.163506E9,1.0248782E10,7.139492E8,3.5253125E9,0E0,0E0,0E0,0E0,0E0,0E0,0E0,0E0,0E0,0E0],"parents":[2147483647,0,0,1,1,2,2,3,3,4,4,5,5,6,6,7,7,8,8],"right_children":[2,4,6,8,10,12,14,16,18,-1,-1,-1,-1,-1,-1,-1,-1,-1,-1],"split_conditions":[2.977933E5,2.267856E5,4.0369956E5,1.8520739E5,2.642E5,3.2811712E5,4.874708E5,1.5446194E5,2.117485E5,4.156648E3,4.76213E3,5.3151343E3,6.0386675E3,7.473531E3,9.249056E3,2.411298E3,2.9259973E3,3.350052E3,3.7548442E3],"split_indices":[1,1,0,0,8,2,1,3,1,0,0,0,0,0,0,0,0,0,0],"split_type":[0,0,0,0,0,0,0,0,0,0,0,0,0,0,0,0,0,0,0],"sum_hessian":[1.88E3,1.174E3,7.06E2,7.82E2,3.92E2,4.94E2,2.12E2,2.59E2,5.23E2,1.35E2,2.57E2,3.51E2,1.43E2,1.81E2,3.1E1,4.4E1,2.15E2,2.55E2,2.68E2],"tree_param":{"num_deleted":"0","num_feature":"13","num_nodes":"19","size_leaf_vector":"0"}},{"base_weights":[8.9326086E4,6.981095E4,1.1597639E5,6.14153E4,8.1859914E4,1.0411257E5,1.4760731E5,5.3450336E4,6.558038E4,7.559555E4,8.829554E4,9.963072E4,1.1411449E5,1.3901339E5,1.6452019E5,4.1321355E4,5.4466465E4,6.207039E4,6.848422E4],"categories":[],"categories_nodes":[],"categories_segments":[],"categories_sizes":[],"default_left":[1,1,1,1,1,1,1,1,1,0,0,0,0,0,0,0,0,0,0],"id":22,"left_children":[1,3,5,7,9,11,13,15,17,-1,-1,-1,-1,-1,-1,-1,-1,-1,-1],"loss_changes":[9.8786555E11,1.0705594E11,2.8784565E11,1.8290573E10,1.1547705E10,1.5123612E10,8.815378E9,5.963776E8,1.0144973E8,0E0,0E0,0E0,0E0,0E0,0E0,0E0,0E0,0E0,0E0],"parents":[2147483647,0,0,1,1,2,2,3,3,4,4,5,5,6,6,7,7,8,8],"right_children":[2,4,6,8,10,12,14,16,18,-1,-1,-1,-1,-1,-1,-1,-1,-1,-1],"split_conditions":[2.9044162E5,2.172234E5,3.961564E5,1.80557E5,2.5167E5,3.265635E5,4.676939E5,1.4549914E5,2.038289E5,3.7797773E3,4.414777E3,4.981536E3,5.7057246E3,6.9506694E3,8.22601E3,2.0660679E3,2.7233232E3,3.1035195E3,3.424211E3],"split_indices":[1,1,0,8,1,1,1,0,1,0,0,0,0,0,0,0,0,0,0],"split_type":[0,0,0,0,0,0,0,0,0,0,0,0,0,0,0,0,0,0,0],"sum_hessian":[1.914E3,1.107E3,8.07E2,6.56E2,4.51E2,5.9E2,2.17E2,2.3E2,4.26E2,2.35E2,2.16E2,4.15E2,1.75E2,1.5E2,6.7E1,2.1E1,2.09E2,2.03E2,2.23E2],"tree_param":{"num_deleted":"0","num_feature":"13","num_nodes":"19","size_leaf_vector":"0"}},{"base_weights":[8.510551E4,6.858747E4,1.1459646E5,6.0446914E4,8.321317E4,1.0172075E5,1.406491E5,5.3613043E4,6.625744E4,7.632009E4,8.696651E4,9.811152E4,1.1322081E5,1.3507812E5,1.6591792E5,4.692062E4,5.5971777E4],"categories":[],"categories_nodes":[],"categories_segments":[],"categories_sizes":[],"default_left":[1,1,1,1,1,1,1,1,0,0,0,0,0,0,0,0,0],"id":23,"left_children":[1,3,5,7,9,11,13,15,-1,-1,-1,-1,-1,-1,-1,-1,-1],"loss_changes":[8.9918013E11,1.3736765E11,2.0943523E11,2.7102544E10,4.358406E9,7.56967E9,8.276148E9,3.0565335E9,0E0,0E0,0E0,0E0,0E0,0E0,0E0,0E0,0E0],"parents":[2147483647,0,0,1,1,2,2,3,3,4,4,5,5,6,6,7,7],"right_children":[2,4,6,8,10,12,14,16,-1,-1,-1,-1,-1,-1,-1,-1,-1],"split_conditions":[2.929595E5,2.1997E5,4.0117862E5,1.984624E5,2.63462E5,3.45125E5,4.844631E5,1.6947119E5,3.3128718E3,3.8160046E3,4.3483257E3,4.905576E3,5.6610405E3,6.7539062E3,8.295896E3,2.346031E3,2.7985889E3],"split_indices":[9,9,0,1,1,8,1,1,0,0,0,0,0,0,0,0,0],"split_type":[0,0,0,0,0,0,0,0,0,0,0,0,0,0,0,0,0],"sum_hessian":[1.861E3,1.195E3,6.66E2,7.71E2,4.24E2,4.49E2,2.17E2,3.59E2,4.12E2,1.57E2,2.67E2,3.49E2,1E2,1.83E2,3.4E1,9.9E1,2.6E2],"tree_param":{"num_deleted":"0","num_feature":"13","num_nodes":"17","size_leaf_vector":"0"}},{"base_weights":[8.063671E4,6.0349152E4,1.0153761E5,5.273551E4,6.783707E4,9.0337516E4,1.3101793E5,4.7380984E4,5.6358895E4,6.4476926E4,7.369354E4,8.522783E4,9.6043945E4,1.2119088E5,1.4662156E5,3.705708E4,4.838515E4],"categories":[],"categories_nodes":[],"categories_segments":[],"categories_sizes":[],"default_left":[1,1,1,1,1,1,1,1,0,0,0,0,0,0,0,0,0],"id":24,"left_children":[1,3,5,7,9,11,13,15,-1,-1,-1,-1,-1,-1,-1,-1,-1],"loss_changes":[7.931649E11,5.1095273E10,2.94243E11,6.642336E9,4.6942126E9,1.1496587E10,2.1024997E10,2.80363E8,0E0,0E0,0E0,0E0,0E0,0E0,0E0,0E0,0E0],"parents":[2147483647,0,0,1,1,2,2,3,3,4,4,5,5,6,6,7,7],"right_children":[2,4,6,8,10,12,14,16,-1,-1,-1,-1,-1,-1,-1,-1,-1],"split_conditions":[2.6745938E5,2.094113E5,3.46594E5,1.746006E5,2.4681E5,3.096641E5,4.45862E5,1.4549914E5,2.8179448E3,3.2238464E3,3.684677E3,4.2613916E3,4.8021973E3,6.0595444E3,7.331078E3,1.8528539E3,2.4192576E3],"split_indices":[1,1,4,1,8,1,8,0,0,0,0,0,0,0,0,0,0],"split_type":[0,0,0,0,0,0,0,0,0,0,0,0,0,0,0,0,0],"sum_hessian":[1.884E3,9.58E2,9.26E2,4.79E2,4.79E2,6.74E2,2.52E2,1.99E2,2.8E2,3.12E2,1.67E2,3.64E2,3.1E2,1.6E2,9.2E1,2.1E1,1.78E2],"tree_param":{"num_deleted":"0","num_feature":"13","num_nodes":"17","size_leaf_vector":"0"}},{"base_weights":[7.651252E4,5.7932984E4,9.7089195E4,5.0516836E4,6.548877E4,8.658793E4,1.23562195E5,4.5486605E4,5.417922E4,6.1666992E4,7.146786E4,8.005136E4,9.042019E4,1.1873088E5,1.5645258E5,3.6609773E4,4.659625E4,1.087145E5,1.2557909E5],"categories":[],"categories_nodes":[],"categories_segments":[],"categories_sizes":[],"default_left":[1,1,1,1,1,1,1,1,0,0,0,0,0,1,0,0,0,0,0],"id":25,"left_children":[1,3,5,7,9,11,13,15,-1,-1,-1,-1,-1,17,-1,-1,-1,-1,-1],"loss_changes":[7.142554E11,5.227833E10,2.3727702E11,6.838944E9,6.7439165E9,8.84369E9,2.1309161E10,4.5131366E8,0E0,0E0,0E0,0E0,0E0,1.6441672E9,0E0,0E0,0E0,0E0,0E0],"parents":[2147483647,0,0,1,1,2,2,3,3,4,4,5,5,6,6,7,7,13,13],"right_children":[2,4,6,8,10,12,14,16,-1,-1,-1,-1,-1,18,-1,-1,-1,-1,-1],"split_conditions":[2.731663E5,2.116348E5,3.4646612E5,1.757381E5,2.438614E5,3.033918E5,4.8973E5,1.4824062E5,2.708961E3,3.0833496E3,3.573393E3,4.002568E3,4.5210093E3,4.22159E5,7.822629E3,1.8304886E3,2.3298125E3,5.435725E3,6.2789546E3],"split_indices":[1,1,4,1,1,1,1,0,0,0,0,0,0,1,0,0,0,0,0],"split_type":[0,0,0,0,0,0,0,0,0,0,0,0,0,0,0,0,0,0,0],"sum_hessian":[1.882E3,9.91E2,8.91E2,5.04E2,4.87E2,6.41E2,2.5E2,2.18E2,2.86E2,3.04E2,1.83E2,2.45E2,3.96E2,2.22E2,2.8E1,2.8E1,1.9E2,9.7E1,1.25E2],"tree_param":{"num_deleted":"0","num_feature":"13","num_nodes":"19","size_leaf_vector":"0"}},{"base_weights":[7.2915086E4,5.8500566E4,9.835749E4,5.1632082E4,7.127368E4,8.713019E4,1.21596945E5,4.4400844E4,5.5741348E4,6.487304E4,7.420707E4,8.444679E4,9.938076E4,1.1641095E5,1.4810267E5,3.7769977E4,4.590223E4,5.1839035E4,5.7994945E4],"categories":[],"categories_nodes":[],"categories_segments":[],"categories_sizes":[],"default_left":[1,1,1,1,1,1,1,1,1,0,0,0,0,0,0,0,0,0,0],"id":26,"left_children":[1,3,5,7,9,11,13,15,17,-1,-1,-1,-1,-1,-1,-1,-1,-1,-1],"loss_changes":[6.822507E11,1.015981E11,1.6604568E11,2.0821705E10,3.0153114E9,6.7292365E9,1.2725256E10,1.1434066E9,1.3555466E9,0E0,0E0,0E0,0E0,0E0,0E0,0E0,0E0,0E0,0E0],"parents":[2147483647,0,0,1,1,2,2,3,3,4,4,5,5,6,6,7,7,8,8],"right_children":[2,4,6,8,10,12,14,16,18,-1,-1,-1,-1,-1,-1,-1,-1,-1,-1],"split_conditions":[2.927665E5,2.32142E5,4.0369956E5,1.904016E5,2.666975E5,3.444314E5,4.913879E5,1.5772456E5,2.092881E5,3.243652E3,3.7103535E3,4.2223394E3,4.969038E3,5.820548E3,7.405134E3,1.8884989E3,2.2951116E3,2.591952E3,2.8997473E3],"split_indices":[9,8,0,1,8,1,1,3,1,0,0,0,0,0,0,0,0,0,0],"split_type":[0,0,0,0,0,0,0,0,0,0,0,0,0,0,0,0,0,0,0],"sum_hessian":[1.875E3,1.199E3,6.76E2,7.83E2,4.16E2,4.59E2,2.17E2,2.88E2,4.95E2,1.38E2,2.78E2,3.83E2,7.6E1,1.86E2,3.1E1,5.8E1,2.3E2,1.9E2,3.05E2],"tree_param":{"num_deleted":"0","num_feature":"13","num_nodes":"19","size_leaf_vector":"0"}},{"base_weights":[6.9361414E4,5.5546406E4,9.276524E4,4.8318152E4,6.696113E4,8.227783E4,1.1446577E5,4.1256332E4,5.1688883E4,6.0909688E4,7.094024E4,7.879015E4,9.105031E4,1.0967883E5,1.4204647E5,3.2658363E4,4.2215402E4,4.790169E4,5.360517E4,7.28087E4,8.1873445E4],"categories":[],"categories_nodes":[],"categories_segments":[],"categories_sizes":[],"default_left":[1,1,1,1,1,1,1,1,1,0,0,1,0,0,0,0,0,0,0,0,0],"id":27,"left_children":[1,3,5,7,9,11,13,15,17,-1,-1,19,-1,-1,-1,-1,-1,-1,-1,-1,-1],"loss_changes":[5.884703E11,9.222698E10,1.453384E11,1.4815592E10,6.418465E9,6.961234E9,1.3334479E10,5.5915315E8,9.012511E8,0E0,0E0,2.723676E8,0E0,0E0,0E0,0E0,0E0,0E0,0E0,0E0,0E0],"parents":[2147483647,0,0,1,1,2,2,3,3,4,4,5,5,6,6,7,7,8,8,11,11],"right_children":[2,4,6,8,10,12,14,16,18,-1,-1,20,-1,-1,-1,-1,-1,-1,-1,-1,-1],"split_conditions":[3.0037288E5,2.22536E5,4.0154006E5,1.832845E5,2.6141731E5,3.3455662E5,4.913879E5,1.4814394E5,2.0272E5,3.0454844E3,3.5470122E3,4.075538E1,4.5525156E3,5.4839414E3,7.1023237E3,1.6329182E3,2.1107703E3,2.3950847E3,2.6802585E3,3.6404353E3,4.0936724E3],"split_indices":[1,1,0,8,1,1,1,0,1,0,0,10,0,0,0,0,0,0,0,0,0],"split_type":[0,0,0,0,0,0,0,0,0,0,0,0,0,0,0,0,0,0,0,0,0],"sum_hessian":[1.835E3,1.156E3,6.79E2,7.11E2,4.45E2,4.61E2,2.18E2,2.34E2,4.77E2,1.83E2,2.62E2,3.37E2,1.24E2,1.9E2,2.8E1,2.7E1,2.07E2,1.69E2,3.08E2,1.23E2,2.14E2],"tree_param":{"num_deleted":"0","num_feature":"13","num_nodes":"21","size_leaf_vector":"0"}},{"base_weights":[6.5518426E4,5.2757E4,8.772342E4,4.555104E4,6.2540066E4,7.6554836E4,1.0643171E5,3.9282227E4,4.871595E4,5.6743293E4,6.6370016E4,7.056953E4,7.952019E4,9.932068E4,1.2217391E5,3.375479E4,4.0565914E4,4.6208855E4,5.099045E4],"categories":[],"categories_nodes":[],"categories_segments":[],"categories_sizes":[],"default_left":[1,1,1,1,1,1,1,1,1,0,0,0,0,0,0,0,0,0,0],"id":28,"left_children":[1,3,5,7,9,11,13,15,17,-1,-1,-1,-1,-1,-1,-1,-1,-1,-1],"loss_changes":[5.3150325E11,8.202905E10,1.3581576E11,1.1914969E10,7.5122606E9,2.1089485E9,1.6411001E10,3.265659E8,2.612265E8,0E0,0E0,0E0,0E0,0E0,0E0,0E0,0E0,0E0,0E0],"parents":[2147483647,0,0,1,1,2,2,3,3,4,4,5,5,6,6,7,7,8,8],"right_children":[2,4,6,8,10,12,14,16,18,-1,-1,-1,-1,-1,-1,-1,-1,-1,-1],"split_conditions":[3.0037288E5,2.232155E5,3.49324E5,1.8003647E5,2.559311E5,4.1346516E1,4.4341478E5,1.5512144E5,2.0234E5,2.8371648E3,3.3185007E3,3.5284766E3,3.9760095E3,4.966034E3,6.1086953E3,1.6877395E3,2.0282958E3,2.3104429E3,2.5495225E3],"split_indices":[1,8,0,0,1,10,0,0,9,0,0,0,0,0,0,0,0,0,0],"split_type":[0,0,0,0,0,0,0,0,0,0,0,0,0,0,0,0,0,0,0],"sum_hessian":[1.891E3,1.203E3,6.88E2,6.96E2,5.07E2,4.34E2,2.54E2,2.38E2,4.58E2,2.08E2,2.99E2,1.52E2,2.82E2,1.8E2,7.4E1,5E1,1.88E2,2.28E2,2.3E2],"tree_param":{"num_deleted":"0","num_feature":"13","num_nodes":"19","size_leaf_vector":"0"}},{"base_weights":[6.2418953E4,4.7209508E4,7.876776E4,4.1805125E4,5.4109934E4,7.007523E4,9.9212945E4,3.7200836E4,4.4692164E4,5.1044082E4,5.8630668E4,6.6001125E4,7.40419E4,9.0183E4,1.0962132E5,3.2518232E4,3.8560977E4],"categories":[],"categories_nodes":[],"categories_segments":[],"categories_sizes":[],"default_left":[1,1,1,1,1,1,1,1,0,0,0,0,0,0,0,0,0],"id":29,"left_children":[1,3,5,7,9,11,13,15,-1,-1,-1,-1,-1,-1,-1,-1,-1],"loss_changes":[4.577868E11,3.3687994E10,1.5175202E11,5.5819633E9,2.8282716E9,5.2945224E9,1.4926742E10,1.2176589E8,0E0,0E0,0E0,0E0,0E0,0E0,0E0,0E0,0E0],"parents":[2147483647,0,0,1,1,2,2,3,3,4,4,5,5,6,6,7,7],"right_children":[2,4,6,8,10,12,14,16,-1,-1,-1,-1,-1,-1,-1,-1,-1],"split_conditions":[2.731663E5,2.139205E5,3.4149694E5,1.78698E5,2.49949E5,3.092294E5,4.3166262E5,1.5772456E5,2.2346082E3,2.552204E3,2.9315334E3,3.3000564E3,3.702095E3,4.50915E3,5.481066E3,1.6259116E3,1.9280488E3],"split_indices":[1,1,0,8,8,1,1,3,0,0,0,0,0,0,0,0,0],"split_type":[0,0,0,0,0,0,0,0,0,0,0,0,0,0,0,0,0],"sum_hessian":[1.855E3,9.63E2,8.92E2,5.44E2,4.19E2,6.29E2,2.63E2,2.15E2,3.29E2,2.57E2,1.62E2,3.19E2,3.1E2,1.46E2,1.17E2,5.4E1,1.61E2],"tree_param":{"num_deleted":"0","num_feature":"13","num_nodes":"17","size_leaf_vector":"0"}},{"base_weights":[5.9177723E4,4.7706348E4,7.898782E4,4.1018727E4,5.625977E4,7.074112E4,9.8829555E4,3.5629473E4,4.4034094E4,5.0416965E4,5.9592473E4,6.738119E4,7.754487E4,9.5226445E4,1.2703673E5,3.1275943E4,3.7044746E4,4.0776508E4,4.5348848E4,6.176106E4,7.0387586E4],"categories":[],"categories_nodes":[],"categories_segments":[],"categories_sizes":[],"default_left":[1,1,1,1,1,1,1,1,1,0,0,1,0,0,0,0,0,0,0,0,0],"id":30,"left_children":[1,3,5,7,9,11,13,15,17,-1,-1,19,-1,-1,-1,-1,-1,-1,-1,-1,-1],"loss_changes":[4.309595E11,6.7135603E10,1.0754877E11,9.562751E9,7.3157837E9,6.1590733E9,8.53436E9,3.879076E8,1.3893632E7,0E0,0E0,1.414398E9,0E0,0E0,0E0,0E0,0E0,0E0,0E0,0E0,0E0],"parents":[2147483647,0,0,1,1,2,2,3,3,4,4,5,5,6,6,7,7,8,8,11,11],"right_children":[2,4,6,8,10,12,14,16,18,-1,-1,20,-1,-1,-1,-1,-1,-1,-1,-1,-1],"split_conditions":[2.998661E5,2.219925E5,4.0369956E5,1.88725E5,2.5149031E5,3.2811712E5,5.32205E5,1.5850223E5,1.992475E5,2.5208484E3,2.9796238E3,4.075538E1,3.8772434E3,4.7613223E3,6.3518364E3,1.5637972E3,1.8522373E3,2.0388254E3,2.2674424E3,3.088053E3,3.5193794E3],"split_indices":[1,8,0,8,1,2,8,0,1,0,0,10,0,0,0,0,0,0,0,0,0],"split_type":[0,0,0,0,0,0,0,0,0,0,0,0,0,0,0,0,0,0,0,0,0],"sum_hessian":[1.912E3,1.213E3,6.99E2,6.84E2,5.29E2,4.97E2,2.02E2,2.5E2,4.34E2,1.98E2,3.31E2,3.4E2,1.57E2,1.83E2,1.9E1,6.7E1,1.83E2,1.34E2,3E2,1.26E2,2.14E2],"tree_param":{"num_deleted":"0","num_feature":"13","num_nodes":"21","size_leaf_vector":"0"}},{"base_weights":[5.6309777E4,4.5638082E4,7.544081E4,3.9301516E4,5.429343E4,6.5467797E4,8.995305E4,3.4780293E4,4.257157E4,4.942121E4,5.773517E4,5.6956496E4,6.6864664E4,8.15977E4,9.935171E4,3.0046465E4,3.621001E4,5.098997E4,6.019344E4],"categories":[],"categories_nodes":[],"categories_segments":[],"categories_sizes":[],"default_left":[1,1,1,1,1,1,1,1,0,0,1,0,0,0,0,0,0,0,0],"id":31,"left_children":[1,3,5,7,9,11,13,15,-1,-1,17,-1,-1,-1,-1,-1,-1,-1,-1],"loss_changes":[3.7772486E11,6.3735333E10,9.064651E10,8.824226E9,5.6148623E9,9.3546086E8,1.3017285E10,9.288745E8,0E0,0E0,1.739391E9,0E0,0E0,0E0,0E0,0E0,0E0,0E0,0E0],"parents":[2147483647,0,0,1,1,2,2,3,3,4,4,5,5,6,6,7,7,10,10],"right_children":[2,4,6,8,10,12,14,16,-1,-1,18,-1,-1,-1,-1,-1,-1,-1,-1],"split_conditions":[2.91436E5,2.243305E5,3.4173006E5,1.913615E5,2.666975E5,1.8432293E1,4.306552E5,1.65877E5,2.1285786E3,2.4710605E3,3.295671E1,2.847825E3,3.3432332E3,4.0798853E3,4.9675854E3,1.5023232E3,1.8105006E3,2.5494985E3,3.009672E3],"split_indices":[9,8,0,4,8,10,1,0,0,0,10,0,0,0,0,0,0,0,0],"split_type":[0,0,0,0,0,0,0,0,0,0,0,0,0,0,0,0,0,0,0],"sum_hessian":[1.866E3,1.2E3,6.66E2,6.96E2,5.04E2,3.98E2,2.68E2,2.97E2,3.99E2,2.15E2,2.89E2,6.2E1,3.36E2,1.47E2,1.21E2,7.4E1,2.23E2,8.3E1,2.06E2],"tree_param":{"num_deleted":"0","num_feature":"13","num_nodes":"19","size_leaf_vector":"0"}},{"base_weights":[5.3797105E4,4.4447938E4,7.4748336E4,3.843042E4,5.4245973E4,6.7096945E4,9.2897E4,3.3745695E4,4.200837E4,4.898515E4,5.6077625E4,6.320071E4,7.465216E4,8.817334E4,1.1370366E5,2.9357184E4,3.5286914E4,3.962927E4,4.3829266E4,5.1100074E4,5.822577E4],"categories":[],"categories_nodes":[],"categories_segments":[],"categories_sizes":[],"default_left":[1,1,1,1,1,1,1,1,1,0,1,0,0,0,0,0,0,0,0,0,0],"id":32,"left_children":[1,3,5,7,9,11,13,15,17,-1,19,-1,-1,-1,-1,-1,-1,-1,-1,-1,-1],"loss_changes":[3.6708024E11,7.515275E10,7.458495E10,1.2243304E10,2.0324024E9,7.4393846E9,6.682575E9,1.385431E9,2.472018E8,0E0,8.84736E8,0E0,0E0,0E0,0E0,0E0,0E0,0E0,0E0,0E0,0E0],"parents":[2147483647,0,0,1,1,2,2,3,3,4,4,5,5,6,6,7,7,8,8,10,10],"right_children":[2,4,6,8,10,12,14,16,18,-1,20,-1,-1,-1,-1,-1,-1,-1,-1,-1,-1],"split_conditions":[3.0938E5,2.450318E5,4.21237E5,1.977344E5,2.670129E5,3.48386E5,4.988338E5,1.690443E5,2.18325E5,2.4492576E3,3.6391624E1,3.1600356E3,3.732608E3,4.4086675E3,5.685183E3,1.4678593E3,1.7643457E3,1.9814635E3,2.1914634E3,2.5550037E3,2.9112886E3],"split_indices":[1,2,1,1,4,8,1,1,8,0,10,0,0,0,0,0,0,0,0,0,0],"split_type":[0,0,0,0,0,0,0,0,0,0,0,0,0,0,0,0,0,0,0,0,0],"sum_hessian":[1.89E3,1.309E3,5.81E2,8.14E2,4.95E2,4.12E2,1.69E2,3.57E2,4.57E2,1.35E2,3.6E2,2.78E2,1.34E2,1.42E2,2.7E1,9.8E1,2.59E2,2.08E2,2.49E2,1.16E2,2.44E2],"tree_param":{"num_deleted":"0","num_feature":"13","num_nodes":"21","size_leaf_vector":"0"}},{"base_weights":[5.1054113E4,3.7725105E4,6.4187633E4,3.3312426E4,4.267875E4,5.6743625E4,8.143495E4,2.8407604E4,3.4879973E4,4.062101E4,4.6042234E4,5.2145914E4,5.9662344E4,7.415265E4,9.037771E4,4.969242E4,5.6756926E4,5.5926598E4,6.3457645E4,8.62506E4,1.1079509E5],"categories":[],"categories_nodes":[],"categories_segments":[],"categories_sizes":[],"default_left":[1,1,1,1,1,1,1,0,0,0,0,1,1,0,1,0,0,0,0,0,0],"id":33,"left_children":[1,3,5,7,9,11,13,-1,-1,-1,-1,15,17,-1,19,-1,-1,-1,-1,-1,-1],"loss_changes":[3.2580986E11,1.897254E10,1.1645013E11,2.8380365E9,1.1473388E9,5.772542E9,1.1663049E10,0E0,0E0,0E0,0E0,1.7753702E8,2.0940063E9,0E0,7.241728E8,0E0,0E0,0E0,0E0,0E0,0E0],"parents":[2147483647,0,0,1,1,2,2,3,3,4,4,5,5,6,6,11,11,12,12,14,14],"right_children":[2,4,6,8,10,12,14,-1,-1,-1,-1,16,18,-1,20,-1,-1,-1,-1,-1,-1],"split_conditions":[2.6734994E5,2.10261E5,3.4151022E5,1.711191E5,2.1997E5,4.9833885E1,4.3213862E5,1.4203802E3,1.7439987E3,2.0310507E3,2.3021118E3,3.0475E5,3.171165E5,3.7076326E3,5.319545E5,2.484621E3,2.8378464E3,2.7963298E3,3.1728823E3,4.3125303E3,5.539755E3],"split_indices":[4,1,0,1,9,10,1,0,0,0,0,9,8,0,8,0,0,0,0,0,0],"split_type":[0,0,0,0,0,0,0,0,0,0,0,0,0,0,0,0,0,0,0,0,0],"sum_hessian":[1.874E3,9.32E2,9.42E2,4.97E2,4.35E2,6.61E2,2.81E2,1.25E2,3.72E2,2.78E2,1.57E2,2.64E2,3.97E2,1.6E2,1.21E2,1.8E2,8.4E1,2.08E2,1.89E2,1.05E2,1.6E1],"tree_param":{"num_deleted":"0","num_feature":"13","num_nodes":"21","size_leaf_vector":"0"}},{"base_weights":[4.853467E4,3.9578543E4,6.645536E4,3.3869246E4,4.749721E4,5.9447547E4,8.249822E4,2.9119145E4,3.6436645E4,4.2788434E4,4.9885316E4,5.674135E4,6.660898E4,7.910505E4,1.0295858E5,2.1320082E4,2.9753148E4,3.4301594E4,3.815955E4,4.379804E4,5.2059824E4,4.859229E4,5.8280047E4,2.7941107E4,4.4934984E4],"categories":[],"categories_nodes":[],"categories_segments":[],"categories_sizes":[],"default_left":[1,1,1,1,1,1,1,1,1,0,1,1,0,0,0,0,0,0,0,1,0,0,0,0,0],"id":34,"left_children":[1,3,5,7,9,11,13,15,17,-1,19,21,-1,-1,-1,-1,-1,-1,-1,23,-1,-1,-1,-1,-1],"loss_changes":[2.9525777E11,5.4451765E10,6.446226E10,7.7685064E9,3.679191E9,4.6121615E9,4.6991933E9,6.46316E8,4.052091E8,0E0,2.1807104E9,1.1930173E9,0E0,0E0,0E0,0E0,0E0,0E0,0E0,4.5716275E8,0E0,0E0,0E0,0E0,0E0],"parents":[2147483647,0,0,1,1,2,2,3,3,4,4,5,5,6,6,7,7,8,8,10,10,11,11,19,19],"right_children":[2,4,6,8,10,12,14,16,18,-1,20,22,-1,-1,-1,-1,-1,-1,-1,24,-1,-1,-1,-1,-1],"split_conditions":[2.960015E5,2.26929E5,4.191758E5,1.8520739E5,2.666975E5,3.48386E5,5.049442E5,1.4507158E5,2.092881E5,2.1394216E3,3.295671E1,2.2974945E1,3.330449E3,3.9552524E3,5.147929E3,1.0660042E3,1.4876575E3,1.7150797E3,1.9079775E3,-9.692879E3,2.6029912E3,2.4296145E3,2.9140024E3,1.3970554E3,2.2467493E3],"split_indices":[9,8,1,0,8,8,1,0,1,0,10,10,0,0,0,0,0,0,0,6,0,0,0,0,0],"split_type":[0,0,0,0,0,0,0,0,0,0,0,0,0,0,0,0,0,0,0,0,0,0,0,0,0],"sum_hessian":[1.855E3,1.239E3,6.16E2,7.23E2,5.16E2,4.32E2,1.84E2,2.58E2,4.65E2,1.8E2,3.36E2,3.2E2,1.12E2,1.62E2,2.2E1,2.2E1,2.36E2,2.17E2,2.48E2,9.4E1,2.42E2,5.6E1,2.64E2,8E0,8.6E1],"tree_param":{"num_deleted":"0","num_feature":"13","num_nodes":"25","size_leaf_vector":"0"}},{"base_weights":[4.625291E4,3.6256992E4,6.0606855E4,3.1324533E4,4.2488688E4,5.4765234E4,7.830286E4,2.7247855E4,3.353131E4,3.852237E4,4.558747E4,5.15708E4,6.0722707E4,7.494558E4,9.868108E4,2.0301338E4,2.7746598E4,4.0079727E4,4.7289254E4,4.870412E4,5.5730492E4],"categories":[],"categories_nodes":[],"categories_segments":[],"categories_sizes":[],"default_left":[1,1,1,1,1,1,1,1,0,0,1,1,0,0,0,0,0,0,0,0,0],"id":35,"left_children":[1,3,5,7,9,11,13,15,-1,-1,17,19,-1,-1,-1,-1,-1,-1,-1,-1,-1],"loss_changes":[2.7199459E11,3.3371849E10,7.6653E10,4.790026E9,4.340056E9,8.1347215E9,5.740036E9,2.2662349E8,0E0,0E0,6.6348646E8,1.9601162E9,0E0,0E0,0E0,0E0,0E0,0E0,0E0,0E0,0E0],"parents":[2147483647,0,0,1,1,2,2,3,3,4,4,5,5,6,6,7,7,10,10,11,11],"right_children":[2,4,6,8,10,12,14,16,-1,-1,18,20,-1,-1,-1,-1,-1,-1,-1,-1,-1],"split_conditions":[2.84025E5,2.165243E5,4.192486E5,1.78698E5,2.494069E5,3.13915E5,5.011527E5,1.4507158E5,1.6765654E3,1.9261185E3,3.27437E1,7.323668E1,3.0361355E3,3.747279E3,4.934054E3,1.0150669E3,1.38733E3,2.0039863E3,2.3644626E3,2.435206E3,2.7865247E3],"split_indices":[9,1,1,8,1,9,1,0,0,0,10,10,0,0,0,0,0,0,0,0,0],"split_type":[0,0,0,0,0,0,0,0,0,0,0,0,0,0,0,0,0,0,0,0,0],"sum_hessian":[1.91E3,1.128E3,7.82E2,6.33E2,4.95E2,5.91E2,1.91E2,2.27E2,4.06E2,2.23E2,2.72E2,3.91E2,2E2,1.68E2,2.3E1,1.8E1,2.09E2,7E1,2.02E2,2.39E2,1.52E2],"tree_param":{"num_deleted":"0","num_feature":"13","num_nodes":"21","size_leaf_vector":"0"}},{"base_weights":[4.383442E4,3.529598E4,5.8996465E4,3.005271E4,4.166334E4,5.3385844E4,7.5674805E4,2.5881705E4,3.2165324E4,3.779424E4,4.4475547E4,5.076404E4,6.111453E4,7.195758E4,9.451528E4,1.9212895E4,2.647402E4,2.9905568E4,3.344613E4,3.787716E4,4.5599344E4,4.617371E4,5.3076766E4,2.1013727E4,4.6586332E4],"categories":[],"categories_nodes":[],"categories_segments":[],"categories_sizes":[],"default_left":[1,1,1,1,1,1,1,1,1,0,1,1,0,0,0,0,0,0,0,0,0,1,0,0,0],"id":36,"left_children":[1,3,5,7,9,11,13,15,17,-1,19,21,-1,-1,-1,-1,-1,-1,-1,-1,-1,23,-1,-1,-1],"loss_changes":[2.3741936E11,3.834341E10,5.818784E10,4.9304044E9,4.1184788E9,7.0493143E9,4.7545713E9,3.801088E8,2.4435098E8,0E0,5.1963494E8,1.5834153E9,0E0,0E0,0E0,0E0,0E0,0E0,0E0,0E0,0E0,4.2254336E8,0E0,0E0,0E0],"parents":[2147483647,0,0,1,1,2,2,3,3,4,4,5,5,6,6,7,7,8,8,10,10,11,11,21,21],"right_children":[2,4,6,8,10,12,14,16,18,-1,20,22,-1,-1,-1,-1,-1,-1,-1,-1,-1,24,-1,-1,-1],"split_conditions":[3.015975E5,2.219925E5,4.22159E5,1.784857E5,2.5753931E5,3.445683E5,5.049442E5,1.4507158E5,2.002104E5,1.8897119E3,1.8286617E1,4.072154E1,3.0557266E3,3.597879E3,4.725764E3,9.606447E2,1.323701E3,1.4952784E3,1.6723065E3,1.893858E3,2.2799673E3,-6.2463193E3,2.6538384E3,1.0506864E3,2.3293167E3],"split_indices":[1,8,1,1,1,1,1,0,1,0,10,10,0,0,0,0,0,0,0,0,0,6,0,0,0],"split_type":[0,0,0,0,0,0,0,0,0,0,0,0,0,0,0,0,0,0,0,0,0,0,0,0,0],"sum_hessian":[1.849E3,1.185E3,6.64E2,6.53E2,5.32E2,5E2,1.64E2,2.24E2,4.29E2,2.3E2,3.02E2,3.79E2,1.21E2,1.41E2,2.3E1,2.1E1,2.03E2,1.64E2,2.65E2,4.9E1,2.53E2,1.34E2,2.45E2,3E0,1.31E2],"tree_param":{"num_deleted":"0","num_feature":"13","num_nodes":"25","size_leaf_vector":"0"}},{"base_weights":[4.1478316E4,3.3510754E4,5.543936E4,2.8959889E4,3.9904008E4,4.9430184E4,6.8602664E4,2.549134E4,3.1299521E4,3.674331E4,4.249549E4,4.7184613E4,5.44626E4,6.593334E4,8.999531E4,2.184638E4,2.6623215E4,2.9699277E4,3.2833277E4,4.302876E4,2.6027639E4,4.4618582E4,4.9960793E4,3.027659E4,5.5313266E4,6.01792E4,6.986842E4,3.8834336E4,4.4776234E4],"categories":[],"categories_nodes":[],"categories_segments":[],"categories_sizes":[],"default_left":[1,1,1,1,1,1,1,1,1,0,1,1,1,1,0,0,0,0,0,1,0,0,0,0,0,0,0,0,0],"id":37,"left_children":[1,3,5,7,9,11,13,15,17,-1,19,21,23,25,-1,-1,-1,-1,-1,27,-1,-1,-1,-1,-1,-1,-1,-1,-1],"loss_changes":[2.1015717E11,3.4223686E10,5.126737E10,4.9963336E9,2.558591E9,2.8319416E9,6.286541E9,6.271795E8,6.06208E7,0E0,1.2511478E9,1.7865114E8,1.2262441E9,1.8808832E8,0E0,0E0,0E0,0E0,0E0,1.6685466E8,0E0,0E0,0E0,0E0,0E0,0E0,0E0,0E0,0E0],"parents":[2147483647,0,0,1,1,2,2,3,3,4,4,5,5,6,6,7,7,8,8,10,10,11,11,12,12,13,13,19,19],"right_children":[2,4,6,8,10,12,14,16,18,-1,20,22,24,26,-1,-1,-1,-1,-1,28,-1,-1,-1,-1,-1,-1,-1,-1,-1],"split_conditions":[2.91436E5,2.205918E5,4.0154006E5,1.9094805E5,2.6572884E5,3.3675E5,5.049442E5,1.658153E5,2.114065E5,1.8371654E3,3.1397688E5,6.833088E1,-7.345409E2,1.1892106E3,4.4997656E3,1.0923191E3,1.3311608E3,1.4849639E3,1.641664E3,3.828859E1,1.301382E3,2.2309292E3,2.4980398E3,1.5138295E3,2.7656633E3,3.00896E3,3.4934211E3,1.9417168E3,2.2388118E3],"split_indices":[9,1,0,4,2,8,1,0,1,0,4,10,6,6,0,0,0,0,0,10,0,0,0,0,0,0,0,0,0],"split_type":[0,0,0,0,0,0,0,0,0,0,0,0,0,0,0,0,0,0,0,0,0,0,0,0,0,0,0,0,0],"sum_hessian":[1.905E3,1.215E3,6.9E2,7.13E2,5.02E2,4.77E2,2.13E2,2.92E2,4.21E2,2.33E2,2.69E2,3.37E2,1.4E2,1.93E2,2E1,7.4E1,2.18E2,2.16E2,2.05E2,2.59E2,1E1,1.84E2,1.53E2,6E0,1.34E2,8.5E1,1.08E2,8.3E1,1.76E2],"tree_param":{"num_deleted":"0","num_feature":"13","num_nodes":"29","size_leaf_vector":"0"}},{"base_weights":[3.9554613E4,3.0150936E4,5.0744586E4,2.6120031E4,3.4323086E4,4.4612164E4,6.328913E4,2.1575904E4,2.7286268E4,3.2194932E4,3.7742684E4,4.0737145E4,4.65039E4,5.8605773E4,7.2788164E4,2.5834566E4,2.8877793E4,3.108814E4,3.877385E4,4.401337E4,5.040329E4],"categories":[],"categories_nodes":[],"categories_segments":[],"categories_sizes":[],"default_left":[1,1,1,1,1,1,1,0,1,0,1,0,1,0,0,0,0,0,0,0,0],"id":38,"left_children":[1,3,5,7,9,11,13,-1,15,-1,17,-1,19,-1,-1,-1,-1,-1,-1,-1,-1],"loss_changes":[1.9629631E11,1.6324624E10,6.3104352E10,2.1935555E9,2.4236524E9,2.34999E9,8.146125E9,0E0,2.1046886E8,0E0,7.092634E7,0E0,1.4914028E9,0E0,0E0,0E0,0E0,0E0,0E0,0E0,0E0],"parents":[2147483647,0,0,1,1,2,2,3,3,4,4,5,5,6,6,8,8,10,10,12,12],"right_children":[2,4,6,8,10,12,14,-1,16,-1,18,-1,20,-1,-1,-1,-1,-1,-1,-1,-1],"split_conditions":[2.779269E5,2.160005E5,3.417433E5,1.705771E5,2.478197E5,4.004032E1,4.45862E5,1.0787953E3,6.661238E1,1.6097466E3,1.7839611E1,2.0368573E3,3.23565E5,2.9302888E3,3.6394082E3,1.2917284E3,1.4438896E3,1.5544071E3,1.9386926E3,2.2006687E3,2.5201646E3],"split_indices":[4,8,0,1,1,10,8,0,10,0,10,0,8,0,0,0,0,0,0,0,0],"split_type":[0,0,0,0,0,0,0,0,0,0,0,0,0,0,0,0,0,0,0,0,0],"sum_hessian":[1.879E3,1.023E3,8.56E2,5.24E2,4.99E2,5.78E2,2.78E2,1.11E2,4.13E2,3.14E2,1.85E2,1.97E2,3.81E2,1.91E2,8.7E1,2.25E2,1.88E2,2.9E1,1.56E2,2.4E2,1.41E2],"tree_param":{"num_deleted":"0","num_feature":"13","num_nodes":"21","size_leaf_vector":"0"}},{"base_weights":[3.7632168E4,3.0329562E4,5.0762414E4,2.6347434E4,3.6391746E4,4.5500094E4,6.4403965E4,2.353758E4,2.8971111E4,3.2416193E4,3.816749E4,4.2854562E4,5.016476E4,6.0834008E4,7.827165E4,2.0005094E4,2.4580068E4,3.849558E4,2.378628E4,3.7153527E4,4.3857164E4,2.4177125E4,5.04793E4,5.3496547E4,8.363107E4,3.693691E4,4.1780184E4],"categories":[],"categories_nodes":[],"categories_segments":[],"categories_sizes":[],"default_left":[1,1,1,1,1,1,1,1,0,0,1,1,1,0,1,0,0,1,0,0,0,0,0,0,0,0,0],"id":39,"left_children":[1,3,5,7,9,11,13,15,-1,-1,17,19,21,-1,23,-1,-1,25,-1,-1,-1,-1,-1,-1,-1,-1,-1],"loss_changes":[1.8236781E11,2.8854583E10,4.617129E10,4.839801E9,2.2007644E9,3.9834092E9,4.5457736E9,8.597832E8,0E0,0E0,6.461194E8,2.2249472E8,2.0185088E8,0E0,1.7334272E8,0E0,0E0,1.0528358E8,0E0,0E0,0E0,0E0,0E0,0E0,0E0,0E0,0E0],"parents":[2147483647,0,0,1,1,2,2,3,3,4,4,5,5,6,6,7,7,10,10,11,11,12,12,14,14,17,17],"right_children":[2,4,6,8,10,12,14,16,-1,-1,18,20,22,-1,24,-1,-1,26,-1,-1,-1,-1,-1,-1,-1,-1,-1],"split_conditions":[2.93545E5,2.26929E5,4.191758E5,1.974043E5,2.54611E5,3.3675E5,4.855765E5,1.688895E5,1.4485555E3,1.6208097E3,3.1469925E5,1.9337822E1,5.212551E0,3.0417004E3,1.8377163E3,1.0002547E3,1.2290034E3,8.220657E1,1.189314E3,1.8576764E3,2.1928582E3,1.2088563E3,2.523965E3,2.6748274E3,4.1815537E3,1.8468456E3,2.0890093E3],"split_indices":[9,8,1,1,1,8,1,1,0,0,4,10,10,0,6,0,0,10,0,0,0,0,0,0,0,0,0],"split_type":[0,0,0,0,0,0,0,0,0,0,0,0,0,0,0,0,0,0,0,0,0,0,0,0,0,0,0],"sum_hessian":[1.917E3,1.234E3,6.83E2,7.48E2,4.86E2,4.96E2,1.87E2,3.66E2,3.82E2,1.56E2,3.3E2,3.23E2,1.73E2,1.53E2,3.4E1,8.8E1,2.78E2,3.21E2,9E0,5.4E1,2.69E2,3E0,1.7E2,8E0,2.6E1,2.26E2,9.5E1],"tree_param":{"num_deleted":"0","num_feature":"13","num_nodes":"27","size_leaf_vector":"0"}},{"base_weights":[3.558548E4,2.76283E4,4.6319043E4,2.3983922E4,3.1937037E4,4.072235E4,5.807261E4,2.042009E4,2.538809E4,2.9666525E4,3.481445E4,3.8439895E4,4.3491344E4,5.524938E4,7.440142E4,1.5055847E4,2.0908143E4,1.1488281E4,2.5460193E4,3.11407E4,3.773165E4,3.7050246E4,4.3278027E4,5.0319098E4,5.838935E4,5.0338867E4,7.9666664E4,2.4223555E4,2.6879082E4,3.1929209E4,1.9620299E4],"categories":[],"categories_nodes":[],"categories_segments":[],"categories_sizes":[],"default_left":[1,1,1,1,1,1,1,1,1,0,1,1,0,1,1,0,0,0,1,1,0,0,0,0,0,0,0,0,0,0,0],"id":40,"left_children":[1,3,5,7,9,11,13,15,17,-1,19,21,-1,23,25,-1,-1,-1,27,29,-1,-1,-1,-1,-1,-1,-1,-1,-1,-1,-1],"loss_changes":[1.603139E11,1.6334193E10,5.0523144E10,2.4540938E9,2.2076457E9,1.7916232E9,7.7371146E9,1.3812531E8,1.3044941E8,0E0,1.107755E9,4.740219E8,0E0,5.1412992E8,4.2400154E8,0E0,0E0,0E0,8.409907E7,2.8192768E8,0E0,0E0,0E0,0E0,0E0,0E0,0E0,0E0,0E0,0E0,0E0],"parents":[2147483647,0,0,1,1,2,2,3,3,4,4,5,5,6,6,7,7,8,8,10,10,11,11,13,13,14,14,18,18,19,19],"right_children":[2,4,6,8,10,12,14,16,18,-1,20,22,-1,24,26,-1,-1,-1,28,30,-1,-1,-1,-1,-1,-1,-1,-1,-1,-1,-1],"split_conditions":[2.79195E5,2.148791E5,3.505002E5,1.736407E5,2.496236E5,6.881629E1,4.845488E5,1.447436E5,1.7934288E1,1.4833263E3,6.3463898E1,3.140405E5,2.1745671E3,4.21237E5,1.8377163E3,7.5279236E2,1.0454071E3,5.7441406E2,2.06232E5,2.8552444E5,1.8865824E3,1.8525123E3,2.1639014E3,2.5159548E3,2.9194675E3,2.5169434E3,3.9833333E3,1.2111777E3,1.3439541E3,1.5964604E3,9.8101495E2],"split_indices":[9,1,1,1,1,10,1,0,12,0,10,9,0,1,6,0,0,0,8,2,0,0,0,0,0,0,0,0,0,0,0],"split_type":[0,0,0,0,0,0,0,0,0,0,0,0,0,0,0,0,0,0,0,0,0,0,0,0,0,0,0,0,0,0,0],"sum_hessian":[1.891E3,1.088E3,8.03E2,5.93E2,4.95E2,5.47E2,2.56E2,1.72E2,4.21E2,2.83E2,2.12E2,3.08E2,2.39E2,2.22E2,3.4E1,1.7E1,1.55E2,3E0,4.18E2,9.9E1,1.13E2,2.46E2,6.2E1,9.3E1,1.29E2,8E0,2.6E1,2.33E2,1.85E2,9.1E1,8E0],"tree_param":{"num_deleted":"0","num_feature":"13","num_nodes":"31","size_leaf_vector":"0"}},{"base_weights":[3.3817074E4,2.5364105E4,4.3123867E4,2.1721008E4,2.8476178E4,3.808588E4,5.450936E4,1.904399E4,2.3001467E4,2.6978924E4,3.1317396E4,3.468457E4,3.990449E4,5.0978277E4,6.535836E4,1.466099E4,1.9480852E4,2.5290137E4,2.8552146E4,2.713354E4,3.2547473E4,3.272173E4,3.822112E4,3.7421023E4,4.314993E4,1.187109E4,2.5451422E4],"categories":[],"categories_nodes":[],"categories_segments":[],"categories_sizes":[],"default_left":[1,1,1,1,1,1,1,1,0,1,1,1,1,0,0,0,0,1,0,0,0,0,0,0,0,0,0],"id":41,"left_children":[1,3,5,7,9,11,13,15,-1,17,19,21,23,-1,-1,-1,-1,25,-1,-1,-1,-1,-1,-1,-1,-1,-1],"loss_changes":[1.4641254E11,1.0548937E10,4.9031676E10,1.131905E9,1.4012252E9,2.4572068E9,7.0498386E9,9.265152E6,0E0,2.157609E8,2.2642688E7,3.0426726E8,1.5931802E9,0E0,0E0,0E0,0E0,8.527872E7,0E0,0E0,0E0,0E0,0E0,0E0,0E0,0E0,0E0],"parents":[2147483647,0,0,1,1,2,2,3,3,4,4,5,5,6,6,7,7,9,9,10,10,11,11,12,12,17,17],"right_children":[2,4,6,8,10,12,14,16,-1,18,20,22,24,-1,-1,-1,-1,26,-1,-1,-1,-1,-1,-1,-1,-1,-1],"split_conditions":[2.715771E5,2.066014E5,3.4151022E5,1.7217869E5,2.487225E5,4.2544792E1,4.700756E5,1.4483066E5,1.1500734E3,5.5347958E1,2.7762695E1,3.0475E5,3.202575E5,2.5489138E3,3.267918E3,7.330495E2,9.740426E2,2.03555E1,1.4276073E3,1.356677E3,1.6273737E3,1.6360865E3,1.911056E3,1.8710511E3,2.1574966E3,5.935545E2,1.2725712E3],"split_indices":[1,1,0,1,8,10,1,0,0,10,10,9,8,0,0,0,0,5,0,0,0,0,0,0,0,0,0],"split_type":[0,0,0,0,0,0,0,0,0,0,0,0,0,0,0,0,0,0,0,0,0,0,0,0,0,0,0],"sum_hessian":[1.874E3,9.84E2,8.9E2,4.57E2,5.27E2,6.2E2,2.7E2,1.53E2,3.04E2,3.52E2,1.75E2,2.23E2,3.97E2,2.08E2,6.2E1,1.7E1,1.36E2,1.78E2,1.74E2,4.5E1,1.3E2,1.5E2,7.3E1,2.32E2,1.65E2,3E0,1.75E2],"tree_param":{"num_deleted":"0","num_feature":"13","num_nodes":"27","size_leaf_vector":"0"}},{"base_weights":[3.2209086E4,2.5924764E4,4.342131E4,2.2231873E4,3.0689643E4,3.886916E4,5.4473953E4,1.9024742E4,2.3867922E4,2.8025309E4,3.2770406E4,3.667724E4,4.2909082E4,5.237645E4,7.218961E4,1.3726411E4,1.9371766E4,1.0473184E4,2.393424E4,3.00179E4,3.562527E4,3.3878152E4,3.869284E4,1.8621617E4,4.324598E4,4.7774746E4,5.664059E4,2.21388E4,2.4790389E4,3.0611084E4,2.1229428E4],"categories":[],"categories_nodes":[],"categories_segments":[],"categories_sizes":[],"default_left":[1,1,1,1,1,1,1,1,1,0,1,1,1,1,0,0,0,0,1,1,0,0,0,0,0,0,0,0,0,0,0],"id":42,"left_children":[1,3,5,7,9,11,13,15,17,-1,19,21,23,25,-1,-1,-1,-1,27,29,-1,-1,-1,-1,-1,-1,-1,-1,-1,-1,-1],"loss_changes":[1.3197561E11,2.0661862E10,3.1944606E10,3.1506432E9,2.0032389E9,2.7032945E9,3.4648883E9,1.6984474E8,1.4997914E8,0E0,1.2094341E9,4.9456742E8,5.3660877E8,7.867597E8,0E0,0E0,0E0,0E0,1.3982106E8,1.529774E8,0E0,0E0,0E0,0E0,0E0,0E0,0E0,0E0,0E0,0E0,0E0],"parents":[2147483647,0,0,1,1,2,2,3,3,4,4,5,5,6,6,7,7,8,8,10,10,11,11,12,12,13,13,18,18,19,19],"right_children":[2,4,6,8,10,12,14,16,18,-1,20,22,24,26,-1,-1,-1,-1,28,30,-1,-1,-1,-1,-1,-1,-1,-1,-1,-1,-1],"split_conditions":[2.93995E5,2.232155E5,4.24652E5,1.88725E5,2.6412472E5,3.3675E5,5.322795E5,1.4507158E5,1.8536808E1,1.4012655E3,6.4295166E1,5.7259216E1,2.3946707E1,5.726863E1,3.6094805E3,6.8632056E2,9.685883E2,5.236592E2,2.062845E5,3.145972E5,1.7812635E3,1.6939076E3,1.934642E3,9.310809E2,2.162299E3,2.3887373E3,2.8320295E3,1.1069401E3,1.2395194E3,1.5305542E3,1.0614714E3],"split_indices":[9,8,8,8,0,8,8,0,12,0,10,10,12,10,0,0,0,0,8,4,0,0,0,0,0,0,0,0,0,0,0],"split_type":[0,0,0,0,0,0,0,0,0,0,0,0,0,0,0,0,0,0,0,0,0,0,0,0,0,0,0,0,0,0,0],"sum_hessian":[1.888E3,1.212E3,6.76E2,6.86E2,5.26E2,4.82E2,1.94E2,2.36E2,4.5E2,2.37E2,2.89E2,3.19E2,1.63E2,1.77E2,1.7E1,1.7E1,2.19E2,3E0,4.47E2,1.53E2,1.36E2,1.41E2,1.78E2,3E0,1.6E2,9.1E1,8.6E1,1.53E2,2.94E2,1.41E2,1.2E1],"tree_param":{"num_deleted":"0","num_feature":"13","num_nodes":"31","size_leaf_vector":"0"}},{"base_weights":[3.0815646E4,2.5917404E4,4.395683E4,2.1844332E4,3.1729434E4,3.9471395E4,5.4206773E4,1.920984E4,2.4156074E4,2.838917E4,3.2900133E4,3.6912254E4,4.303975E4,5.0693707E4,6.7154766E4,1.6332123E4,2.0043457E4,2.2827084E4,2.5796518E4,2.536939E4,3.0267371E4,2.908242E4,3.374528E4,2.8278855E4,3.787904E4,3.1757203E4,6.991163E4,9.45294E3,1.6615566E4,1.7861025E4,2.0723033E4],"categories":[],"categories_nodes":[],"categories_segments":[],"categories_sizes":[],"default_left":[1,1,1,1,1,1,1,1,1,1,1,1,0,0,1,1,1,0,0,0,0,0,0,0,0,0,0,0,0,0,0],"id":43,"left_children":[1,3,5,7,9,11,13,15,17,19,21,23,-1,-1,25,27,29,-1,-1,-1,-1,-1,-1,-1,-1,-1,-1,-1,-1,-1,-1],"loss_changes":[1.2199815E11,3.235414E10,2.1675704E10,4.554326E9,1.3066568E9,1.7353277E9,3.6461937E9,6.082232E8,3.595141E8,1.1692442E8,3.672965E8,7.567442E8,0E0,0E0,7.073874E8,2.42688E7,7.183565E7,0E0,0E0,0E0,0E0,0E0,0E0,0E0,0E0,0E0,0E0,0E0,0E0,0E0,0E0],"parents":[2147483647,0,0,1,1,2,2,3,3,4,4,5,5,6,6,7,7,8,8,9,9,10,10,11,11,14,14,15,15,16,16],"right_children":[2,4,6,8,10,12,14,16,18,20,22,24,-1,-1,26,28,30,-1,-1,-1,-1,-1,-1,-1,-1,-1,-1,-1,-1,-1,-1],"split_conditions":[3.150472E5,2.4536025E5,4.2574888E5,1.99834E5,2.7965149E1,3.444314E5,4.8973E5,1.6967378E5,6.4722946E1,2.738975E5,2.6663138E5,1.7648548E1,2.1519875E3,2.5346853E3,-2.1069739E3,1.3947716E5,3.2671898E1,1.1413542E3,1.2898259E3,1.2684696E3,1.5133685E3,1.454121E3,1.687264E3,1.4139427E3,1.893952E3,1.5878602E3,3.4955818E3,4.7264703E2,8.307783E2,8.930513E2,1.0361517E3],"split_indices":[1,0,1,1,10,1,1,4,10,9,0,10,0,0,6,0,10,0,0,0,0,0,0,0,0,0,0,0,0,0,0],"split_type":[0,0,0,0,0,0,0,0,0,0,0,0,0,0,0,0,0,0,0,0,0,0,0,0,0,0,0,0,0,0,0],"sum_hessian":[1.912E3,1.395E3,5.17E2,8.23E2,5.72E2,3.63E2,1.54E2,3.89E2,4.34E2,1.55E2,4.17E2,2.18E2,1.45E2,1.25E2,2.9E1,9.2E1,2.97E2,2.48E2,1.86E2,6.5E1,9E1,8.2E1,3.35E2,2.5E1,1.93E2,3E0,2.6E1,5E0,8.7E1,7.7E1,2.2E2],"tree_param":{"num_deleted":"0","num_feature":"13","num_nodes":"31","size_leaf_vector":"0"}},{"base_weights":[2.9262275E4,2.2666629E4,3.8458906E4,1.9285072E4,2.6118797E4,3.4748332E4,4.989598E4,1.6726441E4,2.0588596E4,2.412284E4,2.8634336E4,3.2568668E4,3.848694E4,4.7810273E4,6.615101E4,1.231896E4,1.705341E4,1.9286363E4,2.1884836E4,2.892485E4,9.54381E3,3.0819787E4,3.5416918E4,1.7918469E4,3.869446E4,4.2429773E4,5.0839453E4,2.6930688E4,3.1122207E4],"categories":[],"categories_nodes":[],"categories_segments":[],"categories_sizes":[],"default_left":[1,1,1,1,1,1,1,1,1,0,1,1,1,1,0,0,0,0,0,1,0,0,0,0,0,0,0,0,0],"id":44,"left_children":[1,3,5,7,9,11,13,15,17,-1,19,21,23,25,-1,-1,-1,-1,-1,27,-1,-1,-1,-1,-1,-1,-1,-1,-1],"loss_changes":[1.1334687E11,1.2325683E10,3.1580094E10,1.5200092E9,2.0255539E9,3.6033004E9,3.27893E9,6.949683E7,1.9573965E8,0E0,1.021739E9,8.162509E8,2.2010266E8,6.462177E8,0E0,0E0,0E0,0E0,0E0,1.696727E8,0E0,0E0,0E0,0E0,0E0,0E0,0E0,0E0,0E0],"parents":[2147483647,0,0,1,1,2,2,3,3,4,4,5,5,6,6,7,7,8,8,10,10,11,11,12,12,13,13,19,19],"right_children":[2,4,6,8,10,12,14,16,18,-1,20,22,24,26,-1,-1,-1,-1,-1,28,-1,-1,-1,-1,-1,-1,-1,-1,-1],"split_conditions":[2.937819E5,2.139205E5,4.191758E5,1.7433069E5,2.4974681E5,3.124725E5,5.322795E5,1.4483066E5,6.305986E1,1.206142E3,3.1469925E5,7.743007E1,3.6911294E0,4.991652E1,3.3075505E3,6.15948E2,8.5267053E2,9.643182E2,1.0942418E3,6.856087E1,4.771905E2,1.5409894E3,1.770846E3,8.9592346E2,1.934723E3,2.1214888E3,2.5419727E3,1.3465344E3,1.5561104E3],"split_indices":[1,1,1,1,1,9,8,0,10,0,4,10,10,10,0,0,0,0,0,10,0,0,0,0,0,0,0,0,0],"split_type":[0,0,0,0,0,0,0,0,0,0,0,0,0,0,0,0,0,0,0,0,0,0,0,0,0,0,0,0,0],"sum_hessian":[1.882E3,1.098E3,7.84E2,5.58E2,5.4E2,5.95E2,1.89E2,1.93E2,3.65E2,3.07E2,2.33E2,3.82E2,2.13E2,1.71E2,1.8E1,1.6E1,1.77E2,1.9E2,1.75E2,2.29E2,4E0,2.44E2,1.38E2,3E0,2.1E2,6.7E1,1.04E2,1.27E2,1.02E2],"tree_param":{"num_deleted":"0","num_feature":"13","num_nodes":"29","size_leaf_vector":"0"}},{"base_weights":[2.769703E4,2.1744701E4,3.66523E4,1.850818E4,2.5324266E4,3.295813E4,4.7101383E4,1.6214848E4,1.9804246E4,2.3211814E4,2.7220938E4,3.1490342E4,3.749185E4,4.4955227E4,6.4276637E4,1.3338235E4,1.6705172E4,1.8684787E4,2.1223473E4,2.7399729E4,1.2122021E4,2.9352742E4,3.389673E4,4.0525547E4,4.9116594E4,8.5011875E3,1.8787344E4,2.5791113E4,2.9438746E4],"categories":[],"categories_nodes":[],"categories_segments":[],"categories_sizes":[],"default_left":[1,1,1,1,1,1,1,1,1,0,1,1,0,1,0,0,0,1,0,1,0,0,0,0,0,0,0,0,0],"id":45,"left_children":[1,3,5,7,9,11,13,15,17,-1,19,21,-1,23,-1,-1,-1,25,-1,27,-1,-1,-1,-1,-1,-1,-1,-1,-1],"loss_changes":[9.872291E10,1.2553257E10,2.7166573E10,1.4444298E9,1.4956298E9,2.4993464E9,4.1876849E9,8.748646E7,1.9922944E8,0E0,4.07552E8,1.1860378E9,0E0,1.2169708E9,0E0,0E0,0E0,6.796083E7,0E0,1.2633702E8,0E0,0E0,0E0,0E0,0E0,0E0,0E0,0E0,0E0],"parents":[2147483647,0,0,1,1,2,2,3,3,4,4,5,5,6,6,7,7,8,8,10,10,11,11,13,13,17,17,19,19],"right_children":[2,4,6,8,10,12,14,16,18,-1,20,22,-1,24,-1,-1,-1,26,-1,28,-1,-1,-1,-1,-1,-1,-1,-1,-1],"split_conditions":[2.84025E5,2.148791E5,4.27333E5,1.757381E5,2.494181E5,3.4525E5,5.322795E5,1.5303572E5,6.4609985E1,1.1605907E3,3.16048E5,6.912331E1,1.8745927E3,5.726863E1,3.2138318E3,6.669118E2,8.352586E2,1.7934288E1,1.0611737E3,7.825E1,6.061011E2,1.4676371E3,1.6948365E3,2.0262773E3,2.4558298E3,4.250594E2,9.393672E2,1.2895557E3,1.4719374E3],"split_indices":[9,1,8,1,1,8,8,0,10,0,4,10,0,10,0,0,0,12,0,10,0,0,0,0,0,0,0,0,0],"split_type":[0,0,0,0,0,0,0,0,0,0,0,0,0,0,0,0,0,0,0,0,0,0,0,0,0,0,0,0,0],"sum_hessian":[1.866E3,1.123E3,7.43E2,5.93E2,5.3E2,5.52E2,1.91E2,2.19E2,3.74E2,2.57E2,2.73E2,4.23E2,1.29E2,1.73E2,1.8E1,3.6E1,1.83E2,2.17E2,1.57E2,2.69E2,4E0,2.31E2,1.92E2,8.9E1,8.4E1,3E0,2.14E2,1.58E2,1.11E2],"tree_param":{"num_deleted":"0","num_feature":"13","num_nodes":"29","size_leaf_vector":"0"}},{"base_weights":[2.6213123E4,2.2374213E4,3.824317E4,1.8859406E4,2.7156432E4,3.3958402E4,4.6338723E4,1.6629775E4,2.0775467E4,2.5784984E4,3.0403242E4,3.1927652E4,3.6744758E4,4.353469E4,5.7811805E4,1.4154921E4,1.7361049E4,1.9446781E4,2.230999E4,2.3190344E4,2.6842604E4,2.6814191E4,3.2281809E4,3.6564375E4,4.559273E4,1.5340278E4,1.791752E4,2.3456023E4,1.1803987E4,2.7026477E4,1.6821938E4],"categories":[],"categories_nodes":[],"categories_segments":[],"categories_sizes":[],"default_left":[1,1,1,1,1,1,1,1,1,1,1,0,0,1,0,0,1,0,0,1,1,0,0,0,0,0,0,0,0,0,0],"id":46,"left_children":[1,3,5,7,9,11,13,15,17,19,21,-1,-1,23,-1,-1,25,-1,-1,27,29,-1,-1,-1,-1,-1,-1,-1,-1,-1,-1],"loss_changes":[8.53204E10,2.3305585E10,1.4035845E10,3.1576228E9,1.8788516E9,5.130158E8,2.4053023E9,4.492165E8,4.5714637E8,5.4929E8,2.9406003E8,0E0,0E0,1.5476326E8,0E0,0E0,5.350195E7,0E0,0E0,1.1941478E8,9.260237E7,0E0,0E0,0E0,0E0,0E0,0E0,0E0,0E0,0E0,0E0],"parents":[2147483647,0,0,1,1,2,2,3,3,4,4,5,5,6,6,7,7,8,8,9,9,10,10,13,13,16,16,19,19,20,20],"right_children":[2,4,6,8,10,12,14,16,18,20,22,-1,-1,24,-1,-1,26,-1,-1,28,30,-1,-1,-1,-1,-1,-1,-1,-1,-1,-1],"split_conditions":[3.05425E5,2.4536025E5,4.346115E5,2.002465E5,8.152547E1,3.444314E5,4.874708E5,1.69552E5,6.4047585E1,2.7733622E5,2.847875E5,1.5963827E3,1.8372379E3,3.143423E1,2.8905903E3,7.0774603E2,3.315359E1,9.7233905E2,1.1154995E3,2.894848E5,3.2966E5,1.3407096E3,1.6140905E3,1.8282188E3,2.2796365E3,7.670139E2,8.95876E2,1.1728011E3,5.901994E2,1.3513239E3,8.4109686E2],"split_indices":[9,0,8,1,10,1,1,1,10,4,8,0,0,10,0,0,10,0,0,1,4,0,0,0,0,0,0,0,0,0,0],"split_type":[0,0,0,0,0,0,0,0,0,0,0,0,0,0,0,0,0,0,0,0,0,0,0,0,0,0,0,0,0,0,0],"sum_hessian":[1.865E3,1.416E3,4.49E2,8.19E2,5.97E2,2.97E2,1.52E2,3.83E2,4.36E2,4.26E2,1.71E2,1.79E2,1.18E2,1.26E2,2.6E1,9.2E1,2.91E2,2.41E2,1.95E2,1.3E2,2.96E2,6.4E1,1.07E2,3.3E1,9.3E1,6.9E1,2.22E2,1.26E2,4E0,2.89E2,7E0],"tree_param":{"num_deleted":"0","num_feature":"13","num_nodes":"31","size_leaf_vector":"0"}},{"base_weights":[2.5081639E4,2.1049354E4,3.6064656E4,1.7905309E4,2.5741484E4,3.2005438E4,4.3921656E4,1.596069E4,2.018325E4,2.4578537E4,2.847857E4,3.0102443E4,3.5138008E4,4.081984E4,5.354056E4,1.3783734E4,1.6768967E4,1.869197E4,2.1350562E4,2.2345799E4,2.5788982E4,2.5057508E4,3.0013955E4,2.4774863E4,3.1136346E4,3.513958E4,4.308019E4,3.8757473E4,5.8872848E4,7.0684624E3,1.3943353E4,1.5677894E4,1.8116172E4,2.2586588E4,8.151168E3,2.5521146E4,1.1678031E4,1.6729238E4,2.701495E4],"categories":[],"categories_nodes":[],"categories_segments":[],"categories_sizes":[],"default_left":[1,1,1,1,1,1,1,1,1,1,1,1,0,1,1,1,1,0,0,1,0,0,0,1,0,0,0,0,0,0,0,0,0,0,0,1,0,0,0],"id":47,"left_children":[1,3,5,7,9,11,13,15,17,19,21,23,-1,25,27,29,31,-1,-1,33,-1,-1,-1,35,-1,-1,-1,-1,-1,-1,-1,-1,-1,-1,-1,37,-1,-1,-1],"loss_changes":[8.258834E10,1.9882443E10,1.466853E10,3.350102E9,1.0539172E9,9.452585E8,2.856747E9,5.641994E8,2.5893274E8,4.885545E8,7.784038E7,4.1836544E8,0E0,1.8097766E8,7.1368704E8,3.8639616E7,1.9369165E8,0E0,0E0,3.1490867E8,0E0,0E0,0E0,9.291981E7,0E0,0E0,0E0,0E0,0E0,0E0,0E0,0E0,0E0,0E0,0E0,3.39968E7,0E0,0E0,0E0],"parents":[2147483647,0,0,1,1,2,2,3,3,4,4,5,5,6,6,7,7,8,8,9,9,10,10,11,11,13,13,14,14,15,15,16,16,19,19,23,23,35,35],"right_children":[2,4,6,8,10,12,14,16,18,20,22,24,-1,26,28,30,32,-1,-1,34,-1,-1,-1,36,-1,-1,-1,-1,-1,-1,-1,-1,-1,-1,-1,38,-1,-1,-1],"split_conditions":[3.150472E5,2.46916E5,4.346115E5,2.0592056E5,8.2248474E1,3.4174053E5,4.851257E5,1.711191E5,5.183999E1,2.8150922E5,2.857875E5,2.2974945E1,1.7569004E3,3.7162445E1,4.5708174E3,1.3946098E5,6.96434E1,9.345986E2,1.0675282E3,2.8552444E5,1.2894491E3,1.2528754E3,1.5006978E3,5.887712E1,1.5568173E3,1.7569789E3,2.1540095E3,1.9378737E3,2.9436423E3,3.5342313E2,6.9716766E2,7.838947E2,9.058086E2,1.1293295E3,4.075584E2,-1.4958293E3,5.8390155E2,8.364619E2,1.3507474E3],"split_indices":[1,1,8,3,10,4,1,1,10,4,8,10,0,10,6,0,10,0,0,2,0,0,0,11,0,0,0,0,0,0,0,0,0,0,0,6,0,0,0],"split_type":[0,0,0,0,0,0,0,0,0,0,0,0,0,0,0,0,0,0,0,0,0,0,0,0,0,0,0,0,0,0,0,0,0,0,0,0,0,0,0],"sum_hessian":[1.881E3,1.378E3,5.03E2,8.28E2,5.5E2,3.35E2,1.68E2,4.51E2,3.77E2,3.93E2,1.57E2,2.15E2,1.2E2,1.31E2,3.7E1,1.27E2,3.24E2,1.73E2,2.04E2,1.45E2,2.48E2,5.4E1,1.03E2,3.9E1,1.76E2,4.2E1,8.9E1,1.2E1,2.5E1,4E0,1.23E2,1.86E2,1.38E2,1.42E2,3E0,3.6E1,3E0,7E0,2.9E1],"tree_param":{"num_deleted":"0","num_feature":"13","num_nodes":"39","size_leaf_vector":"0"}},{"base_weights":[2.3690768E4,1.92442E4,3.2682758E4,1.6012952E4,2.2486086E4,2.9491795E4,4.164871E4,1.4114547E4,1.726958E4,2.0497324E4,2.4280887E4,2.7441348E4,3.2331742E4,3.923369E4,5.0007266E4,1.0587514E4,1.4467222E4,6.7521875E3,1.7336426E4,1.8762002E4,2.1623195E4,2.468892E4,1.3569812E4,2.2916945E4,2.8122637E4,1.4000984E4,3.2555738E4,3.382893E4,4.1853082E4,2.383411E4,5.189297E4,1.6553775E4,1.8612494E4,2.3642365E4,2.7198275E4,1.8053424E4,7.950424E3,2.4825537E4,2.9078994E4,2.3766479E4,1.0843391E4,2.3751484E3,1.082056E4],"categories":[],"categories_nodes":[],"categories_segments":[],"categories_sizes":[],"default_left":[1,1,1,1,1,1,1,1,1,1,1,1,1,1,1,0,0,0,1,0,0,1,1,0,1,0,0,0,0,0,0,0,0,1,0,0,1,0,0,0,0,0,0],"id":48,"left_children":[1,3,5,7,9,11,13,15,17,19,21,23,25,27,29,-1,-1,-1,31,-1,-1,33,35,-1,37,-1,-1,-1,-1,-1,-1,-1,-1,39,-1,-1,41,-1,-1,-1,-1,-1,-1],"loss_changes":[7.386032E10,1.2723585E10,1.636683E10,1.2567839E9,1.7189437E9,1.7739612E9,1.2476088E9,1.652654E8,1.4588314E8,1.8238669E8,1.06789274E9,1.9392102E8,3.079045E8,3.962798E8,3.425321E8,0E0,0E0,0E0,6.241485E7,0E0,0E0,1.6582246E8,2.0919987E8,0E0,9.650176E6,0E0,0E0,0E0,0E0,0E0,0E0,0E0,0E0,9.972122E7,0E0,0E0,1.0231392E8,0E0,0E0,0E0,0E0,0E0,0E0],"parents":[2147483647,0,0,1,1,2,2,3,3,4,4,5,5,6,6,7,7,8,8,9,9,10,10,11,11,12,12,13,13,14,14,18,18,21,21,22,22,24,24,33,33,36,36],"right_children":[2,4,6,8,10,12,14,16,18,20,22,24,26,28,30,-1,-1,-1,32,-1,-1,34,36,-1,38,-1,-1,-1,-1,-1,-1,-1,-1,40,-1,-1,42,-1,-1,-1,-1,-1,-1],"split_conditions":[2.960015E5,2.16494E5,4.346115E5,1.859206E5,2.63462E5,3.3675E5,4.851257E5,1.489988E5,1.8536808E1,5.4407322E1,3.1480488E5,1.6396263E1,1.7031054E0,4.848664E1,9.308236E0,5.293757E2,7.233611E2,3.3760938E2,6.9273674E1,9.381001E2,1.0811598E3,8.291795E1,3.1373533E1,1.1458473E3,3.171165E5,7.0004926E2,1.627787E3,1.6914465E3,2.092654E3,1.1917054E3,2.5946484E3,8.276888E2,9.306247E2,3.1208128E5,1.3599138E3,9.026712E2,1.5256088E1,1.2412769E3,1.4539497E3,1.188324E3,5.4216956E2,1.1875742E2,5.41028E2],"split_indices":[9,1,8,2,1,8,1,0,12,10,4,10,10,10,11,0,0,0,10,0,0,10,5,0,8,0,0,0,0,0,0,0,0,0,0,0,11,0,0,0,0,0,0],"split_type":[0,0,0,0,0,0,0,0,0,0,0,0,0,0,0,0,0,0,0,0,0,0,0,0,0,0,0,0,0,0,0,0,0,0,0,0,0,0,0,0,0,0,0],"sum_hessian":[1.862E3,1.248E3,6.14E2,6.28E2,6.2E2,4.56E2,1.58E2,2.55E2,3.73E2,3E2,3.2E2,2.71E2,1.85E2,1.27E2,3.1E1,2.6E1,2.29E2,3E0,3.7E2,1.25E2,1.75E2,3.07E2,1.3E1,4E1,2.31E2,3E0,1.82E2,4.6E1,8.1E1,3E0,2.8E1,2.38E2,1.32E2,2.24E2,8.3E1,6E0,7E0,5.8E1,1.73E2,2.21E2,3E0,3E0,4E0],"tree_param":{"num_deleted":"0","num_feature":"13","num_nodes":"43","size_leaf_vector":"0"}},{"base_weights":[2.2556658E4,1.8895652E4,3.2575104E4,1.6049889E4,2.3048973E4,2.8917383E4,3.9596535E4,1.4074058E4,1.779719E4,2.0755242E4,2.4129496E4,2.719518E4,3.1470572E4,3.746486E4,4.9297527E4,1.2008707E4,1.4789756E4,1.6889115E4,1.9307225E4,1.7470736E4,2.1772762E4,2.1787357E4,2.5350256E4,2.024569E4,2.8020402E4,3.3869477E4,4.088457E4,5.3506914E4,3.2085695E4,7.236385E3,1.2267814E4,1.3007436E4,1.5262681E4,9.028306E3,1.7026297E4,1.8367143E4,1.0468705E4,2.1948637E4,1.0261852E4,2.1163236E4,9.908375E3,1.1040621E4,4.758914E3,2.2294205E4,1.0217586E4],"categories":[],"categories_nodes":[],"categories_segments":[],"categories_sizes":[],"default_left":[1,1,1,1,1,1,1,1,1,1,1,1,0,1,1,1,1,1,0,1,1,0,0,1,0,0,0,0,0,0,0,0,0,1,0,0,0,0,0,1,0,0,0,0,0],"id":49,"left_children":[1,3,5,7,9,11,13,15,17,19,21,23,-1,25,27,29,31,33,-1,35,37,-1,-1,39,-1,-1,-1,-1,-1,-1,-1,-1,-1,41,-1,-1,-1,-1,-1,43,-1,-1,-1,-1,-1],"loss_changes":[6.9878874E10,1.6295363E10,1.2030083E10,2.6495222E9,9.143583E8,6.435635E8,1.7306092E9,4.1218048E8,2.8000256E8,2.5460736E8,5.398856E8,6.427607E8,0E0,4.1033728E8,3.118244E8,4.4773376E7,4.7599616E7,1.5254323E8,0E0,1.215529E8,6.022349E7,0E0,0E0,3.691725E7,0E0,0E0,0E0,0E0,0E0,0E0,0E0,0E0,0E0,7.598144E6,0E0,0E0,0E0,0E0,0E0,5.6928256E7,0E0,0E0,0E0,0E0,0E0],"parents":[2147483647,0,0,1,1,2,2,3,3,4,4,5,5,6,6,7,7,8,8,9,9,10,10,11,11,13,13,14,14,15,15,16,16,17,17,19,19,20,20,23,23,33,33,39,39],"right_children":[2,4,6,8,10,12,14,16,18,20,22,24,-1,26,28,30,32,34,-1,36,38,-1,-1,40,-1,-1,-1,-1,-1,-1,-1,-1,-1,42,-1,-1,-1,-1,-1,44,-1,-1,-1,-1,-1],"split_conditions":[3.150472E5,2.45653E5,4.205127E5,2.053945E5,3.656084E1,3.4875E5,4.895555E5,1.6947119E5,7.1734634E1,2.6135E5,2.86475E5,1.7648548E1,1.5735287E3,6.31392E1,5.182448E5,1.398839E5,3.013666E1,2.2938198E1,9.6536127E2,2.701373E5,3.261427E5,1.0893679E3,1.2675128E3,5.067475E1,1.4010201E3,1.6934739E3,2.0442285E3,2.6753457E3,1.6042848E3,3.6181924E2,6.1339075E2,6.5037177E2,7.6313403E2,-6.0100745E2,8.513149E2,9.183571E2,5.2343524E2,1.0974319E3,5.130926E2,3.288712E5,4.9541876E2,5.5203107E2,2.3794571E2,1.1147103E3,5.108793E2],"split_indices":[1,1,1,8,10,8,1,1,10,9,8,10,0,10,4,0,10,12,0,1,4,0,0,11,0,0,0,0,0,0,0,0,0,7,0,0,0,0,0,1,0,0,0,0,0],"split_type":[0,0,0,0,0,0,0,0,0,0,0,0,0,0,0,0,0,0,0,0,0,0,0,0,0,0,0,0,0,0,0,0,0,0,0,0,0,0,0,0,0,0,0,0,0],"sum_hessian":[1.921E3,1.409E3,5.12E2,8.39E2,5.7E2,3.4E2,1.72E2,3.98E2,4.41E2,1.89E2,3.81E2,2.1E2,1.3E2,1.45E2,2.7E1,1.07E2,2.91E2,2.83E2,1.58E2,4.9E1,1.4E2,1.37E2,2.44E2,2.5E1,1.85E2,7.6E1,6.9E1,2E1,7E0,7E0,1E2,6.7E1,2.24E2,6E0,2.77E2,4.2E1,7E0,1.37E2,3E0,2.2E1,3E0,3E0,3E0,1.9E1,3E0],"tree_param":{"num_deleted":"0","num_feature":"13","num_nodes":"45","size_leaf_vector":"0"}},{"base_weights":[2.158352E4,1.722171E4,2.9182043E4,1.4484597E4,2.0132357E4,2.5927445E4,3.7129105E4,1.2606461E4,1.5584796E4,1.8475592E4,2.1986008E4,2.3377697E4,2.7986715E4,3.3623625E4,4.4219695E4,1.0250637E4,1.303714E4,1.4686435E4,1.6747408E4,1.6923053E4,1.9463646E4,1.9854826E4,2.3175922E4,2.1343682E4,2.5421346E4,2.5405062E4,2.9965852E4,2.7692281E4,3.540486E4,3.1836498E4,4.655493E4,6.241996E3,1.4771663E4,2.0174713E4,1.1320872E4,1.0790219E4,2.5739645E4,1.385584E4,1.5981269E4],"categories":[],"categories_nodes":[],"categories_segments":[],"categories_sizes":[],"default_left":[1,1,1,1,1,1,1,1,1,1,1,1,1,1,1,0,0,1,0,0,0,1,0,0,1,0,0,0,0,0,0,0,1,0,0,0,0,0,0],"id":50,"left_children":[1,3,5,7,9,11,13,15,17,19,21,23,25,27,29,-1,-1,31,-1,-1,-1,33,-1,-1,35,-1,-1,-1,-1,-1,-1,-1,37,-1,-1,-1,-1,-1,-1],"loss_changes":[6.197261E10,9.268527E9,1.6780362E10,1.0887905E9,1.371947E9,1.9185336E9,3.409789E9,1.0479206E8,1.5928525E8,1.4921728E8,2.1947187E8,3.926999E8,5.978358E8,4.564091E8,3.1075533E8,0E0,0E0,7.1168E7,0E0,0E0,0E0,5.278515E7,0E0,0E0,2.205696E8,0E0,0E0,0E0,0E0,0E0,0E0,0E0,2.6710016E7,0E0,0E0,0E0,0E0,0E0,0E0],"parents":[2147483647,0,0,1,1,2,2,3,3,4,4,5,5,6,6,7,7,8,8,9,9,10,10,11,11,12,12,13,13,14,14,17,17,21,21,24,24,32,32],"right_children":[2,4,6,8,10,12,14,16,18,20,22,24,26,28,30,-1,-1,32,-1,-1,-1,34,-1,-1,36,-1,-1,-1,-1,-1,-1,-1,38,-1,-1,-1,-1,-1,-1],"split_conditions":[3.017027E5,2.165985E5,4.27333E5,1.8021494E5,2.667708E5,6.506828E1,4.705858E5,1.5303572E5,6.463272E1,5.4407322E1,4.3010365E1,3.105655E5,3.129558E5,3.733303E1,1.5237964E2,5.1253186E2,6.51857E2,1.8536808E1,8.373704E2,8.4615265E2,9.731823E2,3.1790194E5,1.1587961E3,1.0671841E3,3.179858E5,1.2702532E3,1.4982926E3,1.3846141E3,1.770243E3,1.591825E3,2.3277466E3,3.1209982E2,2.1505E5,1.00873566E3,5.6604364E2,5.395109E2,1.2869823E3,6.92792E2,7.990634E2],"split_indices":[1,1,8,0,4,10,1,0,10,10,10,9,4,5,6,0,0,12,0,0,0,4,0,0,0,0,0,0,0,0,0,0,8,0,0,0,0,0,0],"split_type":[0,0,0,0,0,0,0,0,0,0,0,0,0,0,0,0,0,0,0,0,0,0,0,0,0,0,0,0,0,0,0,0,0,0,0,0,0,0,0],"sum_hessian":[1.884E3,1.199E3,6.85E2,6.21E2,5.78E2,4.89E2,1.96E2,2.34E2,3.87E2,3.11E2,2.67E2,2.24E2,2.65E2,1.35E2,6.1E1,4E1,1.94E2,2.26E2,1.61E2,1.28E2,1.83E2,1.02E2,1.65E2,1.18E2,1.06E2,1.21E2,1.44E2,3.5E1,1E2,1.2E1,4.9E1,3E0,2.23E2,9.7E1,5E0,3E0,1.03E2,1.34E2,8.9E1],"tree_param":{"num_deleted":"0","num_feature":"13","num_nodes":"39","size_leaf_vector":"0"}},{"base_weights":[2.0330148E4,1.6774729E4,2.846751E4,1.4532283E4,2.0574906E4,2.5099623E4,3.5053453E4,1.2429369E4,1.5752254E4,2.0677719E4,3.0935977E3,2.2733314E4,2.6867578E4,3.2262037E4,4.056382E4,1.0368003E4,1.2906754E4,1.4792428E4,1.7105145E4,1.7546482E4,2.1307107E4,1.9053178E4,2.3915193E4,2.3922172E4,2.8370348E4,2.594674E4,3.3726906E4,2.2416969E4,4.145972E4,5.67355E3,1.0590108E4,1.1146328E4,1.3355324E4,1.3303344E4,1.5621909E4,6.3289023E3,1.7875686E4,1.9090031E4,2.2074895E4,1.4324705E4,2.428145E4,1.3503443E4,4.2246367E3,1.8343842E4,1.1988183E4,2.155505E4,2.5809709E4],"categories":[],"categories_nodes":[],"categories_segments":[],"categories_sizes":[],"default_left":[1,1,1,1,1,1,1,1,1,1,0,1,1,1,1,1,1,1,0,1,1,0,1,0,0,0,0,0,0,0,0,0,0,1,0,0,1,0,1,0,0,0,0,0,0,0,0],"id":51,"left_children":[1,3,5,7,9,11,13,15,17,19,-1,21,23,25,27,29,31,33,-1,35,37,-1,39,-1,-1,-1,-1,-1,-1,-1,-1,-1,-1,41,-1,-1,43,-1,45,-1,-1,-1,-1,-1,-1,-1,-1],"loss_changes":[5.3798437E10,1.0847388E10,1.1741004E10,1.9233014E9,8.041267E8,9.789604E8,1.6138404E9,1.692754E8,4.2091315E8,5.721129E8,0E0,2.7939635E8,2.5967002E8,3.367895E8,4.607181E7,5.604352E6,4.5400064E7,1.7631642E8,0E0,2.0445184E8,2.5097011E8,0E0,8.773632E7,0E0,0E0,0E0,0E0,0E0,0E0,0E0,0E0,0E0,0E0,1.5731917E8,0E0,0E0,8.861696E6,0E0,8.84736E5,0E0,0E0,0E0,0E0,0E0,0E0,0E0,0E0],"parents":[2147483647,0,0,1,1,2,2,3,3,4,4,5,5,6,6,7,7,8,8,9,9,11,11,12,12,13,13,14,14,15,15,16,16,17,17,19,19,20,20,22,22,33,33,36,36,38,38],"right_children":[2,4,6,8,10,12,14,16,18,20,-1,22,24,26,28,30,32,34,-1,36,38,-1,40,-1,-1,-1,-1,-1,-1,-1,-1,-1,-1,42,-1,-1,44,-1,46,-1,-1,-1,-1,-1,-1,-1,-1],"split_conditions":[3.092294E5,2.49185E5,4.262175E5,1.913615E5,3.2183625E5,6.5091156E1,4.676939E5,1.6083566E5,6.9273674E1,1.8286617E1,1.5467989E2,3.05625E5,3.26675E5,3.733303E1,8.425154E0,1.39909E5,2.8409472E1,2.081455E5,8.5525726E2,-1.2691698E4,2.696257E5,9.526589E2,6.019862E-1,1.1961086E3,1.4185175E3,1.297337E3,1.6863453E3,1.1208485E3,2.072986E3,2.836775E2,5.2950543E2,5.573164E2,6.6776624E2,2.133199E5,7.8109546E2,3.1644513E2,2.6546246E1,9.545016E2,9.1992645E1,7.162353E2,1.2140725E3,6.751722E2,2.1123184E2,9.171921E2,5.994091E2,1.0777526E3,1.2904855E3],"split_indices":[1,8,8,4,4,10,1,0,10,10,0,9,8,5,11,0,10,9,0,6,4,0,10,0,0,0,0,0,0,0,0,0,0,4,0,0,11,0,10,0,0,0,0,0,0,0,0],"split_type":[0,0,0,0,0,0,0,0,0,0,0,0,0,0,0,0,0,0,0,0,0,0,0,0,0,0,0,0,0,0,0,0,0,0,0,0,0,0,0,0,0,0,0,0,0,0,0],"sum_hessian":[1.875E3,1.307E3,5.68E2,8.25E2,4.82E2,3.79E2,1.89E2,3.07E2,5.18E2,4.79E2,3E0,1.68E2,2.11E2,1.3E2,5.9E1,6.2E1,2.45E2,3.1E2,2.08E2,8.5E1,3.94E2,4.5E1,1.23E2,7.7E1,1.34E2,2.8E1,1.02E2,4E0,5.5E1,4E0,5.8E1,5.5E1,1.9E2,1.17E2,1.93E2,3E0,8.2E1,1.08E2,2.86E2,6E0,1.17E2,1.14E2,3E0,7.4E1,8E0,2.57E2,2.9E1],"tree_param":{"num_deleted":"0","num_feature":"13","num_nodes":"47","size_leaf_vector":"0"}},{"base_weights":[1.9387209E4,1.6338208E4,2.8122307E4,1.3683018E4,1.9692807E4,2.523789E4,3.5198145E4,1.1713243E4,1.4923752E4,1.868086E4,2.2104648E4,2.3354629E4,2.7642094E4,3.261188E4,4.3573496E4,1.0359459E4,1.2550398E4,1.3989712E4,1.6143914E4,1.6977945E4,1.9793283E4,1.8501975E4,2.3657096E4,1.1903795E4,2.3633066E4,4.6731746E4,2.6069254E4,6.461549E3,1.0565473E4,6.9224624E3,1.2632882E4,1.2819203E4,1.4932565E4,1.7159256E4,8.618286E3,2.011881E4,1.2896362E4,5.7335156E3,1.2935922E4,4.471297E3,1.46300205E4],"categories":[],"categories_nodes":[],"categories_segments":[],"categories_sizes":[],"default_left":[1,1,1,1,1,1,1,1,1,1,1,1,0,0,1,1,1,1,0,1,1,0,0,0,0,0,0,0,0,0,0,1,0,0,0,0,1,0,0,0,0],"id":52,"left_children":[1,3,5,7,9,11,13,15,17,19,21,23,-1,-1,25,27,29,31,-1,33,35,-1,-1,-1,-1,-1,-1,-1,-1,-1,-1,37,-1,-1,-1,-1,39,-1,-1,-1,-1],"loss_changes":[5.176846E10,1.2699271E10,9.438953E9,1.819476E9,1.151533E9,9.979986E8,1.6981524E9,2.326528E8,3.405742E8,5.315625E8,5.9139686E8,3.8823526E8,0E0,0E0,4.955054E8,3.451699E7,2.142208E6,1.2752077E8,0E0,1.3706854E8,3.48971E8,0E0,0E0,0E0,0E0,0E0,0E0,0E0,0E0,0E0,0E0,3.830579E7,0E0,0E0,0E0,0E0,1.5367757E8,0E0,0E0,0E0,0E0],"parents":[2147483647,0,0,1,1,2,2,3,3,4,4,5,5,6,6,7,7,8,8,9,9,10,10,11,11,14,14,15,15,16,16,17,17,19,19,20,20,31,31,36,36],"right_children":[2,4,6,8,10,12,14,16,18,20,22,24,-1,-1,26,28,30,32,-1,34,36,-1,-1,-1,-1,-1,-1,-1,-1,-1,-1,38,-1,-1,-1,-1,40,-1,-1,-1,-1],"split_conditions":[3.0471E5,2.198245E5,4.289782E5,1.9134438E5,8.216157E1,3.421733E5,4.874708E5,1.705952E5,6.60898E1,2.743775E5,2.696257E5,1.5969868E0,1.3821047E3,1.6305941E3,5.182448E5,1.4031575E5,-7.072023E2,2.1310155E5,8.0719574E2,2.898735E5,3.1883438E5,9.2509875E2,1.1828549E3,5.9518976E2,1.1816533E3,2.3365874E3,1.3034628E3,3.2307745E2,5.282736E2,3.4612314E2,6.316441E2,1.9542786E1,7.466283E2,8.579628E2,4.309143E2,1.00594055E3,3.148922E5,2.8667578E2,6.467961E2,2.2356485E2,7.3150104E2],"split_indices":[9,9,1,4,10,4,1,1,10,9,4,10,0,0,4,0,6,2,0,1,3,0,0,0,0,0,0,0,0,0,0,5,0,0,0,0,1,0,0,0,0],"split_type":[0,0,0,0,0,0,0,0,0,0,0,0,0,0,0,0,0,0,0,0,0,0,0,0,0,0,0,0,0,0,0,0,0,0,0,0,0,0,0,0,0],"sum_hessian":[1.96E3,1.455E3,5.05E2,8.15E2,6.4E2,3.62E2,1.43E2,3.19E2,4.96E2,4.57E2,1.83E2,2.09E2,1.53E2,1.13E2,3E1,1.27E2,1.92E2,2.88E2,2.08E2,1.87E2,2.7E2,5.9E1,1.24E2,6E0,2.03E2,2.4E1,6E0,8E0,1.19E2,4E0,1.88E2,1.35E2,1.53E2,1.82E2,5E0,2.56E2,1.4E1,3E0,1.32E2,3E0,1.1E1],"tree_param":{"num_deleted":"0","num_feature":"13","num_nodes":"41","size_leaf_vector":"0"}},{"base_weights":[1.8418629E4,1.4913268E4,2.5075857E4,1.2232207E4,1.724289E4,2.2764605E4,3.2112906E4,1.030333E4,1.2914097E4,1.5610613E4,1.8847814E4,1.9597828E4,2.4246953E4,2.9913447E4,3.861615E4,8.121614E3,1.0671534E4,1.1441394E4,1.3350157E4,1.477265E4,1.7079725E4,1.5087681E4,1.92825E4,1.2413039E4,2.0134182E4,2.206845E4,2.54068E4,2.5638006E4,3.2024293E4,2.8919205E4,4.3261277E4,8.804543E3,1.1111711E4,1.2807866E4,1.4565251E4,9.362348E3,1.6047523E4,1.872116E4,2.1901863E4,1.4031174E4,6.6941626E3,1.815665E4,2.2106656E4,1.8672242E4,6.5852314E3],"categories":[],"categories_nodes":[],"categories_segments":[],"categories_sizes":[],"default_left":[1,1,1,1,1,1,1,1,1,1,1,1,1,1,1,0,1,0,1,0,0,1,1,1,1,0,0,0,0,0,0,0,0,0,0,0,0,0,0,0,0,1,0,0,0],"id":53,"left_children":[1,3,5,7,9,11,13,15,17,19,21,23,25,27,29,-1,31,-1,33,-1,-1,35,37,39,41,-1,-1,-1,-1,-1,-1,-1,-1,-1,-1,-1,-1,-1,-1,-1,-1,43,-1,-1,-1],"loss_changes":[4.4174475E10,7.615152E9,9.954689E9,6.3768986E8,1.4557184E9,1.8625659E9,1.1334287E9,4.0254464E7,1.2275712E8,1.6255386E8,2.5171558E8,3.820626E8,2.8576973E8,2.9803315E8,4.15531E8,0E0,1.0645504E7,0E0,2.760704E7,0E0,0E0,6.407885E7,2.2249472E7,3.5627776E7,1.8761318E8,0E0,0E0,0E0,0E0,0E0,0E0,0E0,0E0,0E0,0E0,0E0,0E0,0E0,0E0,0E0,0E0,3.602944E8,0E0,0E0,0E0],"parents":[2147483647,0,0,1,1,2,2,3,3,4,4,5,5,6,6,7,7,8,8,9,9,10,10,11,11,12,12,13,13,14,14,16,16,18,18,21,21,22,22,23,23,24,24,41,41],"right_children":[2,4,6,8,10,12,14,16,18,20,22,24,26,28,30,-1,32,-1,34,-1,-1,36,38,40,42,-1,-1,-1,-1,-1,-1,-1,-1,-1,-1,-1,-1,-1,-1,-1,-1,44,-1,-1,-1],"split_conditions":[3.141625E5,2.146226E5,4.346115E5,1.7217869E5,2.5753931E5,3.828859E1,4.844631E5,1.493769E5,3.1442535E1,7.7099464E1,2.0917522E1,-6.1082236E3,3.2625E5,3.7162445E1,4.5708174E3,4.060807E2,3.926844E1,5.720697E2,2.0590606E5,7.386325E2,8.5398627E2,2.61345E5,9.1992645E1,3.1580044E5,3.1822438E5,1.1034225E3,1.2703401E3,1.2819003E3,1.6012147E3,1.4459603E3,2.163064E3,4.4022714E2,5.555856E2,6.403933E2,7.282626E2,4.681174E2,8.0237616E2,9.3605804E2,1.0950931E3,7.015587E2,3.3470813E2,4.3007734E3,1.1053329E3,9.336121E2,3.2926157E2],"split_indices":[8,1,8,1,1,10,1,0,10,10,10,6,8,10,6,0,10,0,3,0,0,9,10,0,0,0,0,0,0,0,0,0,0,0,0,0,0,0,0,0,0,7,0,0,0],"split_type":[0,0,0,0,0,0,0,0,0,0,0,0,0,0,0,0,0,0,0,0,0,0,0,0,0,0,0,0,0,0,0,0,0,0,0,0,0,0,0,0,0,0,0,0,0],"sum_hessian":[1.908E3,1.252E3,6.56E2,5.85E2,6.67E2,4.97E2,1.59E2,1.57E2,4.28E2,3.36E2,3.31E2,1.63E2,3.34E2,1.23E2,3.6E1,2.6E1,1.31E2,1.04E2,3.24E2,2.21E2,1.15E2,3.8E1,2.93E2,1.3E1,1.5E2,1.23E2,2.11E2,4.5E1,7.8E1,1.4E1,2.2E1,2.9E1,1.02E2,2.32E2,9.2E1,7E0,3.1E1,2.48E2,4.5E1,9E0,4E0,8E1,7E1,7.6E1,4E0],"tree_param":{"num_deleted":"0","num_feature":"13","num_nodes":"45","size_leaf_vector":"0"}},{"base_weights":[1.7397785E4,1.4077679E4,2.3847012E4,1.2005349E4,1.6806275E4,2.170887E4,3.0849018E4,1.0188108E4,1.2729302E4,1.5450763E4,1.7857154E4,1.8476033E4,2.3268262E4,2.9170193E4,4.107349E4,7.277213E3,1.0379615E4,1.2232855E4,1.40267295E4,1.4004877E4,1.6346124E4,1.3093664E4,1.8198059E4,1.1261208E4,1.9078357E4,2.0868672E4,2.4404178E4,2.5787873E4,3.1775361E4,9.147849E3,1.0918618E4,1.1518554E4,1.3301139E4,2.4151383E4,1.7850623E4,1.5872E4,7.3686123E3,1.9262834E4,7.575375E3,9.659519E3,1.1717686E4,5.089465E3,1.1581654E4,2.6916016E2,1.0372783E4,1.7168738E4,2.0687875E4,1.7588197E4,1.0112703E4],"categories":[],"categories_nodes":[],"categories_segments":[],"categories_sizes":[],"default_left":[1,1,1,1,1,1,1,1,1,1,1,1,1,1,0,0,1,1,0,0,0,0,1,1,1,0,0,0,0,0,1,1,0,0,0,0,1,1,0,0,0,0,0,0,0,1,0,0,0],"id":54,"left_children":[1,3,5,7,9,11,13,15,17,19,21,23,25,27,-1,-1,29,31,-1,-1,-1,-1,33,35,37,-1,-1,-1,-1,-1,39,41,-1,-1,-1,-1,43,45,-1,-1,-1,-1,-1,-1,-1,47,-1,-1,-1],"loss_changes":[3.944802E10,6.747685E9,8.762229E9,7.9386214E8,4.7621734E8,2.0201472E9,1.2908134E9,3.8744064E7,1.4917632E8,7.918797E7,2.3427482E8,4.9349837E8,3.738501E8,3.084452E8,0E0,0E0,2.6263552E7,1.2760269E8,0E0,0E0,0E0,0E0,1.2528026E8,1.5226458E8,1.7025843E8,0E0,0E0,0E0,0E0,0E0,1.4587904E7,3.3550336E7,0E0,0E0,0E0,0E0,2.1048774E8,8.049869E7,0E0,0E0,0E0,0E0,0E0,0E0,0E0,1.4518272E7,0E0,0E0,0E0],"parents":[2147483647,0,0,1,1,2,2,3,3,4,4,5,5,6,6,7,7,8,8,9,9,10,10,11,11,12,12,13,13,16,16,17,17,22,22,23,23,24,24,30,30,31,31,36,36,37,37,45,45],"right_children":[2,4,6,8,10,12,14,16,18,20,22,24,26,28,-1,-1,30,32,-1,-1,-1,-1,34,36,38,-1,-1,-1,-1,-1,40,42,-1,-1,-1,-1,44,46,-1,-1,-1,-1,-1,-1,-1,48,-1,-1,-1],"split_conditions":[3.141625E5,2.234855E5,4.241639E5,1.779695E5,2.660022E5,3.828859E1,5.32205E5,1.4641531E5,8.093034E1,5.878097E1,1.1924236E1,-6.2575493E3,3.2625E5,6.0071136E1,2.0536746E3,3.6386066E2,4.8753696E1,2.16035E5,7.013365E2,7.0024384E2,8.173062E2,6.546832E2,2.5887E5,3.1251814E1,6.136889E1,1.0434336E3,1.2202089E3,1.2893937E3,1.5887681E3,4.5739243E2,1.641965E5,1.9542786E1,6.6505695E2,1.2075692E3,8.925312E2,7.9360004E2,1.4832884E1,3.063115E5,3.7876877E2,4.8297592E2,5.858843E2,2.5447325E2,5.790827E2,1.3458008E1,5.1863916E2,3.216469E5,1.0343938E3,8.7940985E2,5.0563516E2],"split_indices":[8,8,1,8,2,10,8,1,10,10,10,6,8,10,0,0,10,8,0,0,0,0,9,5,11,0,0,0,0,0,9,5,0,0,0,0,11,9,0,0,0,0,0,0,0,1,0,0,0],"split_type":[0,0,0,0,0,0,0,0,0,0,0,0,0,0,0,0,0,0,0,0,0,0,0,0,0,0,0,0,0,0,0,0,0,0,0,0,0,0,0,0,0,0,0,0,0,0,0,0,0],"sum_hessian":[1.857E3,1.228E3,6.29E2,7.01E2,5.27E2,4.85E2,1.44E2,2.04E2,4.97E2,2.37E2,2.9E2,1.62E2,3.23E2,1.27E2,1.7E1,1.5E1,1.89E2,3.67E2,1.3E2,9.7E1,1.4E2,2.2E1,2.68E2,1.4E1,1.48E2,1.1E2,2.13E2,6E1,6.7E1,6.3E1,1.26E2,2.27E2,1.4E2,1.1E1,2.57E2,5E0,9E0,1.45E2,3E0,5.4E1,7.2E1,3E0,2.24E2,3E0,6E0,6.4E1,8.1E1,5.9E1,5E0],"tree_param":{"num_deleted":"0","num_feature":"13","num_nodes":"49","size_leaf_vector":"0"}},{"base_weights":[1.6695754E4,1.4488008E4,2.5747145E4,1.2006447E4,1.7685502E4,2.3837928E4,3.3868625E4,1.0679889E4,1.3520002E4,1.6742846E4,2.004587E4,2.1658014E4,2.600416E4,2.9453898E4,4.1961266E4,8.808577E3,1.116822E4,1.2578508E4,1.457734E4,1.4921808E4,1.7343818E4,1.9212629E4,2.4466598E4,1.0712641E4,2.179983E4,2.4141072E4,2.9901506E4,5.2667324E3,9.014116E3,1.0129314E4,1.2104059E4,1.5100352E4,5.6118516E3,1.4127601E4,1.7646709E4,9.13281E3,4.030629E3,1.0189952E4,4.8986133E3,6.041379E3,1.5273594E4,1.4832274E4,6.792169E3],"categories":[],"categories_nodes":[],"categories_segments":[],"categories_sizes":[],"default_left":[1,1,1,1,1,1,1,1,1,1,1,1,1,0,0,1,1,0,0,1,1,0,0,0,0,0,0,0,1,1,0,1,0,1,0,0,0,0,0,0,0,0,0],"id":55,"left_children":[1,3,5,7,9,11,13,15,17,19,21,23,25,-1,-1,27,29,-1,-1,31,33,-1,-1,-1,-1,-1,-1,-1,35,37,-1,39,-1,41,-1,-1,-1,-1,-1,-1,-1,-1,-1],"loss_changes":[3.797467E10,1.2046893E10,5.0072453E9,1.6084337E9,1.1618058E9,8.8652186E8,1.229226E9,3.3111654E8,2.1880832E8,2.7416986E8,2.1875098E8,1.327104E7,3.600466E8,0E0,0E0,2.6779648E7,2.3615078E8,0E0,0E0,1.2802662E8,1.0140058E8,0E0,0E0,0E0,0E0,0E0,0E0,0E0,1.9382784E7,7.491584E6,0E0,1.0390323E8,0E0,8.534374E7,0E0,0E0,0E0,0E0,0E0,0E0,0E0,0E0,0E0],"parents":[2147483647,0,0,1,1,2,2,3,3,4,4,5,5,6,6,7,7,8,8,9,9,10,10,11,11,12,12,15,15,16,16,19,19,20,20,28,28,29,29,31,31,33,33],"right_children":[2,4,6,8,10,12,14,16,18,20,22,24,26,-1,-1,28,30,-1,-1,32,34,-1,-1,-1,-1,-1,-1,-1,36,38,-1,40,-1,42,-1,-1,-1,-1,-1,-1,-1,-1,-1],"split_conditions":[3.1955E5,2.4974681E5,4.6050147E5,2.03512E5,8.294435E1,4.225855E5,5.717172E3,1.64529E5,5.9172005E1,2.8107094E5,3.1289844E5,1.0986542E1,7.830513E1,1.472695E3,2.0980632E3,1.398839E5,6.185705E1,6.289254E2,7.28867E2,2.923236E5,7.1315756E0,9.606315E2,1.22333E3,5.35632E2,1.0899916E3,1.2070536E3,1.4950753E3,2.6333664E2,1.6988366E5,2.0937612E5,6.0520294E2,4.064171E-1,2.805926E2,3.2348953E5,8.8233545E2,4.5664047E2,2.0153145E2,5.0949762E2,2.4493066E2,3.0206894E2,7.636797E2,7.416137E2,3.3960846E2],"split_indices":[9,1,4,9,10,8,6,9,10,4,4,11,10,0,0,0,10,0,0,1,10,0,0,0,0,0,0,0,3,0,0,10,0,4,0,0,0,0,0,0,0,0,0],"split_type":[0,0,0,0,0,0,0,0,0,0,0,0,0,0,0,0,0,0,0,0,0,0,0,0,0,0,0,0,0,0,0,0,0,0,0,0,0,0,0,0,0,0,0],"sum_hessian":[1.918E3,1.544E3,3.74E2,8.72E2,6.72E2,3.06E2,6.8E1,4.69E2,4.03E2,4.86E2,1.86E2,1.58E2,1.48E2,4.7E1,2.1E1,1.01E2,3.68E2,2.2E2,1.83E2,1.27E2,3.59E2,1.61E2,2.5E1,3E0,1.55E2,1.05E2,4.3E1,7E0,9.4E1,1.8E2,1.88E2,1.24E2,3E0,3.5E1,3.24E2,9.1E1,3E0,1.77E2,3E0,3E0,1.21E2,3.1E1,4E0],"tree_param":{"num_deleted":"0","num_feature":"13","num_nodes":"43","size_leaf_vector":"0"}},{"base_weights":[1.5866387E4,1.2836057E4,2.1887115E4,1.05927E4,1.4926873E4,1.931265E4,2.7261287E4,9.340184E3,1.1515858E4,1.2996744E4,1.5934726E4,1.4515866E4,1.9911916E4,2.4779527E4,3.214785E4,7.287154E3,9.655934E3,1.0872712E4,1.2303799E4,6.955349E3,1.3186542E4,1.4462954E4,1.7436902E4,1.4958793E4,5.5717812E3,1.7704658E4,2.1131764E4,2.2825504E4,2.8148889E4,2.875145E4,3.9230234E4,9.161443E3,1.0724587E4,-2.669961E2,1.06110205E4,1.2204126E4,1.4861527E4,1.69805E4,2.27661E4,1.5481487E4,7.367325E3,1.9542598E4,2.3043479E4,1.2460788E4,5.4374375E3,1.5134887E4,6.157328E3],"categories":[],"categories_nodes":[],"categories_segments":[],"categories_sizes":[],"default_left":[1,1,1,1,1,1,1,1,1,1,1,1,1,1,1,0,1,0,0,1,1,0,1,1,0,0,1,0,0,0,0,0,0,0,0,1,1,0,0,0,0,0,0,0,0,0,0],"id":56,"left_children":[1,3,5,7,9,11,13,15,17,19,21,23,25,27,29,-1,31,-1,-1,33,35,-1,37,39,-1,-1,41,-1,-1,-1,-1,-1,-1,-1,-1,43,45,-1,-1,-1,-1,-1,-1,-1,-1,-1,-1],"loss_changes":[3.3855046E10,5.690884E9,8.1207624E9,5.919826E8,1.04372634E9,9.355264E8,1.6288481E9,9.947546E7,4.05504E7,1.67424E8,6.719488E8,1.1869286E8,6.382551E8,2.594734E8,4.1157018E8,0E0,2.0117504E7,0E0,0E0,2.4045578E8,1.773527E8,0E0,1.0473472E8,7.640781E7,0E0,0E0,2.6968064E8,0E0,0E0,0E0,0E0,0E0,0E0,0E0,0E0,1.8060083E8,8.764211E7,0E0,0E0,0E0,0E0,0E0,0E0,0E0,0E0,0E0,0E0],"parents":[2147483647,0,0,1,1,2,2,3,3,4,4,5,5,6,6,7,7,8,8,9,9,10,10,11,11,12,12,13,13,14,14,16,16,19,19,20,20,22,22,23,23,26,26,35,35,36,36],"right_children":[2,4,6,8,10,12,14,16,18,20,22,24,26,28,30,-1,32,-1,-1,34,36,-1,38,40,-1,-1,42,-1,-1,-1,-1,-1,-1,-1,-1,44,46,-1,-1,-1,-1,-1,-1,-1,-1,-1,-1],"split_conditions":[2.960015E5,2.160159E5,4.27333E5,1.892545E5,4.1040363E1,1.6187523E1,7.5229294E1,1.5303564E5,6.4609985E1,-9.692879E3,2.719345E5,5.067475E1,3.145862E5,4.6050147E5,4.7270312E5,3.643577E2,8.55628E1,5.436356E2,6.1518994E2,1.4832884E1,2.7782075E5,7.231477E2,9.3784454E1,3.3819706E5,2.7858908E2,8.852329E2,7.303963E1,1.1412753E3,1.4074445E3,1.4375725E3,1.9615117E3,4.5807217E2,5.362294E2,-1.3349805E1,5.30551E2,2.7891978E5,4.34196E3,8.49025E2,1.138305E3,7.740744E2,3.6836627E2,9.771299E2,1.152174E3,6.230394E2,2.718719E2,7.567443E2,3.0786642E2],"split_indices":[9,1,8,1,10,10,10,0,10,6,8,11,4,4,0,0,10,0,0,11,4,0,11,4,0,0,10,0,0,0,0,0,0,0,0,0,7,0,0,0,0,0,0,0,0,0,0],"split_type":[0,0,0,0,0,0,0,0,0,0,0,0,0,0,0,0,0,0,0,0,0,0,0,0,0,0,0,0,0,0,0,0,0,0,0,0,0,0,0,0,0,0,0,0,0,0,0],"sum_hessian":[1.87E3,1.246E3,6.24E2,6.04E2,6.42E2,4.25E2,1.99E2,2.61E2,3.43E2,2.25E2,4.17E2,5E1,3.75E2,1.36E2,6.3E1,3.8E1,2.23E2,1.97E2,1.46E2,8E0,2.17E2,2.16E2,2.01E2,4.7E1,3E0,1.39E2,2.36E2,9.1E1,4.5E1,4.6E1,1.7E1,1.59E2,6.4E1,3E0,5E0,1.42E2,7.5E1,1.89E2,1.2E1,4.3E1,4E0,1.35E2,1.01E2,1.36E2,6E0,7.2E1,3E0],"tree_param":{"num_deleted":"0","num_feature":"13","num_nodes":"47","size_leaf_vector":"0"}},{"base_weights":[1.5023616E4,1.272725E4,2.210512E4,1.0521648E4,1.5398159E4,1.9985557E4,2.827159E4,9.125193E3,1.1429241E4,1.4790198E4,1.8294059E4,1.8130537E4,2.1663783E4,2.5658725E4,3.4819418E4,7.468665E3,9.512764E3,1.0399756E4,1.2153306E4,1.2179278E4,1.5157048E4,1.7193785E4,2.3477254E4,5.460664E3,1.8325441E4,2.0873049E4,2.7384635E4,3.7316152E4,2.1284982E4,4.2656226E3,7.667811E3,7.923453E3,9.900124E3,4.3071797E3,1.0470313E4,1.2485412E4,6.781932E3,1.3223362E4,1.5733108E4,1.7466498E4,2.087128E4,2.1753059E4,1.0374727E4,6.40829E3,8.626246E3,1.3382079E4,7.118669E3,1.5799662E4,7.940975E3,6.970742E3,1.7658035E4],"categories":[],"categories_nodes":[],"categories_segments":[],"categories_sizes":[],"default_left":[1,1,1,1,1,1,1,1,1,1,1,1,0,1,1,1,1,1,0,1,1,0,0,0,1,1,0,0,0,0,0,1,0,0,0,0,0,1,1,1,0,0,0,0,0,0,0,0,0,0,0],"id":57,"left_children":[1,3,5,7,9,11,13,15,17,19,21,23,-1,25,27,29,31,33,-1,35,37,-1,-1,-1,39,41,-1,-1,-1,-1,-1,43,-1,-1,-1,-1,-1,45,47,49,-1,-1,-1,-1,-1,-1,-1,-1,-1,-1,-1],"loss_changes":[3.0290706E10,8.214954E9,5.4342287E9,8.868168E8,8.5796454E8,6.812631E8,1.0740613E9,1.2990464E8,2.23957E8,3.2783565E8,2.0655309E8,3.1972966E8,0E0,1.3873152E8,2.1948006E8,8.115968E6,7.54647E7,4.130816E7,0E0,3.2638976E7,3.0991974E8,0E0,0E0,0E0,6.3488E5,2.3760896E7,0E0,0E0,0E0,0E0,0E0,2.22208E6,0E0,0E0,0E0,0E0,0E0,1.4225408E7,5.7606144E7,1.4025933E8,0E0,0E0,0E0,0E0,0E0,0E0,0E0,0E0,0E0,0E0,0E0],"parents":[2147483647,0,0,1,1,2,2,3,3,4,4,5,5,6,6,7,7,8,8,9,9,10,10,11,11,13,13,14,14,15,15,16,16,17,17,19,19,20,20,24,24,25,25,31,31,37,37,38,38,39,39],"right_children":[2,4,6,8,10,12,14,16,18,20,22,24,-1,26,28,30,32,34,-1,36,38,-1,-1,-1,40,42,-1,-1,-1,-1,-1,44,-1,-1,-1,-1,-1,46,48,50,-1,-1,-1,-1,-1,-1,-1,-1,-1,-1,-1],"split_conditions":[3.184296E5,2.2404338E5,4.328145E5,1.913615E5,8.900641E1,3.421733E5,4.895555E5,1.5850223E5,4.804879E1,1.0005125E1,3.207545E5,9.712381E0,1.0831892E3,4.848664E1,5.182448E5,1.3947716E5,2.9907898E1,1.8536808E1,6.076653E2,2.6546246E1,2.6572884E5,8.596893E2,1.1738627E3,2.730332E2,8.8724884E1,5.9673574E3,1.3692318E3,1.8658076E3,1.0642491E3,2.1328113E2,3.8339056E2,1.727604E5,4.950062E2,2.15359E2,5.235157E2,6.242706E2,3.3909662E2,